{"weights": {"layer_1": [[-0.2886476516723633, -0.2988056242465973, 0.036288727074861526, -0.27530932426452637, -0.6593568325042725, -0.6022765636444092, 0.17428313195705414, -0.8586379885673523, 1.0270869731903076, 0.8792118430137634, -0.04364011064171791, 0.21996115148067474, -1.105817437171936, -0.7752425074577332, -0.15136536955833435, -0.323316752910614, -1.151663064956665, 0.23150236904621124, -1.390793800354004, 0.13031263649463654, -0.7000710964202881, -0.7786423563957214, 0.6708521842956543, 0.19276727735996246, -0.8492408394813538, -1.0226225852966309, 0.18677625060081482, -0.37803328037261963, -0.01745246723294258, 0.1144990399479866, -0.47370657324790955, -0.7139647603034973, -0.07899891585111618, 0.17110280692577362, -0.6499956846237183, -0.4186978340148926, 0.8314128518104553, 0.3255304992198944, -0.580190896987915, -0.04332185536623001, -0.4468923509120941, 0.03915943205356598, -0.6635010838508606, 0.2195432335138321, -0.43265029788017273, 0.5303564071655273, -0.08168603479862213, -0.7456039190292358, 0.15326064825057983, 0.1917889267206192, -0.23428292572498322, 0.4517248868942261, -0.9252617955207825, 0.10077893733978271, -0.19851639866828918, 0.10609254986047745, 0.8468695878982544, 0.45318058133125305, -0.1781526505947113, -0.2689976990222931, 0.6885167956352234, -1.1475733518600464, 0.46492812037467957, 0.09116558730602264, 0.1195947527885437, -0.5594328045845032, 0.1846575289964676, 0.09854254126548767, 1.005491852760315, 0.6019338965415955, -0.15392670035362244, -0.3218182921409607, 0.6234549880027771, -0.3617563843727112, 0.019818153232336044, -0.389873206615448, 0.581383466720581, -0.38107529282569885, -0.18315668404102325, 0.3619976043701172, 0.4296744465827942, -0.7171056866645813, 0.1628119796514511, 0.19397187232971191, 0.3727484345436096, -0.49918314814567566, -0.2942271828651428, -0.36128440499305725, 0.5474028587341309, -0.50045245885849, 0.5271897315979004, -0.26488691568374634, -0.19816532731056213, -0.46222710609436035, 0.12473589926958084, -1.116533875465393, -0.3899114429950714, -0.0658779889345169, -0.6050983667373657, -0.8241396546363831, 0.6269485950469971, -0.03918115794658661, 0.15058980882167816, -1.314416766166687, 0.23242084681987762, -0.7456431984901428, -0.9911206364631653, -1.0032141208648682, 0.27106526494026184, -0.1664339303970337, 0.811668872833252, 0.042789652943611145, -0.8332200050354004, -0.3597869575023651, 0.09767832607030869, -0.11345245689153671, 0.2564295828342438, 0.8481242656707764, -0.2336007058620453, 0.7395897507667542, -0.8663394451141357, -0.6532585024833679, 1.0244464874267578, -0.3819302022457123, 0.29985755681991577, 0.07194042950868607, -0.24053554236888885, 0.7687914967536926, 0.013359361328184605, -0.3893894851207733, -0.3712524175643921, -0.7210232615470886, -1.0086731910705566, 0.45677435398101807, 0.29980185627937317, -0.18086805939674377, 0.5375040173530579, -0.4973105192184448, -0.4158914387226105, -0.032855257391929626, -0.2676398456096649, 0.23441435396671295, -0.01833806373178959, -0.02497006207704544, 0.06416750699281693, -1.0140761137008667, 0.4887876510620117, -0.5015662312507629, -0.3856276869773865, 0.03962971642613411, -0.5636434555053711, -0.4429582953453064, 0.3404678404331207, -1.0023314952850342, 0.19664622843265533, 0.2741996645927429, -0.23674136400222778, 0.08873055130243301, -1.1779686212539673, -0.27869877219200134, -0.07300731539726257, 0.08952564746141434, 0.4023071229457855, 1.2697504758834839, -0.19393116235733032, -0.39922478795051575, 0.2660388648509979, -0.217474564909935, -0.11795075237751007, 0.49164190888404846, -0.418243944644928, -0.3513830900192261, -0.3373086750507355, -0.27896353602409363, -0.047529127448797226, -0.5528600811958313, -0.3229829668998718, 0.3742064833641052, -0.6072918772697449, 0.3591062128543854, 0.2956348657608032, 0.18426769971847534, -0.24798406660556793, 0.5372041463851929, -0.41104185581207275, -1.1212341785430908, -0.8365275263786316, 0.6496872901916504, 0.036391619592905045, -0.5231238603591919, 0.25825005769729614, 0.057965464890003204, 0.19275760650634766, -0.2107817530632019, 0.3628462255001068, -0.2571149170398712, -0.9260202050209045, 0.41555219888687134], [0.046084702014923096, 0.100779227912426, -0.19949229061603546, -0.06642474979162216, -0.5454307794570923, -1.12720787525177, 0.08616149425506592, -0.5014311075210571, -0.6562485694885254, 0.46493765711784363, -1.0583949089050293, 0.48989927768707275, -0.5012260675430298, -0.587735116481781, 0.44715744256973267, 0.1072745993733406, -0.3428637981414795, -0.419596791267395, 0.05164133012294769, -0.6749961376190186, -0.03242328763008118, -0.07405273616313934, 0.2821836471557617, 0.14284710586071014, 0.2578139007091522, 0.5696313977241516, -0.7312723994255066, -0.39258259534835815, -0.32645320892333984, -0.478317528963089, 0.5160589814186096, 0.6179853677749634, 0.24347034096717834, 0.08318737149238586, -0.23698875308036804, -0.21114666759967804, -0.6576471924781799, -0.32703813910484314, 0.5259184837341309, -0.07049550861120224, -0.11939645558595657, 0.09384951740503311, -0.21052034199237823, 0.1215919777750969, 0.3423008918762207, 0.4909888803958893, 0.3975604176521301, 0.001847367617301643, -0.18279790878295898, -0.9034020900726318, -0.07271116226911545, -0.22494077682495117, -0.2656821608543396, 0.2848401367664337, 0.01755829155445099, 0.28215375542640686, 0.07342105358839035, 0.16303351521492004, -0.17285306751728058, -0.3407520651817322, 0.43398088216781616, 0.2035483419895172, -0.22904330492019653, 0.14966565370559692, 0.24183018505573273, -0.24789172410964966, 0.04283154383301735, -0.15605048835277557, -1.091923713684082, 0.9603500962257385, -0.6448385715484619, -0.12585479021072388, 0.3885883092880249, -0.7668974995613098, -0.6239561438560486, 0.6878423690795898, -0.5723282694816589, -0.7353951334953308, -0.21886853873729706, -0.5538275837898254, 0.7916945815086365, 0.24144084751605988, 0.05202814191579819, -0.16463801264762878, 0.4673718810081482, -0.13790768384933472, -0.4615354835987091, -0.08286046981811523, 0.7324134111404419, -0.3369939625263214, 0.7159556150436401, 0.10494745522737503, -0.7712901830673218, -0.057326313108205795, -0.6168503761291504, -0.1501355916261673, 0.1690475344657898, -0.0752219632267952, 0.34402453899383545, -0.21830850839614868, 0.11928563565015793, 0.17030732333660126, 0.01749439164996147, 0.40975117683410645, 0.13088442385196686, -0.09411999583244324, 0.14900216460227966, -0.4837745726108551, 0.16322439908981323, 0.0992836132645607, -0.13532830774784088, 0.4429369866847992, -0.37028583884239197, -0.12612807750701904, 1.0562405586242676, -0.03123299591243267, -0.6774330735206604, -0.11213439702987671, 0.627058207988739, 0.06770641356706619, -0.20246532559394836, -0.04952917993068695, 0.3081679344177246, -0.07750395685434341, -0.6387587189674377, -0.06451825052499771, 0.025912931188941002, -0.5100342631340027, -0.2333354651927948, 1.1117936372756958, -0.1690840870141983, -0.13747747242450714, 0.12334691733121872, -0.6369602084159851, 0.4964703321456909, -0.03301198408007622, -0.42872029542922974, 0.30310991406440735, 0.48983633518218994, -0.29844164848327637, -0.19719316065311432, -0.20936428010463715, 0.4907208979129791, 0.09186236560344696, -0.9799243211746216, -0.10544422268867493, 0.10081971436738968, 0.9583600759506226, -0.7481799125671387, -0.2515537440776825, 0.2815774977207184, -0.029515065252780914, -0.38468706607818604, 0.086018405854702, -0.03335161507129669, 0.044630661606788635, -0.6179568767547607, -0.40812402963638306, -0.5431658625602722, 0.16426952183246613, -0.33900994062423706, 0.34304794669151306, 0.7715652585029602, 0.3884652256965637, -0.7656099796295166, 0.4765227437019348, 0.17741301655769348, 0.4621312916278839, -0.8780360221862793, -0.7461273670196533, -0.2846592962741852, -0.09801636636257172, -0.09509096294641495, -0.13342489302158356, 0.3868820071220398, -1.4455982446670532, -0.7614989876747131, -0.45286041498184204, -0.9946367740631104, 0.2122669667005539, -0.21905769407749176, 0.32005855441093445, -0.7652352452278137, -0.026473393663764, -1.1057592630386353, -0.15268126130104065, -0.8805991411209106, -0.14428474009037018, -0.3943953514099121, 0.6621729731559753, 0.14734184741973877, 0.7923004031181335, -0.0544775016605854, -0.5863139033317566, -0.36537930369377136, 0.1746712028980255, 0.590399980545044, 0.8432683944702148], [0.13049480319023132, -0.07956020534038544, 0.09876034408807755, -0.5494780540466309, 0.29033511877059937, -0.8183639645576477, 0.12306366860866547, -0.3059062361717224, -0.030096406117081642, 0.27243468165397644, -0.3363964855670929, 0.2714616060256958, -0.42249053716659546, -0.1209951713681221, -0.34927472472190857, 0.34336209297180176, -0.08968384563922882, -1.4855777025222778, -0.4757750332355499, -0.7725101709365845, 0.472478985786438, 0.048392098397016525, 0.8043296933174133, -1.4577077627182007, -0.239836186170578, 0.5514616370201111, -0.18665289878845215, 0.5778378844261169, -0.38727688789367676, 0.32241272926330566, -0.35821226239204407, -0.24574759602546692, -0.9525437951087952, 0.637230634689331, 0.34273266792297363, -0.8267622590065002, -0.47954902052879333, -0.17299968004226685, -0.12291789799928665, 0.11377774178981781, -0.13934718072414398, 0.7785252332687378, -0.6756759881973267, 0.5884118676185608, -0.10552797466516495, 0.2408827543258667, -0.3646965026855469, -0.4934017062187195, 1.1680423021316528, -0.300601065158844, 0.3457971513271332, -0.14017875492572784, 0.43448981642723083, 0.2197355031967163, 0.17124776542186737, 0.2251645028591156, 0.10827504098415375, 0.7712075710296631, -0.04423242062330246, -0.3931737244129181, -0.18432791531085968, 0.13670939207077026, -0.8308966159820557, 0.25336143374443054, -0.010666918940842152, -0.4491306245326996, -0.2788025140762329, 0.25035029649734497, -0.4206562340259552, 1.0213042497634888, 0.3293396532535553, 0.020723018795251846, -0.20693685114383698, 0.17995843291282654, -0.7839798331260681, 0.28770211338996887, 0.045775990933179855, -0.15390963852405548, 0.06898625195026398, 0.18682512640953064, -1.1333760023117065, -0.6227900981903076, -0.2978944480419159, 0.2609860301017761, -0.56532222032547, -0.9312289953231812, 0.8482482433319092, 0.9566508531570435, -0.3208123743534088, -0.05420790985226631, -0.09035781770944595, 0.7021758556365967, 0.43463632464408875, -0.04170256853103638, -0.7630026340484619, 0.9702578783035278, -0.36337924003601074, 0.3601035475730896, -0.8338789343833923, -0.03791557997465134, 0.2177743911743164, -0.2607472836971283, -0.20552608370780945, -0.11449043452739716, -0.39342087507247925, 0.2786014676094055, 0.1761694699525833, 0.1430695652961731, -0.17550037801265717, -0.06992801278829575, -0.13657735288143158, 0.25256574153900146, -0.09660235047340393, 0.4593316912651062, 0.02862692065536976, -0.5407620072364807, 0.25862422585487366, 0.5269312858581543, -0.11720091104507446, 0.11952510476112366, 0.28237366676330566, -1.0146886110305786, 0.7029168009757996, 0.3624241352081299, 0.8466255068778992, 0.6820128560066223, 0.5938337445259094, 0.23330654203891754, -0.6327497363090515, -0.11939527094364166, -0.3036649525165558, 0.24557551741600037, -0.7264893651008606, 0.06832075119018555, -0.3163765072822571, -0.1304263025522232, -0.42767399549484253, -0.15762461721897125, -0.3225021958351135, -1.0196170806884766, -1.2513526678085327, 0.017262471839785576, -0.3576803505420685, -0.8436831831932068, -0.8642565608024597, -0.7059919834136963, 0.7260664701461792, -0.40830981731414795, 0.09261198341846466, -0.6156244277954102, -0.04564204439520836, -0.29592013359069824, -0.6651609539985657, -0.34956660866737366, -0.3587750792503357, 0.22239667177200317, 0.00818480271846056, 0.11288093030452728, -0.17684510350227356, 0.5394029021263123, -0.6050716042518616, 0.13649830222129822, -0.2905636131763458, -0.09110740572214127, -0.019614722579717636, -0.4899403750896454, 0.029286164790391922, 0.0407271683216095, 0.6269904375076294, -0.0838579386472702, 0.3088299036026001, 0.36850443482398987, -0.013136783614754677, 0.7546336054801941, 0.44533321261405945, 0.010884231887757778, 0.1864948868751526, -0.3432789444923401, -0.12532657384872437, 0.013904690742492676, 0.009847039356827736, 0.022221442312002182, 0.1830499768257141, -0.20972412824630737, -0.3961884081363678, -0.24376322329044342, 0.11808463931083679, -0.09389704465866089, -0.16809099912643433, 0.28873613476753235, -1.2232064008712769, -0.03741125017404556, -0.21020309627056122, -0.3830733597278595, 0.16698868572711945, -0.07026320695877075, 0.22025644779205322, 0.12461305409669876], [0.5966466665267944, -0.3544270992279053, 0.11575686931610107, 0.4886869788169861, -0.8082393407821655, 0.25388985872268677, 0.3580269515514374, -0.016388293355703354, 0.2817768454551697, -0.04373367503285408, -0.32185056805610657, 0.12287528067827225, 0.13719484210014343, -0.5958811044692993, -0.23514677584171295, 0.3404788374900818, -0.28587308526039124, 0.3283543884754181, -0.3376258313655853, -0.2976577579975128, -0.4688238203525543, 0.3025830090045929, 0.36897557973861694, 0.3862611949443817, -0.31156235933303833, 0.08223167061805725, -0.10353535413742065, -0.16914056241512299, -0.3997024893760681, -0.9606391787528992, 0.12194191664457321, -0.11580125242471695, -0.0027426318265497684, 0.28457221388816833, 0.03833566978573799, 0.0012996862642467022, -0.048769205808639526, -0.2790086567401886, 0.2202107161283493, -0.2631227970123291, -0.2938068211078644, 0.3993241786956787, 0.7448604702949524, -0.11303271353244781, 0.18078380823135376, -0.8090146780014038, 0.1956166923046112, 0.13020533323287964, 0.10197024047374725, -0.16677351295948029, 0.1352197825908661, -0.44745904207229614, -0.485265851020813, -0.7902017831802368, -0.414691686630249, -0.3053882420063019, -0.8838393688201904, 0.5891468524932861, -0.7119371294975281, -0.6876019835472107, -0.08913478255271912, -0.4110563099384308, 0.060577135533094406, -0.23104171454906464, -0.17968688905239105, 0.2850099205970764, 0.43417176604270935, 0.2676730155944824, 0.17292430996894836, 0.3826445937156677, 0.2444358617067337, 0.5016085505485535, -0.3865487575531006, -0.6883286237716675, 0.30115240812301636, -0.1066141277551651, -0.004754125606268644, 0.5643728375434875, -0.14660456776618958, -0.13716861605644226, -0.290824830532074, 0.14826607704162598, -0.2638406753540039, 0.11429038643836975, 0.45214390754699707, 0.05027211457490921, -0.34989282488822937, -0.0741015151143074, -0.23822565376758575, 0.25914451479911804, -0.5633139610290527, 0.8304242491722107, -0.38186684250831604, 0.3122749328613281, 0.055585622787475586, 0.28758445382118225, 0.03828384354710579, -0.836950957775116, 0.34883829951286316, -0.07409464567899704, 0.05587692931294441, -0.32819294929504395, -0.30311375856399536, 0.4461342692375183, -0.9320440292358398, -0.2619208097457886, -0.30325427651405334, 0.2404693216085434, 0.04112342372536659, 0.39795246720314026, -0.4626910984516144, 0.3233835995197296, 0.4162576496601105, 0.2613471746444702, 0.052819911390542984, -0.2659100294113159, 0.2989972233772278, -0.38164177536964417, 0.04011768475174904, -0.2728464901447296, -0.12584319710731506, -0.5061213374137878, 0.11406072974205017, -0.5975668430328369, 0.08084263652563095, 0.3734114170074463, -0.5161752700805664, 0.3824211359024048, 0.04521842673420906, 0.35390135645866394, 0.13156212866306305, -0.1814863532781601, -0.4006534218788147, -0.7173641324043274, 0.12181738764047623, -0.5321092009544373, -1.2124857902526855, 0.02825513668358326, -0.3840632736682892, -1.3223055601119995, -0.3301351070404053, -0.31449463963508606, 0.1309007704257965, 0.20278598368167877, 0.20159398019313812, 0.22138428688049316, 0.12926632165908813, -0.26234716176986694, -0.30590179562568665, -0.036426935344934464, -0.0458524227142334, 0.3586615324020386, -0.49734970927238464, -0.34438973665237427, 0.1340216100215912, -0.21359017491340637, -0.3500959575176239, -0.3155348598957062, 0.5005124807357788, -0.11901962757110596, 0.027816414833068848, -0.19232527911663055, -0.6652399301528931, -0.7284684181213379, -0.06480898708105087, 0.19548693299293518, 0.5474556684494019, -0.4993853271007538, -0.04380258917808533, -0.3186059892177582, 0.08287211507558823, 0.34808680415153503, -0.07038361579179764, 0.22080674767494202, -0.1846429854631424, 0.10316286981105804, 0.37982678413391113, 0.030205927789211273, 0.18449503183364868, -1.8036184310913086, 0.1239154189825058, 0.05217667669057846, 0.11322581022977829, -0.38329747319221497, -0.11291483789682388, 0.21469180285930634, -0.4590134024620056, 0.377574622631073, -0.882554829120636, -0.1556791514158249, 0.4211455285549164, -0.9572579860687256, 0.709734320640564, -0.021725310012698174, -0.3889939486980438, 0.33443254232406616, 0.342620849609375, 0.03274471312761307], [-0.37687942385673523, 0.14321213960647583, 0.017599496990442276, -0.47256961464881897, -0.12533479928970337, -0.22501613199710846, 0.020465483888983727, 0.005300207529217005, -0.04073033109307289, 0.4694724380970001, 0.42725732922554016, -0.2928113043308258, -0.3564136326313019, 0.4183974862098694, -0.2457374632358551, -0.10609618574380875, -0.5299213528633118, 0.12702740728855133, -0.6519652009010315, 0.05547311156988144, 0.08622340857982635, 0.3935675323009491, -0.09300336986780167, 0.4103032052516937, 0.4517291784286499, 0.20199766755104065, 0.04208846017718315, -0.6028336882591248, 0.4258818030357361, 0.020264657214283943, -0.004798639100044966, 0.25018203258514404, -0.5651463866233826, 0.6072643399238586, 0.1902513951063156, -0.17261257767677307, -0.3424850404262543, 0.09992541372776031, -0.5502750277519226, 0.7575063109397888, 0.4024418592453003, 0.09866910427808762, -0.11044344305992126, -0.45104169845581055, 0.06347203999757767, -0.4673944413661957, -0.31579580903053284, 0.11177106946706772, 0.15175583958625793, -0.44115743041038513, -0.38471758365631104, -0.10171889513731003, 0.35701173543930054, -0.3378150165081024, -0.14485375583171844, -0.15955403447151184, -0.3114185929298401, 0.1726057082414627, -0.07558292895555496, -0.6046319007873535, -0.29742830991744995, -0.16455461084842682, -1.097392201423645, 0.031041093170642853, -0.05763464793562889, -0.014876692555844784, -0.5065756440162659, 0.26789432764053345, 0.31763604283332825, -0.17128318548202515, -0.053834281861782074, -0.4615686535835266, -0.02392718195915222, -0.24929845333099365, 0.30200323462486267, 0.33089080452919006, -0.12439596652984619, 0.5089206099510193, -0.8898558020591736, 0.26204976439476013, 0.21693329513072968, -0.11323896050453186, 0.623724639415741, 0.015841854736208916, 0.19184783101081848, 0.02060101367533207, -0.41053661704063416, -0.9309581518173218, 0.20951582491397858, -0.30337172746658325, -0.3493700325489044, -0.009758690372109413, -0.303862601518631, 0.07825689017772675, -0.08646344393491745, 0.029163949191570282, -0.5816197991371155, -0.0213741697371006, 0.12589918076992035, 0.5566704273223877, -1.268875002861023, -0.08840472251176834, -0.05858300253748894, -0.41159358620643616, -0.22162525355815887, -0.10060224682092667, 0.05587006360292435, -0.19344088435173035, 0.3975008428096771, 0.505379855632782, 0.1560623198747635, -0.012937704101204872, -0.6116482019424438, 0.13025523722171783, -0.31955307722091675, -0.19020695984363556, -0.5622178316116333, -0.501848042011261, -0.6696465611457825, 0.006361136678606272, -0.36890628933906555, -0.22042985260486603, -0.05850568413734436, -0.4998638927936554, -0.3174782991409302, 0.1400909274816513, 0.2541787028312683, 0.4279711842536926, -1.0616424083709717, 0.07436411082744598, -0.08368898183107376, 0.26559922099113464, 0.2910666763782501, 0.5672376751899719, 0.3382266163825989, 0.06775850802659988, -0.7409476637840271, -0.28605347871780396, 0.2832684814929962, 0.14395654201507568, -0.10277482122182846, -0.20896846055984497, -0.09593464434146881, 0.03393302485346794, 0.05550616607069969, -0.11446362733840942, 0.13271464407444, -0.09155616909265518, 0.6186767816543579, -0.47726041078567505, 0.27527645230293274, -0.4682982265949249, -0.11720158904790878, -0.1290038377046585, -0.16745710372924805, 0.06406404078006744, -0.3835422992706299, 0.34436506032943726, 0.08581525832414627, 0.5290611982345581, 0.17596033215522766, -0.14088061451911926, -0.4613765776157379, -0.32292500138282776, 0.6966598033905029, 0.20662620663642883, -0.43337947130203247, -0.10343289375305176, 0.2193693071603775, -1.0034561157226562, 0.028311632573604584, 0.5311050415039062, -0.1369854062795639, -0.3269181549549103, -0.07199987024068832, -0.49006766080856323, -0.19877034425735474, 0.38155344128608704, -0.057737238705158234, -0.4528753459453583, 0.2723270356655121, 0.0181560181081295, -0.02956574037671089, -0.39642786979675293, 0.14998264610767365, 0.1485402137041092, 0.04927566647529602, -0.4589933454990387, -0.4282136559486389, 0.29975852370262146, 0.058452583849430084, 0.32177460193634033, 0.07408548891544342, -0.22066348791122437, -0.45600786805152893, -0.9785217642784119, 0.058946043252944946, 0.23718585073947906], [0.4325091540813446, -0.10494448989629745, 0.05551378056406975, 0.16820788383483887, -0.46148595213890076, -0.5811902284622192, 0.19747526943683624, -0.49939948320388794, -0.6265550851821899, 0.3164939880371094, -0.5757244229316711, -0.06356796622276306, -0.24563202261924744, -0.5075170397758484, 0.451926052570343, 0.3472314774990082, -0.8752942085266113, -1.3326693773269653, -0.609001100063324, -0.0031811236403882504, 0.49856874346733093, -0.28779104351997375, -0.2072248011827469, 0.01934693567454815, -0.4983369708061218, -0.8767927289009094, -0.2382023185491562, -0.024733277037739754, 0.24433398246765137, -0.9293257594108582, -0.024151984602212906, 0.27836930751800537, -0.2812264859676361, -0.448346883058548, 0.1931246668100357, 0.3306306302547455, 0.17524245381355286, -0.37006568908691406, 0.13114798069000244, -0.16614912450313568, -0.020052142441272736, 0.6336760520935059, 0.2777830958366394, 0.28786662220954895, 0.5738568305969238, -0.38368818163871765, 0.5353649854660034, 0.22757622599601746, -0.6449382305145264, -0.9410094618797302, 0.3427219092845917, -0.5459231734275818, 0.6513569355010986, -0.5748743414878845, 0.5478897094726562, -0.24868284165859222, -0.2899533212184906, -0.05537363514304161, -0.9877116680145264, 0.32680025696754456, -1.1377290487289429, -0.7711868286132812, -0.11011624336242676, 0.3620220422744751, 0.3222082853317261, 0.3267717659473419, -0.05140203982591629, -0.12829065322875977, -1.2151488065719604, -0.10420264303684235, 0.007322095334529877, 0.14031986892223358, -0.22318293154239655, -0.6695700883865356, 0.24283431470394135, -0.02336227148771286, 0.5155385732650757, 0.5963965654373169, 0.3878461718559265, -1.053095817565918, -0.06794477254152298, 0.2477007508277893, -0.5859509110450745, 0.1587776392698288, -0.265074223279953, -0.18488465249538422, 0.05496098846197128, 0.23979581892490387, 0.2445833683013916, 0.35415926575660706, 0.10827907174825668, 0.1698179841041565, 0.5996949672698975, 0.33327633142471313, -0.4039405286312103, 0.2509152591228485, -0.5120998620986938, -0.22696636617183685, -0.434519499540329, -0.2806442677974701, 0.33983147144317627, -0.09792572259902954, 0.18002896010875702, 0.29789385199546814, -0.2607826292514801, 0.3394554555416107, -0.3470485210418701, -0.07782435417175293, 0.08274979144334793, -0.5331642627716064, -0.018972007557749748, 0.4569261372089386, 0.10459303855895996, -0.28681841492652893, 0.5887816548347473, 0.15397287905216217, -0.19353269040584564, 0.058039966970682144, 0.27270078659057617, 0.8434146642684937, 0.1388966590166092, -0.3094883859157562, -0.04252172261476517, -0.5621538758277893, -0.38293686509132385, 0.5135064721107483, 0.6584973931312561, -0.18706580996513367, -0.49976471066474915, 0.1771049201488495, -0.8281817436218262, -0.936006486415863, 0.17829571664333344, -0.05522603169083595, 0.04848656803369522, -1.008690357208252, 0.2664748430252075, -0.13525578379631042, -0.31201493740081787, -0.4645068049430847, -0.21764057874679565, -0.2533901035785675, -0.1628582626581192, 0.5690875053405762, -0.696749210357666, -0.22743092477321625, 0.10167284309864044, 0.5383903384208679, 0.07687386870384216, 0.07498180866241455, 0.5205262899398804, -0.23008687794208527, -0.9448462724685669, -0.5238118767738342, -0.3803284764289856, -0.31320396065711975, 0.25666701793670654, 0.5698133707046509, -0.39749500155448914, 0.08849809318780899, -0.4642597436904907, -0.13889719545841217, -0.5097219347953796, -1.0236703157424927, -0.1375269591808319, -0.24724633991718292, -0.36631548404693604, -0.16427187621593475, 0.2307773232460022, -0.029475819319486618, -0.27830955386161804, 0.19974592328071594, 0.28770485520362854, 0.21103030443191528, -0.43187469244003296, -0.2453121542930603, -0.21304626762866974, 0.030450187623500824, -0.3015573024749756, -0.5441961288452148, 0.07266248762607574, -0.48569348454475403, -0.15057305991649628, -0.2917930483818054, 0.33243170380592346, -0.01074160449206829, 0.005326559767127037, 0.3280315101146698, 0.16000470519065857, -0.2161858230829239, -0.31789910793304443, -0.12170717865228653, -0.29302141070365906, -0.12255415320396423, -0.47705522179603577, 0.2903154492378235, -0.014489778317511082, 0.008174304850399494], [-0.05138333886861801, 0.2272379845380783, -0.3664953410625458, -0.0022255287040024996, 0.5018400549888611, -0.20527225732803345, 0.33484357595443726, -0.1291559785604477, -0.3085155189037323, 0.47257038950920105, -1.0856631994247437, -0.017132431268692017, 0.36706191301345825, 0.4255061745643616, -0.16546516120433807, 0.09004177898168564, 0.4220397174358368, 0.14227500557899475, 0.1374722719192505, -0.15009935200214386, -0.5480719804763794, -0.12337581813335419, -0.6982021331787109, -0.04698323830962181, 0.07328967750072479, -0.19575738906860352, -1.0917584896087646, 0.5593140125274658, 0.48829618096351624, 0.09802664071321487, 0.7320570945739746, 0.00047694751992821693, -0.8540856242179871, 0.5518932938575745, 0.5150558352470398, 0.05607032775878906, 0.892125129699707, -1.5133428573608398, -1.0514106750488281, -0.3204212188720703, 0.23574072122573853, -0.12944170832633972, -0.1230263039469719, -1.3007394075393677, 0.22726470232009888, -0.4229089915752411, -0.6394117474555969, 0.4411320090293884, 0.21066930890083313, -0.6416731476783752, 0.7212485671043396, -0.13259311020374298, -0.09905345737934113, -0.11340789496898651, -0.64203280210495, 0.014564188197255135, 0.6393193006515503, 0.2645447850227356, -0.4029405117034912, 0.6248943209648132, 0.0391056127846241, -0.5301607847213745, -0.19455228745937347, 0.06530330330133438, -0.10121186822652817, 0.9063650369644165, -0.8495473265647888, 0.7061912417411804, -1.269627332687378, -0.44346725940704346, 0.35450389981269836, 1.0267012119293213, -0.3287731409072876, 0.23965401947498322, -0.5532242655754089, -0.12811361253261566, -0.0781768262386322, 0.147551029920578, 0.7239829301834106, -0.2572885751724243, 0.6667722463607788, -0.15281446278095245, -0.3765411376953125, 0.11911117285490036, 0.5197138786315918, -0.5965693593025208, -0.04017561674118042, 0.15497295558452606, 0.20581600069999695, -0.21369637548923492, -0.6493456959724426, 0.2565469741821289, -0.17766311764717102, 0.06029946357011795, -0.23096118867397308, -0.6368108987808228, -0.4767642617225647, -0.1787927746772766, 0.38137656450271606, 0.6803091764450073, 0.2200459986925125, 0.018183806911110878, -0.16138708591461182, -0.6260325908660889, 0.4027809798717499, 0.7681290507316589, 0.18739141523838043, 0.3478049635887146, 0.8929120302200317, 0.0883716493844986, -0.6267075538635254, -1.3214308023452759, -0.21303799748420715, 0.3531053364276886, 0.264816552400589, 0.16827303171157837, -0.1799548715353012, -0.27494242787361145, -0.3522530198097229, 0.41091036796569824, -0.6548620462417603, -0.1715371310710907, 0.266262024641037, -0.07595320791006088, -0.7422823905944824, 0.13991594314575195, -0.3613649010658264, -0.041133154183626175, 0.12287068367004395, 0.053612615913152695, -0.40362313389778137, -0.6558282971382141, -0.38974717259407043, -0.10717953741550446, -0.4918256402015686, -0.4808803200721741, -0.5631461143493652, 0.6298288106918335, -0.32850366830825806, -0.46493592858314514, -0.0885145515203476, -0.3763664662837982, 0.04917893186211586, 0.7056161761283875, -1.1610158681869507, -0.21173879504203796, 0.5192446112632751, 0.0805748924612999, 0.4801367521286011, 0.09267614036798477, 0.6822393536567688, 0.08714063465595245, -0.8509044647216797, 0.19270017743110657, -0.41024863719940186, -0.05978669226169586, 0.33066311478614807, 0.23815442621707916, 0.39747363328933716, 0.45505186915397644, 0.07829330116510391, 0.38658058643341064, 0.4028485119342804, 0.34908053278923035, 0.19415141642093658, 0.14329712092876434, 0.5816085934638977, -0.0514528788626194, -0.6666004657745361, -0.1445198655128479, 0.05412447825074196, -0.5591211915016174, -0.3046848475933075, -0.6263285279273987, -0.3512701094150543, -0.0838191956281662, 0.3426379859447479, -1.0430887937545776, 0.27099981904029846, -0.2668185830116272, 0.03224993124604225, -0.35233381390571594, -0.8692334890365601, -0.1717759370803833, 0.17627617716789246, -0.5175215601921082, 0.44472402334213257, 0.40104660391807556, 0.2310662418603897, -0.3540778160095215, -0.482913613319397, 0.058663468807935715, -0.3034001588821411, 0.07076973468065262, 0.6088055968284607, -0.3965965211391449, -0.4227205514907837, -0.22535257041454315], [-0.8964833617210388, 0.13781265914440155, 0.1916205734014511, 0.3154590427875519, 0.5420731902122498, -0.8342469334602356, 0.5351291298866272, -0.39186033606529236, 0.06773749738931656, 0.13740430772304535, -0.04996248334646225, 0.2792961597442627, -0.8200188875198364, -0.1178302988409996, -0.5102342963218689, 0.5001223087310791, 0.20905640721321106, -0.3386123776435852, 0.2760508358478546, 0.4002549946308136, 0.1650945097208023, -0.11705821752548218, 0.5952975749969482, -0.07962214201688766, 0.4725625813007355, -0.6032207608222961, 0.2556765079498291, 0.3476233184337616, 0.043669626116752625, 0.23040437698364258, -0.5202410817146301, -0.6026975512504578, 0.41003695130348206, 0.4348704218864441, -0.5203353762626648, 0.06435345858335495, 0.19757699966430664, -0.059949200600385666, -1.0956958532333374, 0.18362662196159363, 0.16147492825984955, 0.00858084112405777, 0.5074850916862488, -0.9008411169052124, -0.46888723969459534, 0.04159257933497429, -0.8064143061637878, -0.22768534719944, -1.321685791015625, -0.1759323626756668, -0.28709813952445984, -0.6216272711753845, 0.2706846594810486, -0.12147175520658493, 0.5023384094238281, -0.3686087429523468, 0.1984473317861557, 0.24868233501911163, -0.1953936219215393, 0.3061394691467285, -0.25594136118888855, -0.1666490137577057, 0.12860986590385437, 0.003313684370368719, -0.41858041286468506, 0.15531325340270996, 0.47039422392845154, 0.06665506958961487, -0.5579295754432678, -0.8241070508956909, 0.03506750240921974, 0.13019490242004395, -0.30454033613204956, -0.34064438939094543, -0.17091704905033112, -0.008003119379281998, -0.4861971139907837, 0.3368934690952301, -0.46951112151145935, 0.17309066653251648, -0.38785848021507263, 0.013935566879808903, 0.29718053340911865, -0.2770857512950897, -0.6709235906600952, 0.19826079905033112, -0.8231240510940552, -0.8017450571060181, -0.14231590926647186, 0.38968387246131897, -0.2524545192718506, 0.1781974732875824, 0.2810665965080261, -0.3644328713417053, 0.008913565427064896, 0.4643000364303589, -0.1732097715139389, 0.01367904432117939, 0.6447229385375977, 0.04102837294340134, -0.418250173330307, 0.2702178955078125, -0.2914787828922272, 0.20501472055912018, 0.45572376251220703, 0.15702401101589203, -0.9619470238685608, 0.5807195901870728, 0.49167659878730774, 0.09138864278793335, -0.18759332597255707, -0.2317313551902771, 0.2688770890235901, 0.7399948239326477, 0.10598709434270859, -0.03581488877534866, 0.051360029727220535, -0.16779254376888275, -0.6588829755783081, 0.10425115376710892, 0.2880929410457611, -0.4964630901813507, 0.18111443519592285, -0.8703935742378235, -1.8866156339645386, -0.1137947365641594, -0.4953220784664154, -0.1505071520805359, -0.4893883168697357, 0.3804618716239929, -0.16802814602851868, -0.7747340202331543, -0.1961943358182907, 0.5036864876747131, 0.3185969293117523, 0.23183682560920715, -0.725042462348938, -0.10249435901641846, -0.8834673762321472, 0.007543100975453854, -0.7094508409500122, -0.21617679297924042, 0.363431453704834, 0.020203351974487305, -0.8068841695785522, 0.20809441804885864, -0.3108616769313812, -0.14119981229305267, 0.3967639207839966, 0.2398974597454071, 0.03017425537109375, -0.7794902920722961, -0.27393975853919983, 0.6544264554977417, -0.10701882094144821, 0.2548286020755768, 0.2771238088607788, 0.6629999279975891, 0.2525932788848877, -0.6514864563941956, -0.2567007839679718, 0.8343185186386108, 0.04270036146044731, -0.765306293964386, 0.5796595215797424, 0.4456363022327423, -0.0744338259100914, 0.20935969054698944, -0.32647520303726196, -1.148764729499817, -0.3570915460586548, -0.505423903465271, -0.030915291979908943, 0.15829157829284668, 0.44113898277282715, 0.057754192501306534, 0.48182588815689087, 0.18689948320388794, -0.7653816342353821, 0.11134548485279083, -0.4690443277359009, -0.3862634301185608, -0.22386860847473145, -0.2123926877975464, -0.5453565120697021, -0.4717744290828705, 0.1018625795841217, 0.20478147268295288, 0.11944934725761414, 0.2847105860710144, -0.14985281229019165, -0.4450328052043915, -0.4523690938949585, -0.31993329524993896, -0.16737543046474457, -0.11617409437894821, 0.7645253539085388, -0.10587583482265472], [0.856794536113739, 0.35013797879219055, 0.6890187859535217, 0.047441206872463226, 0.3971192538738251, -0.07076141238212585, -0.16577091813087463, -0.2464701533317566, -0.9409781694412231, 0.09886077046394348, -0.39226284623146057, -0.016984375193715096, 0.290941447019577, -0.3137880563735962, -0.3157157897949219, -0.3685416281223297, -0.16370199620723724, -0.061704717576503754, -0.2779998183250427, -0.1851886659860611, -0.041867222636938095, -0.39257586002349854, -0.7106478810310364, -1.1882269382476807, 0.7845292091369629, 0.49221348762512207, 0.10024528950452805, -0.10384506732225418, -0.2376258224248886, 0.370193749666214, 0.18536065518856049, -0.004158055409789085, -0.7631866931915283, -0.4348547160625458, 0.133185014128685, -0.02223920449614525, -0.3509030044078827, -0.6002517342567444, -0.020887253805994987, -0.6783373355865479, -0.2970087230205536, -0.1519274115562439, -0.5187440514564514, 0.205393448472023, -0.8178045749664307, 0.059943776577711105, -0.25313815474510193, -0.3075180649757385, -0.2942478358745575, 0.1532401144504547, -0.0260828398168087, -0.590434730052948, -0.5627044439315796, -0.6495491862297058, -0.5206260681152344, 0.22002221643924713, -0.24295414984226227, -0.27575257420539856, -0.6529054045677185, 0.3611743748188019, 0.020490165799856186, 0.05025191232562065, -0.10729336738586426, -0.16127362847328186, -0.5035830140113831, 0.20704390108585358, 0.4727115035057068, -0.6205354928970337, 0.3984052240848541, 0.2834933400154114, 0.5093322396278381, -0.2193744033575058, -0.5400571823120117, 0.34880122542381287, -0.07907620072364807, 0.3641810119152069, -0.7103461027145386, -0.07527612894773483, 0.39393553137779236, 0.38629448413848877, -0.09641215950250626, -0.25888174772262573, 0.22928336262702942, 0.44903817772865295, -0.5639405846595764, 0.5811744332313538, -0.3891322612762451, 0.033405255526304245, -0.11824926733970642, -0.8259381055831909, -0.7894490957260132, -0.20921553671360016, -0.0488034263253212, 0.5062164068222046, 0.040590137243270874, 0.004256896208971739, 0.07172925770282745, 0.16140858829021454, 0.037272799760103226, -0.5302809476852417, -0.5311873555183411, 0.4985301196575165, -0.025031305849552155, -0.0564776174724102, 0.7805572748184204, -0.3623966574668884, 0.5419843792915344, -0.2845780849456787, 0.3610518276691437, -1.0136191844940186, -0.5236967206001282, -0.1488424390554428, 0.2955416738986969, 0.27224403619766235, -0.19678936898708344, 0.2972453236579895, 0.22539415955543518, -0.051765888929367065, -0.23650486767292023, -0.6285289525985718, -0.4069562256336212, 0.8467550873756409, -0.6126611232757568, 0.3989393711090088, -0.178916335105896, -0.2941136658191681, -0.3444521427154541, 0.023597892373800278, -0.6976614594459534, -0.7116080522537231, 0.30596110224723816, -0.28964653611183167, -0.5213782787322998, -0.14995045959949493, 0.3853709101676941, 0.2001381814479828, 0.3449808657169342, -0.017838850617408752, 0.05976052209734917, 0.6539760231971741, -0.2678922414779663, -0.2371729165315628, 0.5624776482582092, 0.547280490398407, 0.20044748485088348, 0.394554078578949, -0.2852935791015625, -0.9645259976387024, 0.22477127611637115, -0.07004114240407944, -0.495617151260376, 0.6322030425071716, 0.14292435348033905, 0.3285260498523712, -0.30071574449539185, -0.20629476010799408, 0.021199438720941544, -0.2601991295814514, -0.3904215097427368, 0.0014202864840626717, -0.1323506385087967, 0.29051241278648376, 0.45807144045829773, -0.31140193343162537, 0.02042243257164955, -0.2722284495830536, 0.6117871403694153, 0.058646321296691895, 0.6161499619483948, 0.0643424466252327, -0.4683036208152771, 0.391384094953537, 0.2831710875034332, -0.06376075744628906, -0.9078987836837769, -0.10222985595464706, 0.33488792181015015, -0.8484997153282166, -0.27796292304992676, -0.4187788665294647, -0.42098864912986755, -0.07226987928152084, 0.08273100852966309, -0.208262637257576, -0.1999131143093109, 0.43274056911468506, 0.11652305722236633, 0.19811034202575684, 0.20477454364299774, -0.4902375042438507, 0.44880080223083496, 0.020754314959049225, -0.05476796627044678, -0.29509156942367554, -0.648115336894989, -0.4287019670009613, 0.4614606201648712, 0.3742065131664276], [-0.36115336418151855, 0.03113669902086258, 0.5069772005081177, 0.011195173487067223, 0.6847819089889526, 0.23761603236198425, -0.5486392974853516, -0.05812731757760048, 0.18139201402664185, -0.7492018938064575, -0.36231520771980286, -0.01881306804716587, -0.4566943943500519, -0.19136570394039154, -0.6594167947769165, -0.09784508496522903, 0.4431602656841278, 0.515656054019928, 0.3516354560852051, -0.5025995969772339, 0.26014116406440735, -1.0756717920303345, -0.32729706168174744, -0.9392895698547363, -0.6589941382408142, -1.0472643375396729, -0.14415641129016876, -0.02150910533964634, -0.30884966254234314, -0.2369089275598526, 0.6978015303611755, -0.11058918386697769, -0.9826185703277588, 0.2212008684873581, 0.23955848813056946, -0.32883530855178833, 0.05849825218319893, 0.250033974647522, -0.5998530983924866, -0.23351061344146729, -0.3600834608078003, -0.6175927519798279, -0.8848350644111633, -0.44137677550315857, -0.276522696018219, -0.35637739300727844, 0.13462567329406738, 0.1302296370267868, 0.019749581813812256, 0.11778554320335388, 0.23007604479789734, -0.11687581241130829, 0.0015861799474805593, 0.17190280556678772, -0.23403285443782806, 0.0909973531961441, -0.1565794050693512, 0.07585233449935913, -0.1596943885087967, -1.5388950109481812, 0.10934741795063019, 0.10461371392011642, -0.3166600465774536, 0.09500055760145187, -0.29818829894065857, -0.7593398094177246, -0.218741774559021, -0.5540629029273987, -0.2642463743686676, -0.6806721687316895, -0.2615954279899597, 0.38458505272865295, 0.10116773843765259, -0.5672529339790344, 0.3195107877254486, 0.17937515676021576, -0.517421305179596, -0.2705254852771759, -0.5212551355361938, -0.6713161468505859, -0.7316350340843201, -0.3670960068702698, 0.0870782807469368, -0.150496244430542, 0.14167872071266174, 0.19404928386211395, -0.1272687464952469, -0.845933735370636, -0.804521918296814, -0.4984356760978699, 0.7475047707557678, 0.25362494587898254, 0.12701036036014557, -0.4553619623184204, -0.4320174753665924, -0.5329997539520264, -0.7519987225532532, 0.21717070043087006, -0.5720322132110596, 0.6916288733482361, -0.16545777022838593, -0.737663984298706, -0.2655562162399292, 0.132168710231781, -0.9734980463981628, 0.07615481317043304, -0.6126803159713745, -0.5846185684204102, 0.15865257382392883, -0.1135137677192688, -0.12843891978263855, 0.029043050482869148, 0.5695992708206177, 0.18417921662330627, -0.6525300145149231, 0.1136515662074089, -0.24266918003559113, -0.16196052730083466, 0.02901669591665268, 0.43054983019828796, -0.032097239047288895, 0.5083927512168884, -1.230268955230713, 0.24629798531532288, -1.4345436096191406, 0.050531692802906036, -0.3947639763355255, -0.7460557222366333, 0.7556561827659607, -0.1397300809621811, 0.3418794572353363, -0.30419471859931946, -0.16374388337135315, -0.22957786917686462, 0.0031855402048677206, 0.3850339353084564, -0.17456521093845367, 0.6748068332672119, -1.3614102602005005, -0.36375167965888977, 0.2521173655986786, 0.5049867630004883, -0.3961867392063141, -1.0645933151245117, -0.3624270260334015, -0.05348782241344452, -0.1471882164478302, 0.24593183398246765, 0.0761641263961792, -1.7539398670196533, -0.43509936332702637, -0.3258199989795685, 0.8678959012031555, -0.9746462106704712, -0.2556470036506653, -0.12037031352519989, 0.6927595734596252, 0.11298135668039322, 0.03891719877719879, 0.07724395394325256, -0.13190089166164398, 0.19904161989688873, 0.2564404606819153, -0.3781275153160095, 0.5228937864303589, 0.048188842833042145, -0.8552041053771973, -0.5368103981018066, -0.7120864987373352, -0.1762392520904541, 0.29241570830345154, -0.8557286262512207, 0.4455370008945465, 0.19687500596046448, -0.6025993824005127, -0.3279760479927063, -0.08415964245796204, -0.4619152843952179, 0.43601474165916443, -0.16701796650886536, -0.4078086316585541, -0.26068633794784546, -0.04761401563882828, 0.5371847748756409, -0.6545340418815613, 0.37717944383621216, -0.9019995927810669, 0.5112411975860596, 0.10476010292768478, -0.03953007981181145, 0.009781435132026672, 0.6048954725265503, -0.3506946265697479, 0.11319402605295181, -0.08939921855926514, -0.048371486365795135, 0.3011338710784912, 0.0845034047961235], [-0.0394689217209816, -0.3004721701145172, -0.13275380432605743, 0.13673508167266846, 0.10953475534915924, -0.2130027413368225, 0.032133933156728745, 0.0804455578327179, -0.6238825917243958, -0.07452845573425293, -0.6720008850097656, 0.3962743878364563, -0.014637120999395847, -0.6312271356582642, -0.2250639945268631, 0.17909595370292664, -0.3132705092430115, -0.31875520944595337, 0.4467889964580536, -0.2195308655500412, 0.018537333235144615, 0.7327994704246521, -0.7670029401779175, 0.16643351316452026, -0.4075302183628082, 0.1564333438873291, -0.4702436029911041, 0.09758495539426804, -0.10554975271224976, -0.39929166436195374, 0.06240486726164818, 0.18576383590698242, -0.5153125524520874, -0.06335003674030304, -0.20339687168598175, -0.0998779833316803, -0.5075510144233704, 0.12492269277572632, 0.13748084008693695, -0.3327179551124573, -0.07292582094669342, 0.31704896688461304, -0.05016874894499779, -1.1563442945480347, -1.2195099592208862, -0.10165046155452728, -0.10665412247180939, 0.4614548683166504, 0.04904621094465256, 0.10040919482707977, -0.3606368601322174, -0.3092741370201111, -0.8956786394119263, -0.5258744955062866, 0.6159753799438477, -0.06636428833007812, 0.32124063372612, 0.39678144454956055, -0.1459084451198578, 0.1921020746231079, -0.11545505374670029, 0.21231627464294434, -0.2659907042980194, 0.17964686453342438, -0.32129916548728943, 0.07033981382846832, 0.16538037359714508, 0.8285924196243286, 0.5090453028678894, 0.3658086061477661, 0.26618584990501404, 0.14769357442855835, -0.16994382441043854, -0.06752002984285355, 0.19493436813354492, 0.5927055478096008, -0.24243174493312836, 0.43358758091926575, -0.9194903373718262, 0.12968340516090393, 0.49445679783821106, 0.6982353329658508, 0.07161000370979309, 0.3650360107421875, -0.4422374367713928, -0.15834136307239532, -0.32822585105895996, 0.31871816515922546, -0.054730724543333054, -0.5000185966491699, 0.30135515332221985, 0.10490339249372482, 0.1683831810951233, 0.2812710106372833, -0.47754091024398804, 0.45943161845207214, -0.10405262559652328, 0.13528066873550415, 0.2529677748680115, 0.09916657209396362, 0.10573408752679825, -0.46798175573349, -1.3641948699951172, -0.6996480226516724, 0.2106814831495285, 0.22891287505626678, 0.04323720559477806, -0.8068095445632935, -0.26911088824272156, -0.726169228553772, -0.10632012784481049, -0.4697970151901245, 0.23007529973983765, 0.6713617444038391, 0.5220842957496643, -1.312697410583496, -0.01328503992408514, -0.09335077553987503, 0.5408073663711548, 0.4974139332771301, -0.5125876069068909, 0.16313742101192474, 0.4579112231731415, 0.08971002697944641, 0.2661247253417969, 0.27695342898368835, -0.11592716723680496, -0.5743957757949829, 0.2112462967634201, 0.08984391391277313, -0.5308636426925659, -0.3971913754940033, -0.21254651248455048, -0.05812278389930725, 0.3515998423099518, -0.0708903968334198, -0.8320809602737427, -0.018401771783828735, 0.0774751827120781, 0.35328710079193115, 0.14832703769207, -0.2875722050666809, 0.6029794216156006, 0.20719783008098602, -0.19116896390914917, -1.2561091184616089, 0.5049389600753784, -0.34848278760910034, 0.14230886101722717, -0.1587887555360794, -0.15273670852184296, -0.8757437467575073, 0.31377583742141724, -0.303710401058197, 0.3472733199596405, -0.3655553460121155, -0.35032451152801514, -0.007231524679809809, -0.18535634875297546, -0.26717764139175415, -0.07520263642072678, -0.0862663984298706, 0.7087827324867249, -0.19694308936595917, -0.19363749027252197, 0.09228281676769257, -0.10050544887781143, -0.6610476970672607, -0.36993172764778137, 0.03326741233468056, -0.10381868481636047, -0.11819683015346527, -0.43677908182144165, 0.20475301146507263, 0.09813611209392548, -0.587624728679657, -0.9345155358314514, 0.4089815020561218, -0.3363948166370392, -0.1403612643480301, 0.35278114676475525, -0.2928049862384796, -0.16268233954906464, 0.2001442313194275, -0.2126939445734024, -0.8205705881118774, 0.44065508246421814, -0.46274301409721375, 0.5905722379684448, -0.26594412326812744, 0.1661868393421173, -0.4512557089328766, -0.5275938510894775, 0.16395223140716553, 0.352088063955307, 0.1615310162305832, 0.14914560317993164, -0.19810035824775696], [-0.34562164545059204, 0.5818281769752502, -0.5652188062667847, -0.4778893291950226, -0.12504205107688904, 0.016981208696961403, -0.18783588707447052, -0.1521586924791336, -0.22324156761169434, 0.44978925585746765, -0.23949582874774933, 0.6156797409057617, 0.06439363956451416, 0.06019674241542816, -0.08079876750707626, -0.2023703008890152, 0.5078784227371216, 0.26864975690841675, -0.0013584088301286101, -0.6044809222221375, -0.975368320941925, 0.4454176127910614, -0.07496654242277145, 0.0604097917675972, 0.20167763531208038, -0.5083709359169006, -0.511025071144104, -0.14849285781383514, 0.004724868573248386, 0.4182654023170471, -0.2561425566673279, -0.2924877107143402, 0.5757486820220947, -0.24490438401699066, 0.2438264936208725, -0.39113301038742065, 0.25319522619247437, 0.3053962290287018, -0.6049684286117554, 0.5119836330413818, 0.633586049079895, -0.44711676239967346, -0.05948655307292938, 0.6949207782745361, -0.571544349193573, -0.16893897950649261, 0.0632345974445343, -0.6984517574310303, -0.05545000359416008, 0.5652094483375549, 0.5103260278701782, -0.37149420380592346, -0.16565610468387604, 0.3557353913784027, 0.27655646204948425, -0.06037852540612221, 0.4263800084590912, -0.7931370735168457, 0.4684921205043793, -0.163984015583992, -0.6767974495887756, 0.17844711244106293, 0.023744065314531326, 0.18103954195976257, -0.16828398406505585, -0.21832218766212463, -0.004227729514241219, 0.25297796726226807, 0.8160398006439209, 0.4925979673862457, -0.44560354948043823, 0.061313170939683914, 0.32707589864730835, 0.05806269869208336, 0.3659648299217224, -0.0753941610455513, -0.2881588339805603, 0.6051725149154663, 0.14103169739246368, -0.17039461433887482, 0.5489499568939209, 0.6354415416717529, 0.22917085886001587, 0.1755387783050537, 0.447900652885437, 0.2545053958892822, 0.16053321957588196, -0.1134440079331398, 0.31422486901283264, 0.01235065795481205, 0.27947139739990234, -0.43241921067237854, -0.16749460995197296, 0.6064866781234741, -0.8271374702453613, 0.3871331512928009, -0.4001253843307495, -0.21507570147514343, -0.30086833238601685, 0.05300695821642876, -0.7594073414802551, 0.618742048740387, -0.05433041602373123, -0.53061842918396, 0.21690668165683746, 0.020168203860521317, 0.11283108592033386, -0.34671729803085327, -0.08967429399490356, -0.4927113652229309, 0.23088429868221283, 0.29399940371513367, -0.11767902225255966, 0.7066324949264526, -0.8923802375793457, -0.7825179696083069, -0.19726300239562988, -0.1664194017648697, 0.23634319007396698, -0.4243610203266144, -0.786156415939331, -1.5786470174789429, 0.15030084550380707, 0.15154877305030823, -0.8621776700019836, -0.38593727350234985, -0.21705839037895203, 0.2350887656211853, 0.004373563919216394, -0.2623349130153656, -0.3471207916736603, 0.6285505890846252, -0.978511393070221, -0.08180464059114456, -0.11567624658346176, 0.45022252202033997, -0.4561385214328766, -0.5815997123718262, -0.214280366897583, 0.4194144308567047, 0.024492474272847176, 0.49399206042289734, 0.2414049357175827, 0.3714664578437805, 0.30974167585372925, 0.0368201844394207, 0.7651696801185608, -0.2986111342906952, 0.5593604445457458, -0.7083290219306946, 0.15673843026161194, 0.38720133900642395, 0.3157850205898285, -0.1594948023557663, -0.5536544322967529, -0.27717530727386475, 0.13799917697906494, -0.24822184443473816, -0.13945361971855164, -0.24250924587249756, -0.5890494585037231, 0.009783289395272732, 0.1288955956697464, 0.09171571582555771, 0.05062289908528328, 0.2476673126220703, -0.024927856400609016, 0.010880672372877598, -0.4839596450328827, -0.46431130170822144, -0.16011886298656464, -0.621517539024353, 0.14990341663360596, 0.31429195404052734, 1.000596284866333, 0.6568969488143921, 0.33241286873817444, -0.26072853803634644, -0.5257740020751953, 0.32513323426246643, -0.922594428062439, -0.06065566837787628, 0.5351689457893372, -0.6962490081787109, 0.08969376981258392, 0.3498205244541168, -0.5777084827423096, 0.1960276961326599, 0.22671885788440704, -0.08173201233148575, 0.07213378697633743, 0.09866522997617722, -0.684173583984375, -0.2473466843366623, -0.0009687560377642512, 0.8586648106575012, 0.2559625804424286, -0.3615637719631195], [-0.8260178565979004, 0.30885758996009827, 0.06288153678178787, 0.016389448195695877, 0.08721455931663513, 0.03283515200018883, 0.08526691794395447, 0.8313874006271362, -0.3109767735004425, -0.2557321786880493, -0.5363351702690125, 0.48224571347236633, -0.22369539737701416, -0.22164314985275269, -0.04641111195087433, -0.22246097028255463, 0.015837937593460083, 0.4862082302570343, 0.26630455255508423, -0.48051324486732483, -0.5917598009109497, -0.4249957501888275, 0.9408042430877686, 0.177026629447937, -0.6717302203178406, -0.8335114121437073, 0.11588612198829651, -0.3167220950126648, -0.15328939259052277, -0.6329394578933716, -0.287923663854599, 0.2231774777173996, 0.11123456060886383, 0.44386422634124756, -0.12203934788703918, -0.49573713541030884, -1.0009828805923462, -0.6561199426651001, 0.013688134029507637, -0.0899219959974289, -0.2492443323135376, 0.16148176789283752, 0.6499508023262024, -0.06607352942228317, 0.03198537975549698, -0.3214832842350006, -0.011741949245333672, -0.12743009626865387, 0.19352488219738007, -0.058968398720026016, -0.1327037662267685, 0.545742392539978, -0.30000993609428406, -0.9839046597480774, -0.21455104649066925, -0.13768966495990753, -0.07665582746267319, -0.27623894810676575, -0.4557242691516876, 1.012819766998291, 0.12319357693195343, 0.5209773182868958, -0.3427900969982147, 0.18494901061058044, 0.1175071969628334, -0.7223644256591797, 0.0585661381483078, -0.5268589854240417, -0.8946181535720825, -1.0304006338119507, -0.5571629405021667, 0.10194756090641022, 0.20938222110271454, -0.405343234539032, 0.14271746575832367, 0.48215359449386597, 0.664371907711029, -0.08720099180936813, -0.3437137305736542, 0.32629668712615967, 0.07675149291753769, -0.6625345349311829, -0.13782286643981934, -0.5073195099830627, -0.23775754868984222, 0.3395689129829407, 0.8409854769706726, -0.44360196590423584, 0.2778240144252777, 0.2384093999862671, -0.43781980872154236, -0.179970845580101, 0.26095664501190186, 0.299629271030426, -0.593239426612854, -0.2612006366252899, 0.08843109011650085, -0.38802024722099304, -0.582533597946167, -0.22145919501781464, 0.8187671899795532, 0.07162408530712128, -0.2227635681629181, -0.022883113473653793, 0.6012681722640991, -1.2211458683013916, -0.7062777876853943, 0.1568935364484787, 0.29349347949028015, -0.2505840063095093, -0.4592110514640808, 0.26030129194259644, 0.04569685831665993, 0.3137541711330414, 0.7694291472434998, -0.13870739936828613, -0.7953961491584778, 0.4445582330226898, 0.18837997317314148, -0.9908574223518372, 0.6113296151161194, 0.10541682690382004, -0.05046959966421127, -0.9497241377830505, -0.029561754316091537, -0.31881752610206604, 0.21455636620521545, -1.2598979473114014, 0.82878577709198, 0.0407465435564518, 0.008556690998375416, -0.07264332473278046, -0.029924366623163223, -0.11188139021396637, -0.9591622948646545, -0.19666039943695068, -0.3728089928627014, -0.12571096420288086, 0.31265684962272644, -0.2348051220178604, -0.011908851563930511, 0.30339232087135315, -1.0090267658233643, -0.047510791569948196, -0.15468475222587585, -0.5761288404464722, -0.3714272081851959, -0.48478615283966064, 0.21507462859153748, 0.21866708993911743, -0.17064152657985687, -0.8496726751327515, 0.33778056502342224, 0.6077748537063599, 0.5665645599365234, -0.06257817149162292, -0.9269265532493591, -0.1831471025943756, -0.28457653522491455, -0.1764906644821167, 0.08756624162197113, -0.5714536309242249, 0.05856679379940033, -0.22894318401813507, 0.29064488410949707, 0.09328778833150864, -0.05773390457034111, 0.18666431307792664, 0.7468200325965881, 0.45263323187828064, -0.7237107753753662, -0.049284402281045914, 1.2421804666519165, -0.3313171863555908, 0.5358850359916687, 0.5547236800193787, 0.10224654525518417, -0.17142096161842346, 0.3748684525489807, 0.12526929378509521, -1.045791506767273, -0.7280157804489136, 0.15529799461364746, -0.14840175211429596, -0.38970398902893066, -0.8419790863990784, 0.3135310709476471, -0.6038858294487, -1.2119340896606445, 0.2510311007499695, 0.38478267192840576, 0.3455412685871124, -0.23932066559791565, -0.06659931689500809, 0.02018601819872856, -0.36570021510124207, -0.3414960205554962, 0.15401127934455872], [0.35966289043426514, -0.3622375428676605, 0.4404051899909973, -0.28993910551071167, 0.0669989138841629, 0.09961051493883133, -0.08129243552684784, -0.8069204092025757, -0.5531465411186218, -0.35653993487358093, 0.22687451541423798, 0.4585719406604767, -1.1989575624465942, -0.4498290419578552, -0.6087943911552429, -0.48801493644714355, 0.07568934559822083, -0.1655777245759964, 0.6045828461647034, -0.3087022602558136, 0.23514439165592194, 0.23105096817016602, 0.6338375806808472, -0.8358880281448364, 0.02836454287171364, -0.24437279999256134, -0.1575198918581009, 0.06127816438674927, -0.6034402251243591, 0.3467336893081665, 0.18651434779167175, -0.09572172909975052, -0.5527077317237854, -0.04148699343204498, 0.7178841233253479, 0.5851585865020752, -0.17317096889019012, -1.5362317562103271, -0.9176084399223328, -1.1727955341339111, 0.513883113861084, -0.03644037991762161, -0.307691752910614, -0.20009632408618927, -0.2704148590564728, 0.4637579917907715, -0.33975425362586975, 0.44787779450416565, -0.004735780414193869, 0.5760595798492432, -0.7492790818214417, -0.2223638892173767, 0.14933735132217407, 0.2873639762401581, 0.2726570963859558, -0.2574494183063507, -0.097315214574337, 0.22166921198368073, 0.21573610603809357, -0.3769858181476593, 0.15991166234016418, -0.16032665967941284, -0.5593960285186768, -0.6777440905570984, -0.12705853581428528, 0.34075286984443665, -0.2117938995361328, -0.6241176724433899, -0.40076911449432373, 0.21194805204868317, 0.21480320394039154, 0.7720644474029541, 0.21170653402805328, 0.22189339995384216, -0.6570926308631897, 0.4920377731323242, -0.021288156509399414, -0.2448417842388153, 0.1595240980386734, -0.2008700966835022, -0.2811145484447479, 0.208480104804039, -0.5218350887298584, -1.0925421714782715, 0.3778030574321747, 0.23268941044807434, -0.1507129967212677, -0.20912502706050873, 0.20162421464920044, -0.13773590326309204, 0.2351471185684204, 0.360244482755661, -0.30399152636528015, 0.12684056162834167, -0.6675699949264526, 0.11498486250638962, 0.0896531194448471, -0.37262535095214844, -0.37220463156700134, 0.20868757367134094, -0.45352768898010254, 0.043644439429044724, 0.5940478444099426, -0.4314555823802948, 0.14412011206150055, -0.1543152779340744, 0.19571590423583984, 0.20283710956573486, -0.04111238941550255, 0.43984079360961914, 0.9238473176956177, 0.35497504472732544, -0.045349784195423126, -0.17287857830524445, -0.40375229716300964, -0.1168539747595787, -0.06719336658716202, -0.5265714526176453, -0.07014177739620209, -0.6080827116966248, -0.5359668135643005, 0.41522887349128723, -0.12284000217914581, -0.23109693825244904, -0.20593838393688202, 0.6101496815681458, -0.26750507950782776, 0.38508307933807373, 0.3403506875038147, 0.4913630187511444, 0.02031778357923031, 0.6155965328216553, 0.2767010033130646, -0.08524511009454727, 0.35363325476646423, -0.02601143717765808, 0.2680245637893677, 0.18688327074050903, 0.5765553712844849, 0.6037477254867554, 0.24564066529273987, 0.3352947235107422, 0.10746642202138901, 0.11118005216121674, 0.2199389636516571, -0.7068867683410645, -0.9351987838745117, 0.22281131148338318, 0.23918555676937103, 0.09969399869441986, 0.24400684237480164, 0.0002675565192475915, -0.1395426243543625, 0.22486703097820282, -0.1358805000782013, -0.17224937677383423, -0.6435128450393677, -0.1932007223367691, -0.5752071142196655, -0.25769421458244324, 0.41326069831848145, -0.3319030702114105, -0.4724418818950653, 0.2921496331691742, 0.08955828845500946, 0.5598151087760925, -0.025792529806494713, -0.26746025681495667, 0.5813398361206055, -0.8124629855155945, 0.03127850964665413, -0.41474780440330505, -0.10947751253843307, 0.27295321226119995, 0.16510368883609772, 0.012558352202177048, 0.26658713817596436, 0.4097495973110199, -0.4262624979019165, 0.28635361790657043, 0.12114322930574417, 0.026230044662952423, 0.2883293628692627, 0.6950381398200989, -0.08828701823949814, -0.51776522397995, 0.44464728236198425, 0.09841758757829666, -0.5902717113494873, -0.4298052489757538, -0.12660585343837738, -1.1306055784225464, 0.1246548593044281, 0.5598845481872559, 0.2586704194545746, -0.45757296681404114, 0.25119462609291077, 0.42301246523857117], [-0.13845081627368927, 0.26324546337127686, 0.3108336627483368, 0.6533414721488953, -0.32273104786872864, 0.18188147246837616, 0.1789703071117401, 0.025359181687235832, 0.26335111260414124, -0.7102249264717102, -0.12415403127670288, -0.05062102526426315, -0.4758912920951843, 0.3422202169895172, -0.49274346232414246, 0.0885201171040535, 0.2870403230190277, -0.4389696717262268, 0.5932963490486145, -0.2650837302207947, 0.11070944368839264, -0.18494194746017456, -1.0905476808547974, -0.019859282299876213, -0.21575836837291718, 0.1804651916027069, 0.14138193428516388, -0.20398691296577454, -0.4209434688091278, -0.22121770679950714, 0.42241761088371277, -0.34626463055610657, -0.4672331213951111, -0.015623903833329678, 0.6318941712379456, 0.040305979549884796, -0.6192101240158081, -0.2231738418340683, 0.013524363748729229, 0.144798144698143, 0.4255332052707672, -0.46513038873672485, 0.4282718002796173, -0.3864903450012207, 0.1383281797170639, -0.15627403557300568, -0.36028969287872314, 0.297270268201828, -1.1913081407546997, 0.295622855424881, 0.5932856202125549, 0.1847519427537918, 0.079611636698246, -0.03991827368736267, -0.2673078179359436, -0.06728162616491318, -0.16694214940071106, -0.8102224469184875, -1.482386589050293, 0.03814547136425972, 0.08810987323522568, 0.0954294204711914, -0.3869664967060089, -0.12783603370189667, -0.45985686779022217, -1.226714849472046, -1.1166573762893677, -0.4080803394317627, -0.6715399026870728, -0.018640872091054916, 0.3860017657279968, -0.06773032248020172, 0.6484646797180176, 0.3534765839576721, -0.24335138499736786, 0.21356342732906342, -0.5775870084762573, 0.6571369767189026, -0.11246538162231445, 0.17618510127067566, -0.08906301110982895, -0.7203625440597534, -0.7597965002059937, -0.5089179277420044, -0.9486591815948486, 0.6779210567474365, -0.4024984836578369, 0.2163759171962738, 0.3613796532154083, -0.33953019976615906, -0.011510896496474743, 0.3414932191371918, -0.7934382557868958, 0.26039963960647583, -0.6175823211669922, 0.0912414938211441, -0.4344345033168793, -0.13261854648590088, -0.6854736804962158, 0.36865830421447754, 0.87933748960495, 0.0058195884339511395, -0.3878025710582733, 0.26051777601242065, 0.5425316691398621, 0.10508430004119873, 0.22715285420417786, -1.1749883890151978, 0.15440647304058075, 0.622657835483551, -0.5040158629417419, -0.389199435710907, 0.3556032180786133, 0.3162405490875244, 0.36104705929756165, -0.3994535505771637, -0.19680336117744446, 0.386523574590683, -0.516157329082489, 0.18141980469226837, -0.481736421585083, -0.17129404842853546, -0.3200259804725647, -0.6321114897727966, 0.07698903232812881, 0.37434202432632446, -0.7614749073982239, 0.10544823855161667, -0.2633671462535858, -0.4594551920890808, 0.1990032196044922, -0.019617484882473946, 0.6209171414375305, 0.29589617252349854, -0.32039469480514526, -0.04823821783065796, 0.1825377196073532, -0.07100697606801987, -0.2620178163051605, 0.05163281038403511, 0.054695919156074524, -0.06191655620932579, 0.5132859349250793, -0.5573325753211975, -0.5315386056900024, 0.14991167187690735, -0.31367892026901245, 0.18255066871643066, -0.23825807869434357, -0.2023664116859436, -0.5312828421592712, -0.17200766503810883, 0.0215598214417696, -0.999626100063324, 0.343379408121109, -0.1567309945821762, -0.08486002683639526, 0.25622379779815674, 0.1714549958705902, 0.001660016132518649, -0.0019331058720126748, -0.3123299777507782, -0.13033659756183624, -0.28002023696899414, 0.024988239631056786, 0.9737826585769653, -0.028171904385089874, 0.04169429466128349, 0.5252395272254944, -0.48748844861984253, -1.3592039346694946, 0.4697211682796478, -0.3984454572200775, 0.45243600010871887, 0.7204791903495789, -0.4346381723880768, 0.2302427589893341, 0.45577213168144226, 0.27030861377716064, -0.3051692247390747, 0.2858298122882843, -0.5812487602233887, 0.07891381531953812, 0.5080446600914001, 0.10680608451366425, -0.010382989421486855, -0.3233155906200409, -0.31237342953681946, -0.790116548538208, -0.1863517016172409, 0.0020553874783217907, 0.08487991988658905, 0.2700611650943756, 0.24904221296310425, -0.5079681873321533, 0.3161231577396393, 0.08130089938640594, 0.021557943895459175], [-0.2949150502681732, -0.2551891803741455, -0.21827657520771027, -0.4814396798610687, -0.1811559498310089, 0.09928099066019058, 0.10272549837827682, 0.18331478536128998, 0.062306370586156845, -0.8112188577651978, -0.119233138859272, -0.2005065232515335, 0.08726375550031662, -0.04925850033760071, -0.21764153242111206, 0.0022849985398352146, 0.1995166838169098, -0.5317555665969849, -0.054054442793130875, 0.0075240167789161205, 0.6228458881378174, -0.390644371509552, 0.37597087025642395, -0.13356712460517883, -0.7336990237236023, -0.03910853713750839, -0.47453686594963074, 0.2656966745853424, 0.3721040189266205, -0.08261816203594208, -0.1403486281633377, 0.2579483985900879, -1.4277997016906738, -0.057701896876096725, -0.34933170676231384, 0.3378416895866394, 0.1621607542037964, -0.6113261580467224, -0.3856268525123596, 0.04102571681141853, 0.015436138026416302, -0.8032065033912659, -0.047510430216789246, -0.26646244525909424, 0.24159717559814453, -0.5721318125724792, 0.2852819561958313, -0.49286991357803345, -0.8990663886070251, -0.3996215760707855, 0.10426941514015198, -0.11989699304103851, -0.05658920109272003, -0.011619927361607552, -0.033053066581487656, -0.30843988060951233, -0.5787268280982971, 0.24980929493904114, 0.6545940637588501, -0.2057410180568695, -0.4286089837551117, -0.5948055386543274, -0.31206730008125305, 0.3716467320919037, -0.32168811559677124, 0.4502630829811096, -0.4893970787525177, -0.3054667115211487, -0.309115469455719, 0.0459834486246109, 0.49480417370796204, -0.428575336933136, 0.022359047085046768, 0.2949575185775757, -0.3599141240119934, 0.15865936875343323, 0.5101678371429443, -0.6557238698005676, -0.6400623321533203, 0.5935468673706055, -0.20071832835674286, -0.07147227227687836, -0.2390420287847519, -0.41106274724006653, -0.7612045407295227, -0.5900291800498962, 0.06384879350662231, -0.048751022666692734, -0.1661195456981659, 0.0894324779510498, -0.1814032793045044, 0.08923191577196121, -0.4984768331050873, 0.3357336223125458, 0.6089494824409485, -0.31152719259262085, 0.02764848992228508, -0.7809988260269165, -0.34951627254486084, 0.19206176698207855, 0.15371665358543396, -0.45210012793540955, 0.018607744947075844, -0.047733671963214874, 0.5460535883903503, 0.49740633368492126, 0.5791015625, -0.9669538736343384, -0.4287576675415039, -1.264917254447937, 0.2524091303348541, 0.7385581135749817, -0.08074226975440979, -0.016737814992666245, 0.4423302114009857, 0.3803885877132416, -0.7984055876731873, 0.04368412122130394, 0.3760881721973419, 0.6918045878410339, -0.22905300557613373, 0.2003045529127121, -0.5341309309005737, -1.7083659172058105, -0.7980669140815735, 0.11958204209804535, -0.4796149432659149, 0.28038904070854187, -0.4555487036705017, 0.7389185428619385, 0.40826094150543213, 0.10372845083475113, -0.3610275387763977, 0.08153215050697327, -0.20684975385665894, 0.6157187223434448, -0.714573323726654, 0.35979580879211426, -1.1459985971450806, 0.07209742069244385, -0.03782331943511963, 0.9718971252441406, 0.024614907801151276, 0.09720633924007416, -0.03553951159119606, 0.45233291387557983, 0.3078755736351013, -0.7714173793792725, -0.22023305296897888, 0.31544414162635803, -0.13572603464126587, 0.34339508414268494, -0.7217652797698975, 0.5345594882965088, -1.430790901184082, 0.00808913353830576, 0.17475059628486633, -0.07306848466396332, -0.5600153207778931, 0.6889927387237549, -0.8275257349014282, -0.025160621851682663, -0.6498211622238159, -0.5463117957115173, -0.09276193380355835, 0.046801574528217316, -0.3055446445941925, -0.35907915234565735, -0.03063301555812359, 0.2445482462644577, 0.18814560770988464, -1.4988234043121338, -0.2326716184616089, 0.007267317268997431, -0.08966971933841705, -0.42054423689842224, 0.31792616844177246, -0.13325168192386627, 0.12326612323522568, 0.030497979372739792, -0.1837344914674759, -0.3272770941257477, -0.3383322060108185, -0.4162841737270355, 0.6504949927330017, 0.04734250530600548, -0.17768529057502747, 0.1014484092593193, 0.2545018792152405, 0.567089319229126, 0.08825492858886719, -0.8962791562080383, -0.5173220038414001, 0.16918258368968964, -1.071169137954712, 0.14370407164096832, 0.2327197641134262, -0.036219626665115356], [0.3383132517337799, 0.10140754282474518, -0.308208703994751, 0.3835556209087372, 0.13187487423419952, -0.7298007011413574, -0.05861864238977432, -0.25222650170326233, -0.3333764672279358, -0.11181405931711197, -0.11006087064743042, 0.21200241148471832, 0.420929878950119, 0.10689495503902435, 0.7585822343826294, -0.1412643939256668, 0.10783769935369492, 0.5069512724876404, 0.7637007236480713, -0.434391051530838, 0.3200741112232208, -1.0867624282836914, 0.6590613126754761, 0.80283522605896, 0.012895092368125916, -0.09141070395708084, 0.25457170605659485, -0.1428239792585373, -0.9898614287376404, 0.6823140978813171, -0.18217913806438446, 0.5671045184135437, 0.09140249341726303, 0.3441101610660553, -0.16350792348384857, 0.3330354690551758, 0.20987103879451752, -0.08113570511341095, -0.026812322437763214, -0.5248440504074097, -0.2176186740398407, -0.37459003925323486, -0.3128039538860321, -0.3078218102455139, 0.3316388428211212, -0.47341328859329224, 0.2360195517539978, 0.39348480105400085, 0.049344781786203384, -0.4264013171195984, -0.8618496656417847, 0.4508606195449829, -0.8247243762016296, -1.1297893524169922, -0.1522638201713562, -0.5988953113555908, -1.4037268161773682, 0.18998514115810394, 0.13005214929580688, 0.1536448448896408, 0.16298003494739532, 0.5843380093574524, -0.5981749296188354, 0.723321795463562, 0.2836197018623352, -1.1353257894515991, -0.29317665100097656, -0.13114602863788605, 0.16314685344696045, 0.21869564056396484, -0.5237246155738831, -0.42222335934638977, 0.5473527312278748, -0.06587870419025421, -0.2927340567111969, 0.004575911909341812, -0.11948321759700775, -0.1857917308807373, -0.7165529131889343, -0.45421501994132996, 0.594142735004425, -0.771189272403717, 0.14574755728244781, 0.5490255951881409, -1.11708402633667, -0.2630273401737213, 0.05229949206113815, -1.121495008468628, -0.8875294923782349, -0.033174872398376465, 0.17058241367340088, 0.6845845580101013, -0.1819724142551422, 0.6290151476860046, -0.3671049177646637, -0.20268629491329193, -0.6821468472480774, -0.05812621861696243, -0.15165770053863525, 0.11093490570783615, 0.6252846717834473, -0.19364005327224731, 0.28737980127334595, 0.4193035960197449, 0.09393669664859772, 0.3492271304130554, -0.12371688336133957, -0.7487423419952393, 0.17179401218891144, -1.4899784326553345, -0.040544211864471436, 0.3092617094516754, -0.45155981183052063, 0.30653294920921326, -0.054161425679922104, 0.7943443655967712, -0.6105065941810608, -0.5780258178710938, 0.26034703850746155, -0.6763842701911926, 0.20824548602104187, -0.03216836601495743, 0.015532269142568111, -0.3775886297225952, -0.18369027972221375, -0.005402165465056896, -0.059605859220027924, -0.1040237545967102, -0.6629907488822937, -0.5503814220428467, 0.3945971429347992, -0.10237772762775421, -0.026000816375017166, -0.7158795595169067, -0.20809751749038696, -0.40275388956069946, 0.6177599430084229, -0.4434618055820465, 0.3966602087020874, 0.4456794559955597, -0.24891048669815063, -0.02349838800728321, -0.5613542795181274, 0.3047148585319519, -0.6664106249809265, -0.84457927942276, -0.6632341742515564, 0.17486707866191864, 0.0901656523346901, -0.29211118817329407, 0.0026316377334296703, -0.2621772587299347, -0.2446908801794052, 0.2188241183757782, 0.06195150315761566, 0.437877357006073, -0.3317539095878601, -0.14414894580841064, 0.9314137101173401, 0.35169970989227295, -0.19803233444690704, 0.6022327542304993, -0.8266986012458801, -0.8022994995117188, -0.5872037410736084, 0.01221552211791277, -0.5512049198150635, 0.23702111840248108, 0.11497576534748077, 0.1844141185283661, 0.34600570797920227, 0.46165338158607483, -0.45771488547325134, 0.331879198551178, -0.16742467880249023, 0.03588882461190224, -0.23069308698177338, -0.5076857209205627, -0.3914250433444977, -0.6430144906044006, -0.5046809911727905, 0.020021196454763412, 0.04992242902517319, 0.15395686030387878, -0.2801516056060791, 0.564119815826416, 0.06863269209861755, 0.5983017683029175, -0.467335969209671, -1.0031185150146484, -0.09796396642923355, 0.29962319135665894, -0.6512318849563599, -0.0282596405595541, 0.18413475155830383, -0.991429328918457, 0.1681111454963684, 0.17012548446655273], [0.6100433468818665, 0.21229201555252075, 0.3299895226955414, -0.14061880111694336, -0.7730093002319336, -0.23128467798233032, 0.20673446357250214, 0.35640525817871094, 0.015355675481259823, 0.43324434757232666, -0.8306318521499634, -0.09239866584539413, 0.0027020403649657965, -0.11326063424348831, 0.45289212465286255, 0.19100366532802582, 0.7203133702278137, -0.7279282212257385, -0.24270185828208923, -0.13628292083740234, 0.004146425519138575, -0.01065498124808073, -0.1264013797044754, -0.09796081483364105, 0.5667983293533325, -0.5640202164649963, 0.3144652247428894, 0.6522517204284668, 0.0012106497306376696, -0.2916073501110077, 0.3414052128791809, -0.6046279072761536, -0.30391889810562134, 0.13535606861114502, 0.08424004167318344, 0.27798929810523987, -0.16718800365924835, -0.2939276695251465, 0.5897562503814697, -0.41778454184532166, 0.14933276176452637, 0.03711798042058945, -0.6133005619049072, -0.048714857548475266, -0.14249075949192047, 0.019812999293208122, -0.5975959897041321, 0.1540687084197998, 0.2994898557662964, -0.4757297933101654, 0.3759966492652893, 0.19524885714054108, -0.09040152281522751, -0.25479573011398315, -0.10775739699602127, 0.06871628016233444, -0.10846085846424103, -0.042030394077301025, -0.16947396099567413, -1.5694761276245117, -0.5078775882720947, -0.0726381316781044, -0.20215339958667755, -0.021118761971592903, -0.265296995639801, -0.13160404562950134, -0.15341037511825562, -0.05318720266222954, 0.24986015260219574, 0.02239014208316803, -0.15926000475883484, -0.26619791984558105, -0.3218120038509369, -0.11232095211744308, -0.5790538191795349, 0.40435168147087097, -0.43904995918273926, 0.2117324024438858, -0.22222313284873962, -0.7285676002502441, -0.4081518054008484, 0.06706079840660095, 0.15174050629138947, -0.3651815354824066, 0.13881149888038635, -0.4180432856082916, -0.20666776597499847, -0.014077267609536648, 0.22275395691394806, -0.019644400104880333, 0.38532090187072754, 0.4308662712574005, -0.112605981528759, 0.13176193833351135, 0.321420818567276, 0.5845047235488892, -0.2747703492641449, -0.2546125650405884, -0.18820862472057343, 0.15218763053417206, 0.3355657160282135, -0.39427444338798523, -0.3394038677215576, 0.013757242821156979, 0.3698550760746002, 0.1008804589509964, -0.24443835020065308, 0.07986791431903839, -0.01933763176202774, -0.08065085113048553, -0.44436025619506836, 0.2523578107357025, -0.18391422927379608, -0.02913614921271801, 0.17292313277721405, -0.3374011218547821, -0.3573177754878998, 0.33899691700935364, -0.18404020369052887, 0.14043566584587097, 0.15332652628421783, 0.26804041862487793, -0.12392231822013855, -0.6470069289207458, 0.020510543137788773, -0.8698837161064148, -0.48476627469062805, -0.08309068530797958, -0.08061406761407852, -0.2932528853416443, 0.07671216130256653, 0.2285843938589096, 0.31445613503456116, -0.529363214969635, -0.002278625965118408, 0.06985392421483994, -0.48630622029304504, -0.3090784549713135, -0.8882153630256653, -0.5893969535827637, -0.09415756911039352, -0.06068135052919388, -0.3459426462650299, -0.1631566286087036, 0.09316106885671616, 0.3029932379722595, 0.5422109365463257, 0.2803652584552765, 0.20230676233768463, 0.08451642096042633, -0.1263352334499359, 0.29556602239608765, 0.7380417585372925, -0.2567259967327118, 0.3352111577987671, 0.2508718967437744, -0.2612609267234802, -0.16284650564193726, 0.616108238697052, -0.14784955978393555, 0.31142279505729675, -0.09074641019105911, 0.004738627467304468, -0.3238684833049774, -0.15802891552448273, 0.07624999433755875, 0.23963698744773865, 0.12813425064086914, 0.17803910374641418, 0.40457960963249207, -0.6703169345855713, 0.428115576505661, -0.39856746792793274, 0.2837146520614624, -1.1689722537994385, -0.7015423774719238, -0.13580581545829773, -0.6265544295310974, -0.5196043252944946, -0.4764653742313385, 0.20913554728031158, -1.3298367261886597, 0.6092081665992737, 0.04899143800139427, 0.5290540456771851, 0.4277256727218628, 0.27388796210289, -0.2520814836025238, -0.12471989542245865, 0.1285630315542221, 0.44138607382774353, 0.11893703788518906, -0.2358480989933014, 0.11146020889282227, 0.07887887954711914, 0.25986993312835693, -0.07948198169469833, 0.15743866562843323], [0.35987284779548645, -0.023740455508232117, 0.16623283922672272, 0.40887799859046936, -0.401629775762558, -0.4780924618244171, 0.7762863039970398, 0.09258490055799484, 0.24748440086841583, -0.6264103651046753, 0.13368698954582214, 0.9025862812995911, 0.39092549681663513, -0.05315443128347397, -0.052109330892562866, 0.815479040145874, -0.10870679467916489, 0.41242557764053345, -0.130313441157341, 0.22081363201141357, -0.4353071451187134, 0.44285422563552856, 0.24594832956790924, -0.5140824913978577, -0.32765328884124756, -0.39030659198760986, 0.3605232238769531, 0.46402034163475037, 0.3227981626987457, -0.043448060750961304, -0.46714967489242554, -0.4377843737602234, 0.11297694593667984, 0.08501917123794556, -0.025083433836698532, 0.2866237163543701, 0.29735931754112244, 0.01404194999486208, -0.15917395055294037, 0.363851398229599, -0.41653770208358765, -0.3218516707420349, -0.14602532982826233, 0.37749817967414856, 0.11459814757108688, -0.1664634346961975, -0.10033272206783295, -0.25030773878097534, -0.15161214768886566, -0.5520990490913391, -2.3676595446886495e-05, 0.1649405062198639, 0.23994077742099762, 0.23378553986549377, -0.6251654624938965, -0.4134801924228668, 0.16288995742797852, -0.5909137725830078, 0.36864811182022095, 0.750333309173584, 0.11015842854976654, 0.07919207960367203, -0.6254022121429443, 0.4968681037425995, -0.36974653601646423, 0.12032103538513184, 0.2385578751564026, -0.0037286151200532913, -0.023693861439824104, 0.1534011960029602, 0.11055108159780502, 0.2783416509628296, -0.571860134601593, 0.35010337829589844, 1.006554126739502, -0.6272811889648438, -0.5764652490615845, 0.3245500326156616, 1.0185385942459106, -0.34573450684547424, -0.1434084177017212, -0.9248623847961426, -0.2786685824394226, 0.13251183927059174, -0.09757860004901886, -0.3504934310913086, -0.6981688141822815, 0.7151883840560913, 0.6384003758430481, 0.22602403163909912, -0.32764890789985657, -0.09033727645874023, 0.22992448508739471, -0.3166734278202057, -0.2951907515525818, 0.5242752432823181, -0.35338321328163147, -0.6853456497192383, -0.3156644105911255, 0.10151473432779312, -0.5524311661720276, -0.3220573663711548, -0.010337373241782188, -0.33355823159217834, 0.2465529888868332, -0.2545798718929291, -0.08413321524858475, -0.49802717566490173, 0.883582353591919, -0.09813428670167923, 0.00040057688602246344, -0.8013314604759216, -0.011131330393254757, -0.12246167659759521, -0.2611866593360901, -0.877182126045227, 0.4448840320110321, 0.5912514328956604, -0.25158628821372986, 0.3668729066848755, -0.03686988353729248, -0.021916216239333153, -0.35278427600860596, 0.022053759545087814, -0.7179197072982788, 0.17108343541622162, -0.15286757051944733, -0.27511391043663025, 0.5154873132705688, 0.24964720010757446, 0.264730840921402, -0.09362474828958511, -0.8589125871658325, -0.09739335626363754, -0.18529526889324188, -0.5535396933555603, -0.2479785531759262, -0.017497487366199493, -0.43302589654922485, 1.0730040073394775, -0.2372434288263321, -0.3694358766078949, 0.29154515266418457, -0.3830242156982422, -0.653150200843811, -0.1969520002603531, -0.44396689534187317, -0.5512108206748962, -0.5486426949501038, 0.033465124666690826, 0.631405234336853, -0.04082591086626053, 0.4735333025455475, 0.7707715630531311, 0.33140575885772705, 0.2525898516178131, -0.3789488673210144, 0.04323191940784454, 0.35538116097450256, -0.058870404958724976, 0.48073092103004456, -0.2090378701686859, 0.023878123611211777, -0.5910802483558655, 0.5872500538825989, -0.7946945428848267, -1.1642074584960938, 0.18583814799785614, 0.1374906450510025, 0.09072141349315643, 0.904480516910553, -0.23334647715091705, -0.6504388451576233, 0.30365073680877686, -0.15557388961315155, -0.5559401512145996, -0.32883381843566895, 0.3742973804473877, -0.2289879024028778, 1.1055963039398193, 0.5544936060905457, -0.47468626499176025, 0.7590323686599731, 0.3239409923553467, -0.3516271710395813, 0.3887960910797119, -0.3353723883628845, -0.5269978642463684, 0.32947972416877747, 0.03384413942694664, 0.11491919308900833, -0.9114809036254883, 0.20451176166534424, -0.6978937983512878, -0.12684327363967896, 0.41993191838264465, 0.7959392070770264, -0.8655747771263123], [-0.8557360768318176, 0.49735012650489807, 0.4999726712703705, -0.4632255733013153, 0.2324182391166687, -0.6141417026519775, -0.10209373384714127, -0.2617732286453247, -0.5301591157913208, -0.3876701295375824, -1.3248469829559326, 0.49719706177711487, -0.030752379447221756, 0.07149479538202286, -0.33849141001701355, -0.5451599955558777, -0.5270169377326965, -0.5496098399162292, 0.030679894611239433, -0.10612048208713531, -0.11298768222332001, -0.38436949253082275, -0.5218653678894043, -0.3097960948944092, 0.260616660118103, 0.3136887550354004, -0.1999882161617279, 0.379463791847229, 0.08173336833715439, 0.2557019889354706, -0.10288485884666443, -0.1757468432188034, 0.004886185750365257, -0.24588830769062042, -0.7491799592971802, 0.11699427664279938, -0.44826069474220276, 0.46684524416923523, -0.025476524606347084, 0.6569865345954895, 0.027863098308444023, -0.23057126998901367, -0.18904757499694824, -0.24689576029777527, -0.23506520688533783, -0.5083534717559814, -0.47746849060058594, 0.08585665374994278, -0.7560952305793762, 0.5818974375724792, 0.33945131301879883, -0.8090027570724487, -0.875207781791687, -0.5842580795288086, 0.6129280924797058, -0.38985735177993774, 0.5274842977523804, 0.3282587230205536, 0.008145183324813843, 0.08578325062990189, 0.19426120817661285, -0.22330012917518616, -0.2945106625556946, 0.17277856171131134, -0.009404181502759457, 0.6026434302330017, 0.25542500615119934, 0.0012302066897973418, -0.013662935234606266, 0.10156703740358353, -0.16792415082454681, -0.9618822336196899, -0.8026238679885864, 0.043209049850702286, 0.14892049133777618, -0.47212839126586914, 0.08607892692089081, 0.15209732949733734, -0.06189964339137077, -0.9724368453025818, 0.10734198242425919, -0.09266391396522522, -0.3812066316604614, 0.2390773594379425, -0.15750160813331604, -0.32667040824890137, -0.08075389266014099, -1.7690438032150269, -0.06547334790229797, 0.23641638457775116, -0.5024449229240417, -0.0757087841629982, -0.15835103392601013, 0.13781878352165222, 0.20440812408924103, -0.14952613413333893, 0.5657280683517456, 0.48744651675224304, -0.3358229100704193, 0.12308051437139511, -0.6033164858818054, -0.43609562516212463, -1.2535160779953003, -0.4211753010749817, 0.44898751378059387, 0.10919662564992905, -0.44343164563179016, -0.19940921664237976, 0.22224459052085876, -0.3132586181163788, -0.47956302762031555, -0.41266530752182007, 0.008389761671423912, 0.5126569867134094, 0.7208911776542664, 0.19852615892887115, -0.38634824752807617, 0.1103380024433136, 0.543060839176178, 0.20465223491191864, -0.47575172781944275, 0.09311047196388245, 0.3259337544441223, -0.021812865510582924, -0.2322819083929062, 0.2893899381160736, 0.3504089415073395, -0.309584379196167, -0.07529492676258087, -0.23548762500286102, -1.8601237535476685, -0.22302547097206116, 0.17765262722969055, -0.9117484092712402, 0.18285731971263885, -0.4138103127479553, -0.47352203726768494, 0.6393475532531738, -0.19429777562618256, 0.00878145918250084, 0.8249577283859253, -0.032021068036556244, 0.2643778324127197, -0.04099578410387039, 0.20557521283626556, -0.3921416997909546, -0.3010777533054352, -0.06012815237045288, -0.845643162727356, -0.5759556889533997, -0.2098202407360077, -0.43530380725860596, 0.6557283401489258, 0.5386964082717896, 0.1297537386417389, 0.6499006748199463, 0.3964591324329376, 0.15032966434955597, -0.28062501549720764, -0.6855520009994507, -0.6338136792182922, -0.26824092864990234, -0.05771860107779503, 0.1227077916264534, -0.413615882396698, 0.14575617015361786, 0.6608428359031677, 0.03330555930733681, -0.16337785124778748, -0.01843557320535183, 0.37670037150382996, -0.255874902009964, 0.06240001320838928, 0.2946698069572449, 0.054955240339040756, -0.7921398878097534, 0.9799823760986328, -0.021720770746469498, 0.5701010823249817, 0.5397652983665466, -0.08532030880451202, 0.36360618472099304, -0.36896854639053345, 0.17571896314620972, -0.6008889675140381, -0.9502922892570496, -0.3262971341609955, 0.10195985436439514, -0.7457022070884705, -0.5714571475982666, 0.1534583568572998, -0.6123853325843811, 0.1455816626548767, -0.34447285532951355, -0.47097212076187134, 0.11705941706895828, -0.22014309465885162, 0.5752032995223999], [-0.06921658664941788, 0.43839478492736816, -0.10590244829654694, 0.012757983058691025, 0.2667194604873657, -0.04562530294060707, -0.02501273900270462, 0.3615531325340271, 0.1790468990802765, 0.016012413427233696, 0.2314884066581726, 0.15381455421447754, -0.3736990988254547, -0.05496729537844658, -0.11984996497631073, 0.46975788474082947, -0.13903571665287018, -0.4767424166202545, 0.11830542981624603, -0.27265140414237976, -0.2648610472679138, -0.3263096213340759, 0.0029571768827736378, 0.5594722628593445, 0.3546227812767029, -0.8280267119407654, 0.7379781007766724, 0.7487001419067383, 0.16761597990989685, 0.25863152742385864, 0.286777138710022, 0.36075353622436523, -0.48491591215133667, 0.2714907228946686, 0.7022649049758911, 0.4764752686023712, -0.05413799360394478, 0.19408369064331055, 0.44889286160469055, -1.2955482006072998, 0.27263200283050537, 0.3688887655735016, 0.2660541534423828, 0.22612039744853973, -0.25620168447494507, 0.6438328623771667, 0.3712703585624695, 0.4070333242416382, 0.40863221883773804, 0.6063947677612305, -0.2793016731739044, 0.42028021812438965, -0.07061683386564255, -0.08999123424291611, 0.055762842297554016, 0.51073157787323, -0.15635353326797485, 0.3643917143344879, 0.5841554999351501, 0.21102367341518402, 0.01352420449256897, 0.017366105690598488, -0.814736008644104, -0.47681790590286255, 0.49786800146102905, 0.3773444592952728, -0.10090295225381851, -0.2835608422756195, 0.4944402873516083, -0.14712581038475037, 0.306209921836853, -0.017203744500875473, -0.5114980936050415, 0.2742565870285034, -0.3252035975456238, 0.05893988907337189, -0.5200222730636597, -0.015234539285302162, 0.18248847126960754, -0.4792368710041046, -0.603498101234436, 0.20855143666267395, -0.15042416751384735, 0.29982060194015503, 0.45596739649772644, 0.3692309260368347, 0.2938794195652008, -0.13805919885635376, -0.5539156794548035, -0.8090642690658569, 0.319288969039917, 0.18420682847499847, 0.049453746527433395, -0.03356040641665459, -0.05699385702610016, -0.265214741230011, 0.431449294090271, -0.10359372198581696, 0.15875013172626495, -0.3804444372653961, 0.691319465637207, 0.14664499461650848, -0.24045997858047485, -0.10146017372608185, -1.2134432792663574, 0.2971808612346649, 0.2847544550895691, 0.020078636705875397, -0.1944068968296051, 0.5218914747238159, -0.6744182705879211, -0.7422158718109131, 0.4583362638950348, -0.060201577842235565, -0.4780546724796295, -0.335890531539917, -0.06359114497900009, -0.13038738071918488, 0.24749551713466644, 0.19438436627388, -0.5681983828544617, -0.09660866111516953, 0.35564878582954407, 0.07549700886011124, -0.16029362380504608, -1.3099842071533203, -0.6930959224700928, 0.7368949055671692, 0.2942187786102295, -0.6346684098243713, -0.012962538748979568, 0.5184031128883362, 0.14123524725437164, -0.3576611280441284, 0.33510246872901917, -0.13857804238796234, -0.09464810788631439, -0.2566858232021332, 0.10009295493364334, -0.6359792947769165, 0.06959915161132812, 0.00551708834245801, -0.49538302421569824, -1.3300089836120605, -0.1936984658241272, -0.46698033809661865, -0.10570455342531204, -0.18841275572776794, 0.42953041195869446, 0.3243013620376587, -0.10405849665403366, -0.16410517692565918, -0.2729422152042389, -0.2818358838558197, -0.37983235716819763, -0.20449887216091156, -0.6469237208366394, -0.1738356351852417, 0.5715533494949341, 0.47021618485450745, -0.3362891972064972, -0.23731379210948944, -0.14020098745822906, 0.41762015223503113, -0.9023517370223999, 0.37077561020851135, -0.05664211884140968, 0.38677534461021423, 0.09235189110040665, -0.6561233997344971, -0.5050499439239502, 0.5696337223052979, 0.010141330771148205, 0.1035759299993515, 0.21696780622005463, -0.18144305050373077, -1.2589808702468872, -0.022383132949471474, 0.46954795718193054, 0.6056448817253113, -0.2623292803764343, 0.29164206981658936, -0.26202628016471863, -0.42642179131507874, -0.7344628572463989, -0.31260988116264343, 0.39321836829185486, -0.39482972025871277, -0.3430960774421692, 0.03587302565574646, -0.09030713886022568, 0.29899781942367554, -0.7416085004806519, -0.14139799773693085, 0.5706269145011902, -0.2812362611293793, 0.1933852732181549, -1.118796706199646], [-0.09222821891307831, 0.12988094985485077, -0.06042950972914696, 0.05033281445503235, -0.05321886017918587, 0.6469911336898804, -0.9269793629646301, -0.623450517654419, -0.20231850445270538, -1.1117199659347534, -0.02668405883014202, -0.32541802525520325, 0.030266160145401955, -0.09715644270181656, -0.4757154583930969, -0.14833447337150574, -0.018278488889336586, -1.1372004747390747, -0.05320275202393532, -0.40898922085762024, 0.33178791403770447, -0.4384707808494568, -0.21164610981941223, -0.23139123618602753, 0.055913690477609634, -0.11357472836971283, -0.009535008110105991, -0.13948562741279602, 0.18647880852222443, 0.32699891924858093, 0.6288753151893616, -0.16259174048900604, 0.05030040070414543, 0.3682156503200531, 0.02315356396138668, 0.3507952392101288, -0.6533421874046326, -0.000762291660066694, 0.2811081111431122, 0.5602993965148926, 0.19163410365581512, -0.29931148886680603, 0.5142272114753723, 0.4777653217315674, -0.6265535950660706, 0.15677082538604736, -0.013125581666827202, 0.2942127287387848, 0.17597052454948425, -0.015427929349243641, 0.12379594147205353, -0.6241498589515686, -0.8632581233978271, -0.9522826671600342, -0.1289415955543518, -0.36779850721359253, -0.29935500025749207, 0.3573634922504425, -0.4305335283279419, 0.36712583899497986, -0.14355815947055817, 0.6393731832504272, -0.49539732933044434, -0.05353627726435661, -0.06266328692436218, 0.4728754460811615, -0.13858909904956818, 0.05343383178114891, 0.14741170406341553, -1.982392430305481, -0.5573428869247437, 0.19493578374385834, -0.26078397035598755, 0.3553425669670105, 0.11016280949115753, -0.46790775656700134, -0.031101925298571587, 0.3121574819087982, 0.2063646763563156, 0.4106696844100952, -0.38459867238998413, -0.029745938256382942, 0.5041398406028748, -0.7017737030982971, 0.21090681850910187, 0.3184538781642914, 0.01762417145073414, 0.06641688197851181, 0.2607532739639282, -0.3977745771408081, 0.5776510834693909, 0.3330586850643158, -1.0442447662353516, 0.12642501294612885, 0.4213133752346039, 0.09513872116804123, 0.060448914766311646, 0.32077673077583313, -0.22503261268138885, 0.562385618686676, -0.07081407308578491, 0.3537946939468384, 0.024302221834659576, 0.3666558861732483, -0.30997973680496216, 0.3102302551269531, -0.5975944995880127, -0.7334137558937073, 0.2857235074043274, 0.5706517696380615, -0.6704277396202087, -0.8129139542579651, 0.2034577578306198, 0.23596510291099548, 0.10354673117399216, -0.16176919639110565, -0.033969148993492126, 0.4640463888645172, 0.20173518359661102, 0.6780704259872437, -0.7666054964065552, 0.22690044343471527, -0.5822601914405823, -0.025592070072889328, -0.5650063157081604, 0.5055026412010193, 0.19902679324150085, -0.10221713781356812, -0.24314849078655243, 0.4413885176181793, -0.7403007745742798, 0.09198218584060669, -0.6541628241539001, 0.5135974884033203, 0.21933580935001373, -1.1271867752075195, -0.08837544173002243, 0.2866336703300476, 0.1876390129327774, -0.6161318421363831, -0.5832276344299316, -0.4096919000148773, 0.2970269024372101, 0.344169944524765, 0.0845683366060257, 0.029582062736153603, -0.1700608879327774, -0.32171303033828735, 0.13802827894687653, -1.1079176664352417, 0.10167716443538666, -0.5121643543243408, -0.4849431812763214, 0.4529748857021332, 0.6745023727416992, 0.15621797740459442, 0.08512015640735626, -0.07562698423862457, 0.1887771636247635, 0.3283931612968445, -0.32041269540786743, -0.3300091624259949, 0.2653524577617645, -0.07838471978902817, 0.3648160398006439, 0.07297611981630325, -0.09384967386722565, -0.4842141270637512, 0.3482222557067871, -1.8491460084915161, -0.013182547874748707, 0.454641193151474, -1.003219723701477, -0.384323388338089, 0.48968908190727234, -0.14241409301757812, -0.3738225996494293, 0.8085412383079529, 0.15029700100421906, 0.31500083208084106, -0.4668419361114502, -0.4840121269226074, 0.2712039649486542, -0.6825209259986877, -0.07196629792451859, 0.17672497034072876, 0.17550934851169586, -0.3323580324649811, -0.0008939075050875545, 0.42194515466690063, 0.08087235689163208, 0.5504010915756226, -0.8477254509925842, 0.3457811176776886, 0.08851324766874313, -0.45618095993995667, 0.2455996870994568, 0.4154987335205078], [-0.09773343056440353, -0.12816405296325684, -0.2611844539642334, -0.3283776640892029, 0.00489423144608736, -0.9861079454421997, -0.25364571809768677, -0.15046341717243195, 0.2542950510978699, 0.19543296098709106, 0.043780092149972916, 0.008374443277716637, -0.12371125817298889, 0.7326528429985046, -0.8336827754974365, 0.16332775354385376, 0.1536775380373001, 0.05632966011762619, -0.7511432766914368, -0.6377872228622437, 0.37270498275756836, 0.005992718040943146, 0.6318203806877136, 0.3744429647922516, -0.589452862739563, -0.39645740389823914, 0.24291731417179108, 0.23481635749340057, -0.3677366077899933, 0.6771827340126038, -0.6262965798377991, 0.25086358189582825, -0.2430875301361084, 0.03798463195562363, 0.7200923562049866, -0.027913091704249382, -0.39117029309272766, -0.041576143354177475, -0.4661616086959839, -0.2398311346769333, -1.2073500156402588, -0.09765788912773132, 0.4713503122329712, -0.10646042227745056, 0.12533007562160492, -0.3272978663444519, 0.1580520123243332, 0.2950844168663025, -0.3871031105518341, 0.008226802572607994, -0.07418477535247803, -0.8331115245819092, 0.8134285807609558, -1.0315971374511719, -1.0137804746627808, -0.6859477162361145, -0.13744600117206573, -0.06525035947561264, 0.24006573855876923, -0.01398134883493185, -0.4519844353199005, -0.12705160677433014, 0.1112198606133461, 0.5414311289787292, 0.4268684685230255, 0.2835986018180847, -0.47830256819725037, -0.06246807426214218, 0.256356418132782, -0.2841149568557739, 0.4365405738353729, -0.6342462301254272, 0.6328676342964172, 0.41342470049858093, 0.34918856620788574, 0.2830580174922943, -0.6678848266601562, 0.2626081705093384, -0.16929148137569427, -0.9168198108673096, -0.5260730981826782, -0.7300170063972473, 0.17188915610313416, 0.6095899343490601, -0.3455066978931427, 0.022125734016299248, -0.7947438359260559, -0.804852306842804, -0.32183441519737244, -1.2222826480865479, -0.06807335466146469, 0.09464120864868164, -0.365148663520813, -0.08329898864030838, 0.2509145140647888, -1.0609499216079712, 0.3237510919570923, 0.37123045325279236, -0.38632234930992126, -0.2857052981853485, 0.19786415994167328, -0.46910473704338074, -0.24597994983196259, 0.384406179189682, 0.15757712721824646, -0.1589854657649994, 0.085002101957798, -0.1212134063243866, 0.02192830853164196, -0.5659915208816528, 0.49816417694091797, 0.637427031993866, -0.6579474806785583, 0.46925705671310425, 0.23730021715164185, -0.28349393606185913, -0.1921434849500656, -0.1011619046330452, 0.7104628682136536, -0.03027644008398056, 0.11679625511169434, -0.23127053678035736, -0.1563219130039215, 0.040433164685964584, -0.23859171569347382, 0.05939679220318794, 0.19487015902996063, 0.007371919229626656, 0.330074280500412, 0.4457649886608124, 0.5242851972579956, -0.8373445272445679, -0.31632286310195923, 0.2003898024559021, 0.46915656328201294, -0.1499953269958496, -0.2834445536136627, -0.0002958932309411466, -0.7568941116333008, 0.36324355006217957, 0.17294146120548248, 0.3665517270565033, 0.08106569200754166, 0.39142346382141113, 0.18231220543384552, -0.04803852736949921, 0.337624192237854, -0.06552451848983765, -0.20138141512870789, -0.7431666254997253, -0.9038985967636108, -0.04003017023205757, -0.012517675757408142, 0.17733125388622284, 0.3893849551677704, -0.05575750023126602, -0.7506444454193115, 0.35577693581581116, -0.14061784744262695, 0.6091458201408386, -0.5703081488609314, -0.18859584629535675, 0.004258307628333569, 0.03175201267004013, -0.1769304871559143, -0.006400731857866049, -0.06792434304952621, 0.46361273527145386, -0.17780733108520508, -0.2996463179588318, -0.7138859629631042, -0.5585283637046814, 0.30636176466941833, 0.0900927409529686, 0.5646921396255493, -0.09960561245679855, -0.21886812150478363, -0.27939072251319885, 0.44828876852989197, -0.1827140897512436, -0.6805468797683716, 0.34654462337493896, -1.1228539943695068, -0.13364854454994202, 0.43127280473709106, 0.09325895458459854, -0.5106127858161926, -0.42787760496139526, 0.022929184138774872, -0.6478781700134277, 0.17559225857257843, -0.05808639898896217, 0.8269407749176025, -1.0421836376190186, -0.6795836687088013, 0.6333823800086975, -0.49440646171569824, 0.06623289734125137], [-0.05131475254893303, -0.3742188513278961, -0.1824796348810196, 0.16724827885627747, 0.6430715918540955, 0.3495314121246338, 0.15963275730609894, 0.5353769659996033, -0.9518622159957886, -0.42664235830307007, -0.0326654426753521, 0.4865628480911255, -0.031587861478328705, 0.03621659800410271, 0.24749037623405457, -0.17736509442329407, -0.9676638245582581, -0.2288541942834854, -0.20135481655597687, -0.44517281651496887, 0.21473346650600433, -0.007015622220933437, -0.31936296820640564, -0.2447238266468048, -0.755712628364563, -0.09982723742723465, -0.2900288999080658, -0.7934339046478271, 0.3549574017524719, -0.04231700301170349, -0.33927083015441895, -0.1002563014626503, -0.19312547147274017, 0.28030258417129517, -0.2771855592727661, -0.06508239358663559, 0.26497313380241394, 0.034135352820158005, -0.08485348522663116, -0.22847768664360046, -0.0007525153341703117, 0.33919477462768555, -0.5846064686775208, -0.32572370767593384, 0.7165600061416626, 0.7840449213981628, -0.36088210344314575, 0.17022205889225006, -0.716241717338562, -0.08733223378658295, 0.497005820274353, -0.7211160063743591, -0.11292961984872818, 0.020504184067249298, 0.8402537107467651, -0.6900755167007446, 0.2059548795223236, -1.0379310846328735, 0.07642393559217453, -0.3092826008796692, 0.42832446098327637, -0.1359792798757553, 0.45279163122177124, -0.3155004680156708, -0.05761722847819328, -0.008450997993350029, 0.19212034344673157, -0.8868834376335144, -0.6704461574554443, -0.001120770233683288, 0.7217172384262085, 0.12031393498182297, 0.18634213507175446, -0.07284229248762131, -0.4041135311126709, 0.4203157424926758, 0.053426653146743774, -0.6108470559120178, -0.2820568382740021, -0.18508273363113403, 0.012691356241703033, -0.4055955410003662, -1.5970914363861084, 0.7685894966125488, -0.11462192982435226, -0.04379262402653694, -0.10034848004579544, 0.745566725730896, 0.32438671588897705, 0.4790342152118683, 0.6406912207603455, 0.6637537479400635, -0.7096819877624512, 0.08978890627622604, -0.5343394875526428, -0.8293275833129883, 0.2601374089717865, -0.5944077968597412, 0.038128647953271866, -0.01362018845975399, -0.18176144361495972, 0.11764489114284515, -0.2774362564086914, 0.11788822710514069, 0.4822297692298889, -0.17475625872612, -0.28099745512008667, 0.409843385219574, 0.5790709257125854, -0.4123736321926117, -0.045239415019750595, 0.3710438907146454, -0.1725306212902069, 0.33771374821662903, -0.9995836615562439, 0.12155251204967499, -1.033388614654541, 0.660226047039032, -0.1583254039287567, 0.4301179051399231, 0.15294605493545532, -0.4089529514312744, -0.13086998462677002, -0.36312517523765564, -0.5004899501800537, -0.7278998494148254, 0.12458481639623642, 0.5160910487174988, -0.7109866142272949, -0.3623785674571991, 0.23936040699481964, 0.4254171550273895, 0.13893477618694305, 0.06944901496171951, 0.4193774163722992, 0.1755874902009964, -0.20177267491817474, 0.5866093635559082, -0.11419117450714111, 0.6028871536254883, -0.21340100467205048, -0.5694969296455383, -0.04112912341952324, -0.4170534014701843, -0.402776837348938, -0.02405059151351452, -0.1969997137784958, -0.2063029706478119, 0.5352129936218262, -0.12814606726169586, 0.16135694086551666, -1.121080994606018, 0.060369864106178284, -0.8505456447601318, 0.6508117914199829, -0.04219770058989525, 0.21260446310043335, 0.4498964250087738, -0.22308547794818878, 0.06404252350330353, -0.47768381237983704, 0.05692595988512039, -0.177036851644516, 0.5566182732582092, 0.0334392674267292, -0.09008924663066864, -0.28056272864341736, -0.3920467793941498, 0.3479110896587372, -0.19084219634532928, -0.11646097898483276, -0.18208298087120056, -0.12204928696155548, 0.5015031695365906, 0.8442690968513489, -1.0536603927612305, 0.1942577213048935, -0.34653159976005554, -0.48607632517814636, 0.12327481806278229, -0.33984649181365967, -0.24434714019298553, -0.15166006982326508, 0.44822898507118225, 0.39924269914627075, -0.2253008633852005, -0.2776739001274109, 0.3075287342071533, -0.01392150204628706, -0.4811709225177765, 0.7135123610496521, -0.2792065143585205, 0.03785281255841255, 