{"weights": {"layer_1": [[-0.1802436262369156, -0.27932748198509216, -0.2930671274662018, -0.03171899542212486, -0.2886179983615875, -0.6184967756271362, -0.8604574799537659, -0.5005720853805542, -1.4242579936981201, -0.021095650270581245, -0.1596752107143402, -1.136457085609436, 0.1724875569343567, -0.5071949362754822, 0.6212710738182068, 0.37588250637054443, -0.05693722516298294, 0.5022131204605103, 1.0676754713058472, -0.05939790606498718, 0.8617988228797913, 0.3327846825122833, -0.27217233180999756, 0.1560436636209488, 0.15135598182678223, -0.056695982813835144, 0.367337167263031, 0.026956558227539062, -0.7545660138130188, -0.4635455012321472, -0.10423768311738968, 0.4278579354286194, -0.6949339509010315, 0.03544054180383682, -0.9236660599708557, -0.46190449595451355, -0.1795886904001236, -0.012763003818690777, -0.914578378200531, 0.0674695074558258, -0.5803562998771667, 0.7159490585327148, 0.07221414893865585, 0.06107461825013161, 0.485821008682251, -0.29660022258758545, -0.5741406083106995, -0.6179230213165283, -0.10540176928043365, 0.2682998776435852, -0.14306779205799103, 0.262744277715683, -0.2943991720676422, -0.20747219026088715, -0.482597291469574, -0.06944388151168823, 0.08590040355920792, -1.3949679136276245, -0.358207643032074, 1.3684744834899902, -0.24846629798412323, 0.025156280025839806, -0.8087435364723206, 0.7821212410926819, 0.6199597716331482, 0.07570263743400574, -0.5100430250167847, 0.47869256138801575, 0.09242924302816391, -0.7854554057121277, -0.8134581446647644, -0.6010686755180359, -0.1094876304268837, -0.6558988094329834, 0.4177425801753998, -0.12070924788713455, 0.0815538540482521, -1.6916252374649048, -0.40971747040748596, -1.301313042640686, 0.03673798590898514, 0.03767796605825424, 0.3872504234313965, 0.2714100480079651, -1.0884414911270142, -0.2852928638458252, -1.0704787969589233, 0.06535255163908005, -0.07931864261627197, -0.5723128318786621, -1.068808913230896, -0.8675731420516968, 0.24656341969966888, -0.36881428956985474, 0.2661891579627991, 0.08616546541452408, 0.30607083439826965, 0.05921253189444542, -0.7289699912071228, -0.16793635487556458, -0.5175013542175293, -0.3331683874130249, -0.22593429684638977, -1.5350909233093262, 0.7785196900367737, -0.6038467884063721, -0.8948158621788025, -0.5538249015808105, -0.2414863407611847, -0.2382209450006485, 0.7213554382324219, -1.6611539125442505, 0.01013230811804533, -0.46925729513168335, -0.5942567586898804, -0.027014367282390594, -0.6123615503311157, -0.03636087104678154, 0.2855420708656311, 0.34261929988861084, -0.23818771541118622, -0.1202043890953064, 0.06666237860918045, -0.30681806802749634, -0.6340247392654419, -0.03804292157292366, 0.07934454828500748, -1.3031588792800903, 0.7064710259437561, -0.012806418351829052, -0.6109492778778076, -0.6847840547561646, -1.2318007946014404, -0.14788596332073212, -0.0631195679306984, -1.2047806978225708, 0.2553178668022156, -0.6083326935768127, 0.14500758051872253, -0.6122615933418274, 0.6433231234550476, -0.03168865293264389, 0.15910674631595612, 0.27047446370124817, -0.8250643014907837, 0.17385518550872803, -0.402744323015213, 0.5711641907691956, -0.5700846314430237, -0.46352246403694153, -0.2750656306743622, -0.9122133851051331, 0.622696042060852, 0.058746010065078735, -0.60017991065979, 0.21409937739372253, 0.4507136940956116, -0.9864486455917358, -0.39510631561279297, 0.1678585410118103, -0.16837766766548157, 0.18381959199905396, -0.3109464943408966, -0.4392523765563965, 0.294344961643219, 0.690687894821167, 0.004841621499508619, -0.23492294549942017, 0.42934271693229675, 0.31841352581977844, -0.5995234847068787, 0.4443828761577606, -1.1021275520324707, -1.0607012510299683, 0.007315660826861858, 0.24448324739933014, 0.664779007434845, 0.10834939777851105, -0.3028775155544281, -0.4385966658592224, -0.3797641694545746, -0.5863358974456787, 0.03311632201075554, 0.4744955897331238, -0.5423867702484131, -0.10056912153959274, -0.33358263969421387, 0.31182003021240234, -0.8418212532997131, -0.6302075982093811, 0.5176669955253601, -0.05814133584499359, 0.3204791843891144, -0.2229873538017273, -0.235181987285614, -0.04625839367508888, -0.2657777965068817, -1.1745014190673828], [-0.6103695631027222, -0.5268092751502991, -0.5264945030212402, -0.6985477209091187, 0.33058977127075195, -1.2353641986846924, 0.5454773306846619, -0.37740522623062134, -0.27301469445228577, 0.015274887904524803, -0.020526375621557236, -0.35485535860061646, 0.6826956272125244, 0.21133309602737427, -0.03002932481467724, -0.09104389697313309, -1.0203218460083008, 0.42609351873397827, 0.17102673649787903, -0.4825018048286438, 0.18148726224899292, 0.053771182894706726, 0.7014838457107544, -0.2536276876926422, -0.18482054769992828, -0.257795512676239, 0.22547674179077148, -0.410025954246521, 0.20400485396385193, -1.0503190755844116, -0.07603725790977478, -0.1614501178264618, 0.46666085720062256, 0.18051694333553314, -0.3565649092197418, -0.14231903851032257, -0.5107996463775635, 0.06843506544828415, 0.29771485924720764, -0.1676010936498642, -0.7822588682174683, -0.3903215825557709, 0.6677418351173401, -0.012396985664963722, 0.36984869837760925, 0.044948916882276535, -0.9017269015312195, -0.20765432715415955, -0.49672606587409973, -1.1127119064331055, -1.3647098541259766, -0.6122849583625793, -0.6077241897583008, -1.2931264638900757, -0.9815171957015991, 0.47337234020233154, 0.12137632071971893, -0.39799758791923523, 0.941180944442749, -0.579877495765686, -0.1238381415605545, 0.4138410985469818, -0.22238031029701233, -0.05935926362872124, -1.0337060689926147, 0.2681003212928772, 0.3101126253604889, -0.042876727879047394, 0.24864336848258972, -0.06989909708499908, -0.3020302951335907, -0.28096482157707214, 0.5817016363143921, -0.7370797395706177, 0.8084301948547363, 0.10210932791233063, 0.6708751916885376, -1.1182043552398682, 0.47131115198135376, -0.37627917528152466, -0.011235542595386505, -0.1998690664768219, -0.30585917830467224, 0.23762361705303192, 0.3677912950515747, 0.12676191329956055, -0.743614137172699, -0.6612837314605713, -0.09531277418136597, 0.09034880995750427, 0.11998434364795685, -0.5695610046386719, -0.3487470746040344, 0.014807895757257938, -0.5170890688896179, 0.3927599787712097, -0.019750649109482765, 0.12473698705434799, -0.06542079150676727, 0.13807694613933563, -0.6554465293884277, 0.38698577880859375, -0.7031212449073792, -0.3381091058254242, -0.7475665807723999, 0.08822670578956604, -0.5976240038871765, 0.7819784879684448, -0.7333025932312012, -0.422828733921051, -0.3075003921985626, 0.32851582765579224, -0.15695630013942719, -0.022094566375017166, 0.17552971839904785, -0.5871368646621704, -0.07120393216609955, 0.24766020476818085, 0.06621593236923218, -0.1669447422027588, -0.10626569390296936, -0.055123474448919296, 0.8748003840446472, 0.15028636157512665, 0.875935435295105, -0.5010280013084412, -0.19679780304431915, 0.0785885900259018, 0.020794833078980446, 0.46184584498405457, -0.7676501274108887, 0.12447988241910934, -0.25838586688041687, 0.31695446372032166, -0.11957118660211563, 0.5408505797386169, 0.532886803150177, 0.418146014213562, -0.645645797252655, -0.999291181564331, 0.3641239404678345, 0.4827662408351898, -0.8507833480834961, 0.5807467699050903, 0.10042468458414078, -1.3078328371047974, 0.11015909910202026, -0.49600329995155334, -0.16424955427646637, -0.3123074471950531, 0.32541337609291077, -0.5792893171310425, 0.17108307778835297, 0.04437651485204697, -0.14372259378433228, 0.2610454261302948, -0.9630885124206543, -0.592176079750061, 0.3212842345237732, 0.7897064089775085, -0.9364418387413025, 0.4159722626209259, 0.2693871557712555, -0.7178536057472229, 0.0651012659072876, -0.2452690750360489, 0.5522946715354919, -0.2528959810733795, -0.865142822265625, -0.8217810392379761, -0.5330319404602051, -0.7224646806716919, -0.72426837682724, -0.9875675439834595, -0.6629437804222107, -0.029528256505727768, -0.3715936243534088, 0.08741479367017746, -1.3707853555679321, -0.42692965269088745, 0.30299898982048035, -1.5953803062438965, -0.9281526207923889, -0.43941497802734375, 0.7263464331626892, -0.10767318308353424, -0.07140540331602097, -0.2536344528198242, -0.02388184703886509, 0.4091728627681732, 0.17098411917686462, -0.35994818806648254, 0.23351377248764038, 0.005269761197268963, -0.38084352016448975, -0.3714548349380493, -0.7611511945724487, 0.055858056992292404], [-1.1340434551239014, -0.16279232501983643, -0.049643829464912415, -0.050198812037706375, 0.6450580358505249, -0.3221745789051056, -0.5097293257713318, -0.003141294466331601, 0.054610103368759155, -0.41313207149505615, 0.08580709993839264, -0.18900196254253387, -0.3021860122680664, -0.28096044063568115, -0.3332116901874542, 0.07026538997888565, -0.7448839545249939, -0.9708672165870667, -0.6601362824440002, 0.6429349184036255, -0.4148315489292145, -0.19684383273124695, -0.09071189910173416, -0.7883746027946472, 0.4462555944919586, 0.5979210138320923, -0.277662068605423, 0.4470233917236328, -0.2702391445636749, 0.938055157661438, 0.22061771154403687, -0.37695619463920593, 0.26033592224121094, 0.5291737914085388, 0.37278467416763306, 0.12300076335668564, -0.4097624123096466, -0.8265312910079956, 0.3148331642150879, -0.7879853248596191, -0.3969128131866455, 0.36482861638069153, 0.024986542761325836, 0.017263732850551605, -0.4752352237701416, -0.6448993682861328, 0.41045081615448, 0.13629688322544098, -0.23410473763942719, -0.8404853343963623, 0.5173773169517517, 0.20719487965106964, -1.0427464246749878, -0.21183501183986664, -0.05512348935008049, -0.43167656660079956, 0.36876165866851807, -0.06144283711910248, -0.6235384345054626, -0.7235128283500671, 0.3988649845123291, -0.3130738437175751, -0.4963718056678772, 0.48716074228286743, -0.43018344044685364, -0.39699023962020874, 0.397236704826355, -0.14067237079143524, 0.39535754919052124, -0.08060599863529205, -0.5573461651802063, -0.6634631156921387, -0.3186914622783661, 0.8723716139793396, -0.6877378821372986, 0.2505928874015808, -0.37562647461891174, -0.03263642638921738, -0.16745582222938538, 0.4500941336154938, -0.27285251021385193, -0.26357516646385193, -0.2119946926832199, -1.566676139831543, 0.061167068779468536, 0.17969165742397308, -0.7792758941650391, 0.028368225321173668, -0.3340867757797241, -0.1562403440475464, -0.5547599792480469, 0.04539341852068901, 0.556340754032135, 0.4165256917476654, 0.2226029932498932, -0.060314033180475235, -0.017244454473257065, -1.0764111280441284, -0.2479139268398285, -0.6231784820556641, -0.8000576496124268, 0.664366602897644, -0.6370561122894287, -0.04466332122683525, 0.26243168115615845, -0.5060940384864807, 0.5407246947288513, -0.2013922482728958, 0.0652826651930809, -0.5914362072944641, -0.061106178909540176, 0.030192943289875984, 0.8931214809417725, 0.04752909392118454, -0.4411453306674957, -0.05365560203790665, 0.0049339784309268, 0.7807087302207947, 0.6309581995010376, -0.021543210372328758, -0.4769497215747833, -1.5115447044372559, 0.28403881192207336, 0.1205734834074974, 0.2911246716976166, -0.3528706431388855, -0.7526811957359314, 0.08620178699493408, -0.3737877607345581, -0.40516072511672974, 1.0219508409500122, 0.5978803634643555, 0.1685733199119568, -0.22820162773132324, -0.4822642505168915, 0.11386183649301529, 0.3171346187591553, -0.6971096992492676, 0.46811649203300476, -0.07419198751449585, 0.05795808136463165, -0.2079189270734787, 0.8159546852111816, 0.41900894045829773, -0.1304839849472046, 0.10942210257053375, 0.34174466133117676, -0.3544011116027832, 0.11318696290254593, -0.5714796781539917, -0.3253471255302429, 0.5303383469581604, -0.021202942356467247, 0.23902472853660583, -0.02289208211004734, -0.42446503043174744, 0.4030923843383789, 0.5866491794586182, 0.5774238705635071, 0.32533058524131775, 0.34124869108200073, -0.10226515680551529, -0.008849943988025188, -0.27973124384880066, -0.07045063376426697, -0.011581257916986942, -0.3634372651576996, 0.3078843057155609, 0.03995993360877037, -0.09884870797395706, -0.1377577930688858, 0.20249785482883453, 0.5732495188713074, -1.1210377216339111, -0.5817149877548218, -0.29936423897743225, 0.3395233154296875, -0.42328375577926636, -0.13096685707569122, -0.680070161819458, -0.35506314039230347, -0.6106581687927246, 0.6481888890266418, -0.6262170076370239, -0.08157496899366379, 0.02060156688094139, 0.6554508805274963, -0.6931418776512146, -0.8117319941520691, -0.08197394013404846, -0.26473701000213623, -0.7450152039527893, -0.18710827827453613, -0.879452645778656, -0.116238534450531, 0.7375030517578125, -0.34247222542762756, 0.19571201503276825], [0.26266592741012573, 0.5200275778770447, 0.06840778887271881, -0.35897064208984375, -0.8372470736503601, 0.27719080448150635, -0.35567528009414673, -0.2030264437198639, -0.8270660638809204, -0.6819198131561279, -0.7188059091567993, -0.31278660893440247, 0.12181467562913895, -0.21997742354869843, 0.6622852683067322, -0.31368449330329895, 0.059152960777282715, -0.48308074474334717, -0.449797660112381, -0.49977463483810425, 0.17906877398490906, -0.48355185985565186, -0.9120142459869385, 0.23615358769893646, -0.15559573471546173, -0.20501112937927246, -0.09882686287164688, 0.16638027131557465, 0.26161298155784607, 0.2296990305185318, -0.31086933612823486, 0.3535023331642151, 0.19757536053657532, -0.10876244306564331, 0.12357772141695023, -0.3124479055404663, -0.21863113343715668, 0.23727625608444214, -0.17203205823898315, -0.06525250524282455, 0.0395791158080101, 0.07949889451265335, -0.037196919322013855, 0.21085911989212036, -0.31966081261634827, 0.12530753016471863, -0.051607418805360794, -0.02889973670244217, 0.08083710819482803, -0.5015968680381775, -0.7567599415779114, 0.09601523727178574, -0.1894872486591339, -0.1525743007659912, 0.16284392774105072, 0.47321584820747375, 0.08558838069438934, -0.10295268893241882, -0.4380928575992584, -0.34736141562461853, -0.3263782858848572, 0.00475615868344903, 0.1713199019432068, 0.5265068411827087, -0.6595399379730225, -0.19842635095119476, -0.3461785614490509, -0.3809299170970917, -0.475446492433548, -0.5355581641197205, -0.014929099939763546, 0.4936043322086334, -0.4524267911911011, -0.00209838361479342, -1.5186982154846191, -0.2375062108039856, -0.6540296077728271, -0.15954741835594177, -0.34095802903175354, 0.4355003535747528, 0.2894933223724365, -0.037016645073890686, -0.731375515460968, 0.6061702966690063, 0.3642342984676361, -0.3135632574558258, 0.22983093559741974, -0.35083121061325073, -0.19743120670318604, 0.22735102474689484, -0.47605177760124207, -0.34565815329551697, 0.6674224138259888, -1.0061596632003784, 0.26286908984184265, -0.639931321144104, -0.8425371050834656, 0.008449058048427105, 0.2894609868526459, 0.12166441231966019, -0.34642335772514343, 0.5631997585296631, 0.24277769029140472, -0.2054130882024765, 0.5423901081085205, 0.4114876091480255, 0.019632048904895782, 0.16827182471752167, -0.04319947585463524, 0.02607288397848606, 0.3411228060722351, -0.5674754977226257, 0.14921322464942932, 0.3322446048259735, 0.44864073395729065, 0.5732455253601074, 0.21366532146930695, 0.2380046844482422, 0.22312211990356445, -0.28170186281204224, 0.5100299715995789, 0.21128247678279877, 0.05803736671805382, 0.470246821641922, -0.3277955949306488, 0.2825917601585388, -0.2157890498638153, -0.03946361318230629, -0.21166840195655823, -0.316263884305954, -1.2723878622055054, -0.475644052028656, 0.09801214933395386, 0.1678929328918457, -0.10694492608308792, -0.10843919217586517, -0.6865559816360474, -0.166273832321167, -1.7559055089950562, 0.007751947268843651, -0.1008666604757309, -0.8109027147293091, 0.5310377478599548, -0.42985811829566956, -0.29742294549942017, 0.4431878924369812, -0.42482903599739075, 0.16358965635299683, -0.07900719344615936, -0.13068749010562897, -0.12313699722290039, 0.414559930562973, -0.1047976016998291, 0.3258477449417114, 0.09818992763757706, -0.1935945749282837, 0.13483774662017822, -0.15303745865821838, -0.2509281635284424, -0.004403537139296532, 0.2538129389286041, -0.032346319407224655, -0.33510470390319824, 0.5988079309463501, -0.018033213913440704, -0.1558055877685547, -0.5158414840698242, -0.752577543258667, -0.1665126234292984, 0.4909094572067261, 0.19131386280059814, -0.6328253149986267, 0.16428272426128387, -0.32292819023132324, -1.0247509479522705, 0.2733059227466583, 0.3000321686267853, 0.068415068089962, -0.9849162101745605, -0.07470551878213882, 0.1272493153810501, -0.44987374544143677, -0.3368355333805084, -0.1826922446489334, 0.3368392288684845, -0.3329915702342987, 0.31965386867523193, -0.07293295115232468, -0.2311553806066513, 0.016043787822127342, 0.09909302741289139, -0.21009433269500732, 0.4084113538265228, -0.232619047164917, -0.25652748346328735, -0.09705054759979248, -0.3576376438140869, 0.47618839144706726], [-0.24078229069709778, -0.15309573709964752, -0.15413661301136017, -0.05625041574239731, -1.267530918121338, -0.5616983771324158, 0.030612202361226082, 0.42927807569503784, 0.42712774872779846, -0.22544512152671814, -0.4183387756347656, 0.3888280391693115, -0.19218961894512177, -0.9526242613792419, 0.3914160430431366, 0.025978662073612213, -0.439160019159317, 0.08369430899620056, 0.3931158483028412, 0.5250627398490906, -0.39975154399871826, -0.8102594017982483, -0.33688434958457947, -0.13429374992847443, -0.8884817361831665, -0.3011524975299835, 0.2835536301136017, -0.3380424976348877, 0.115638867020607, -0.12989923357963562, 0.22811560332775116, 0.29424580931663513, -0.20844608545303345, -0.13267892599105835, -0.0930597260594368, -0.16743527352809906, -0.6569191217422485, -0.13480187952518463, -0.32470303773880005, -0.5340078473091125, 0.6422292590141296, 0.3169621527194977, 0.4210343360900879, 0.041733451187610626, -0.5170888900756836, -0.19827671349048615, -0.012745494022965431, -0.23912179470062256, 0.1739487498998642, -0.5459060668945312, -0.5659737586975098, -0.1471085548400879, -0.31353044509887695, -0.5619844198226929, -0.28332972526550293, -0.8283836841583252, 0.09234009683132172, 0.19682852923870087, -0.07089699059724808, -0.5188369750976562, -0.2014327198266983, 0.1896238625049591, -0.1257263869047165, 0.6056010723114014, -0.41051360964775085, 0.5071136951446533, 0.06952124834060669, 0.056137815117836, 0.045104578137397766, -0.06790202111005783, -0.05710776522755623, -0.25825369358062744, -0.24284577369689941, 0.20617569983005524, -0.045729734003543854, 0.25968605279922485, 0.284175843000412, -0.5928677916526794, -0.23662947118282318, 0.24950839579105377, 0.07386300712823868, -0.6682950854301453, 0.03186345100402832, 0.1308506280183792, 0.04001440480351448, -0.2341226190328598, 0.6605545878410339, 0.06112733483314514, -0.6539860367774963, 0.7253254055976868, 0.05106471851468086, -0.612900972366333, -0.4392894208431244, 0.26949411630630493, -0.6152331829071045, -0.0016536012990400195, 0.09528831392526627, 0.7231286764144897, 0.10425674170255661, -0.4237368106842041, 0.38942572474479675, -0.16149577498435974, 0.5004899501800537, 0.30585575103759766, 0.001148710958659649, -0.7831770181655884, 0.037255603820085526, -0.618621289730072, -0.9327041506767273, 0.14590850472450256, -0.3830813765525818, -0.17161612212657928, 0.02329542301595211, -0.20661644637584686, -0.026283156126737595, -0.18389765918254852, 0.04121466726064682, -0.118279829621315, 0.0029311268590390682, -0.14146742224693298, 0.3096321225166321, 0.03934570029377937, -0.1578027307987213, 0.4377315044403076, -0.12664173543453217, -0.09738751500844955, -0.0978674665093422, 0.1774435043334961, -0.36426812410354614, -0.0024510626681149006, 0.07822959870100021, 0.20993423461914062, -0.08200741559267044, -0.0783950537443161, 0.12513625621795654, 0.21473029255867004, 0.20814409852027893, 0.39251822233200073, 0.19714714586734772, -0.19359074532985687, -0.41005343198776245, 0.04460839927196503, -0.13972677290439606, -0.19251857697963715, -0.11554298549890518, 0.3550996780395508, -0.051265615969896317, -0.12112109363079071, -0.06263517588376999, -0.9109041094779968, -0.07153388112783432, -0.017366498708724976, 0.1455530822277069, -0.40574881434440613, -0.5457655787467957, -0.3751648962497711, -0.1093093752861023, 0.14351432025432587, 0.2110171616077423, 0.0707235261797905, 0.012594684958457947, 0.3400537669658661, -0.3418797552585602, -0.3202073276042938, -0.025212934240698814, -0.20990575850009918, -0.17711113393306732, -0.2414277046918869, 0.2729947566986084, 0.2692002058029175, 0.09067050367593765, 0.17456063628196716, -0.8112746477127075, 0.2017415314912796, -0.29825249314308167, -0.3290458917617798, 0.03168901801109314, -0.1500677466392517, -0.8380045890808105, 0.07090148329734802, 0.2754465341567993, 0.24413642287254333, 0.19480322301387787, -0.5494476556777954, -0.6755963563919067, 0.2809748649597168, 0.22565652430057526, 0.037134818732738495, -0.2948034405708313, -0.307851105928421, -0.8542048335075378, 0.21243882179260254, -0.5714443325996399, -0.0579761378467083, -0.23658248782157898, -0.7645770311355591, 0.23602654039859772, 0.4053589403629303], [0.3403170108795166, -0.4827815890312195, 0.4040626287460327, -0.43534308671951294, 0.6575237512588501, 0.15384794771671295, 0.394736647605896, -0.12552350759506226, 0.006971872411668301, 0.4406917989253998, -0.2896018922328949, -0.22351200878620148, 0.2456892430782318, -0.8013138175010681, -0.9540773630142212, -0.286709725856781, -0.15193599462509155, -0.5534486174583435, 0.2836718261241913, 0.5079695582389832, 0.13554805517196655, -0.3193680942058563, -0.9436149597167969, -0.5082003474235535, -0.37776148319244385, -0.017530078068375587, -0.031302567571401596, 0.3141355514526367, 0.2866787314414978, -0.12457766383886337, 0.16099876165390015, 0.5734192728996277, 0.11447508633136749, -0.17252196371555328, 0.5455074906349182, 0.05739710479974747, -0.3147006928920746, 0.5449081659317017, -0.4755652844905853, -0.00773428101092577, 0.1471772938966751, -0.01064720842987299, -0.015534330159425735, -0.3192967176437378, -0.6494816541671753, 0.6599076390266418, 0.13666686415672302, 0.6210758090019226, -0.05492095276713371, -0.2109428346157074, -0.4728699326515198, -1.2093385457992554, -0.8407378196716309, -0.31049200892448425, -1.2153799533843994, 0.13621695339679718, 0.2879677414894104, 0.5993143916130066, -0.01925353705883026, -0.30572453141212463, 0.6379193663597107, -0.007959084585309029, -0.18699252605438232, 0.4059009850025177, -1.1353142261505127, 0.25297704339027405, -0.09486763179302216, -0.9857286810874939, -0.09953073412179947, -0.6672316789627075, 0.25049176812171936, 0.20308645069599152, 0.018569743260741234, 0.033135730773210526, -0.28452515602111816, 0.4684814214706421, -0.17008842527866364, 0.2113814651966095, 0.10484184324741364, -0.15700215101242065, 0.2771218419075012, 0.3072667717933655, -0.1649314910173416, -0.3436383306980133, -0.22664707899093628, -0.5884758234024048, -1.3081170320510864, -0.3064003586769104, 0.24988479912281036, 0.7051195502281189, 0.14210665225982666, -0.023406926542520523, -0.8178336024284363, 0.33669379353523254, 0.054961856454610825, -0.4188987910747528, 0.28116491436958313, 0.4640137553215027, -0.3751298785209656, 0.025532644242048264, -0.3656364679336548, -0.06457100063562393, 0.5330336689949036, -0.4306381940841675, 0.022883770987391472, -0.5593490600585938, -0.5252680778503418, 0.08005881309509277, 0.37547561526298523, 0.40796107053756714, 0.09496235847473145, 0.035675615072250366, -0.01732061803340912, -0.30314895510673523, -0.1187017560005188, 0.049151595681905746, -0.5009214878082275, -1.1965000629425049, 0.1395820826292038, 0.07037957012653351, 0.3649975657463074, 0.12895646691322327, 0.2021554559469223, 0.23464764654636383, -0.351438969373703, -0.4352882504463196, -0.9158034920692444, -0.1494181901216507, 0.458073228597641, -0.3717159330844879, 0.16955824196338654, 0.1812436729669571, 0.30077794194221497, 0.3224138915538788, -0.04577694460749626, 0.627596378326416, 0.1535569280385971, 0.3564265966415405, 0.33870282769203186, 0.14967380464076996, 0.5672186613082886, -0.47986823320388794, -0.18599918484687805, -0.5528384447097778, -0.2630593478679657, -0.40440165996551514, -0.007788318209350109, 0.5055131912231445, -1.5482734441757202, 0.46606457233428955, -0.017952170222997665, 0.05212781950831413, 0.06109360232949257, 0.4776831269264221, -0.3545759916305542, 0.4502420723438263, -0.9240491986274719, -0.33624836802482605, -0.6549164056777954, -0.6015914082527161, -0.5382369160652161, 0.16643469035625458, 0.49597689509391785, -0.016255339607596397, 0.07139141857624054, 0.3708088994026184, -0.04727309197187424, -0.0762445479631424, -1.0927163362503052, -0.5443634390830994, -0.5175777673721313, 0.029406527057290077, -0.633168637752533, -0.6901415586471558, -1.6759862899780273, -0.24927711486816406, 0.3258835971355438, -0.14524079859256744, 0.8487964272499084, -0.14192929863929749, 0.30101123452186584, 0.26407700777053833, 0.12381641566753387, 0.08266240358352661, -0.8180813193321228, -0.41260766983032227, 0.03352651000022888, -0.0050198594108223915, -0.16311763226985931, -0.053251177072525024, 0.4567147195339203, 0.3535270690917969, 0.03548282012343407, -0.20471367239952087, -0.14186270534992218, 0.49993088841438293, 0.1998431533575058, -0.21307986974716187], [-0.3043423891067505, 0.6618445515632629, -0.11968013644218445, 0.15555652976036072, -0.5591663718223572, -0.12072893232107162, 0.4540560841560364, 0.08449845016002655, 0.436898410320282, 0.9445458054542542, -1.4924864768981934, -0.23451390862464905, -0.6246418356895447, 0.325787216424942, -1.3706790208816528, 0.41655856370925903, -0.23028859496116638, -0.5078995227813721, -0.5822924971580505, 0.03887847810983658, 0.42911484837532043, 0.29597383737564087, -0.30251750349998474, -0.22795867919921875, -0.8515915274620056, 0.38652241230010986, -0.5347607731819153, 0.5954667329788208, 0.2179490625858307, -0.8818298578262329, 0.7167171239852905, -0.1728215515613556, -0.1396172195672989, -0.8308578133583069, 0.2706747353076935, 0.05584520101547241, 0.174333855509758, -0.6925322413444519, -0.15614502131938934, 0.3959207832813263, -0.8510580062866211, -0.5536015629768372, -0.2533975839614868, -0.004325065296143293, 0.3619644045829773, -0.1287655532360077, 0.0373946875333786, 0.13842295110225677, -0.6910687685012817, -0.05602506175637245, 0.24801801145076752, 0.26124078035354614, -0.20322930812835693, -0.12906032800674438, -0.6006936430931091, -0.7402018308639526, 0.4648527204990387, -0.028192022815346718, 0.07265923917293549, 0.6960005164146423, 0.4579148292541504, 0.11767597496509552, 0.6474751830101013, 0.3720727264881134, -0.43089306354522705, -0.2350326031446457, 0.2720418870449066, 0.11799725145101547, -1.046420931816101, 0.3251734972000122, -0.2703537940979004, -0.42618247866630554, 0.7872511148452759, -1.0075733661651611, -0.3922784626483917, 0.6072015762329102, 0.11817143112421036, -0.6990126371383667, 0.6844252347946167, -0.14223910868167877, -0.8961135745048523, 0.1408887803554535, -0.15133120119571686, -0.7086305022239685, -0.17459549009799957, -0.2113172709941864, 0.5588988065719604, -0.11865244805812836, -0.1682633012533188, 0.1374223232269287, 0.3983052968978882, -1.063364028930664, 0.07237362861633301, 0.3040122091770172, 0.38735756278038025, -0.015129570849239826, -0.034344304352998734, -0.6894913911819458, -0.5588347315788269, -0.2986374497413635, -0.5359598994255066, 0.3195948302745819, 0.3289910852909088, 0.28002825379371643, -0.03183307498693466, 0.28887325525283813, -0.6279817819595337, -0.08679760992527008, 0.14890488982200623, -0.03423598036170006, 0.5690786242485046, -0.7570058703422546, 0.6404712796211243, 0.011806435883045197, 0.34105628728866577, 0.5903264284133911, -0.00496107479557395, -1.4378960132598877, 0.2989281117916107, -0.15948475897312164, 0.13512468338012695, -0.7116263508796692, 0.05325155332684517, -0.003904986660927534, -0.3177866041660309, 0.13272187113761902, -0.014275097288191319, -0.05375479534268379, -0.49931710958480835, -0.0027300610672682524, 0.04487712308764458, 0.5941870212554932, 0.1606387495994568, -0.4150044918060303, -0.8069071769714355, -0.7600480914115906, -0.15812049806118011, 0.31099408864974976, -0.16522690653800964, 0.4478702247142792, 0.34782421588897705, -0.00417713075876236, -0.7966293096542358, 0.7732546329498291, -0.6623084545135498, 0.38055387139320374, 0.4173955023288727, -0.4624451696872711, -0.41293489933013916, 0.42219898104667664, -0.45963940024375916, 0.27409541606903076, 0.121698759496212, 0.10949437320232391, -0.3029334843158722, -0.22512935101985931, 0.016887696459889412, 0.48157769441604614, -0.18808235228061676, -0.5765586495399475, -0.3021773099899292, 0.6438041925430298, -0.008171581663191319, -0.0021392065100371838, 0.03843207284808159, -0.3727044463157654, 0.18682506680488586, 0.07736069709062576, 0.2414516806602478, 0.1691175401210785, 0.45974475145339966, -0.8221165537834167, 0.33891692757606506, -0.08869954943656921, -0.7483606338500977, 0.35276374220848083, -0.6068994402885437, -0.10306822508573532, -0.158900648355484, 0.6010401248931885, -0.06116102263331413, 0.18181249499320984, 0.3927919268608093, 0.5170959234237671, 0.1607527732849121, 0.18860560655593872, 0.217122420668602, -0.04655681923031807, -1.161332130432129, -0.06923549622297287, 0.8621708154678345, 0.05149151757359505, -1.171148657798767, 0.35487523674964905, 0.3393383026123047, -0.371738463640213, -0.6430856585502625, 0.17027263343334198], [0.3672960102558136, -0.073890320956707, -0.2531158924102783, -0.24873559176921844, -0.09718064963817596, 0.1149202361702919, 0.020287571474909782, 0.34351786971092224, 0.5007860660552979, -0.0874178484082222, -0.05036086216568947, 0.18977247178554535, -1.0836317539215088, 0.21912863850593567, -0.9890875220298767, 0.006455881055444479, -0.4539071321487427, -0.31674110889434814, -0.12366750836372375, 0.30878081917762756, 0.3329606056213379, -1.2251213788986206, 0.4164896309375763, -0.6393961310386658, -0.2207653820514679, 0.5296202898025513, 0.46393275260925293, 0.5824985504150391, 0.16545099020004272, 0.6393685340881348, -0.5187073945999146, -0.10894637554883957, -0.5016214847564697, -0.18013399839401245, 0.006849116180092096, 0.7578080296516418, 0.006460459902882576, -0.07424671202898026, -0.03574666008353233, -1.1848936080932617, -0.9693693518638611, 0.7302699089050293, -0.3769335150718689, -0.33641594648361206, 0.11100999265909195, -0.40363210439682007, -0.40374428033828735, 0.03350091725587845, -0.10555055737495422, 0.02342166192829609, 0.3301495909690857, -0.751149594783783, -0.8887678980827332, 0.255649209022522, -1.0302962064743042, -0.6399439573287964, 0.03751266375184059, -0.18974509835243225, -0.12090741097927094, -0.051318299025297165, 0.025835920125246048, 0.7674398422241211, -0.6457502841949463, -0.8487133383750916, -0.3198446035385132, -0.4137333333492279, 0.2097494751214981, 0.2523231506347656, 0.5366730093955994, -1.2125825881958008, 0.378620445728302, -0.42892134189605713, 0.19422264397144318, -0.7231638431549072, -0.285959392786026, 0.34867095947265625, 0.1586797535419464, -0.8449879884719849, -0.2680980861186981, -0.3588554263114929, -0.02580285258591175, 0.4309706687927246, -1.100164532661438, 0.2537054121494293, 0.5514737367630005, 0.13353227078914642, 0.14882442355155945, 0.4724211096763611, 0.47120457887649536, 0.09971090406179428, -0.7072985172271729, 0.08969031274318695, 0.23456956446170807, 0.580904483795166, 0.07326218485832214, 0.31679826974868774, 0.4445895254611969, -0.1739378273487091, -0.21792981028556824, 0.038977790623903275, -0.05685035139322281, 0.1948610097169876, 0.10239745676517487, -0.21188996732234955, -0.20251423120498657, 0.23404435813426971, -0.4070904850959778, -0.08629284799098969, -0.9088522791862488, 0.19033241271972656, 0.032492805272340775, -0.2797486484050751, 0.21283872425556183, 0.04082257300615311, 0.5333535075187683, 0.055554792284965515, 0.8877999782562256, 0.08726747334003448, -0.2524729371070862, -0.33455735445022583, -0.7362968325614929, -1.3026431798934937, -0.1955694556236267, -0.06678822636604309, 0.13168944418430328, -0.20713576674461365, -0.2785049080848694, 0.007689516991376877, 0.4356544613838196, -0.3184589445590973, 0.4692315459251404, -0.4562321901321411, -1.23636794090271, -0.3379322290420532, 0.1438213288784027, -0.1270209550857544, -0.3107810914516449, -0.4496847987174988, -0.02737450785934925, -0.031373873353004456, 0.030239997431635857, 0.16335521638393402, -0.10093443095684052, 0.010124246589839458, -0.2266450971364975, 0.28127577900886536, -0.7719939947128296, -0.23318171501159668, 0.20487231016159058, -0.09831143915653229, -0.17444129288196564, -0.8769840002059937, 0.2590042054653168, 0.0233551487326622, -0.14252637326717377, 0.01432846486568451, -0.47554606199264526, 0.0410347543656826, 0.24320821464061737, -0.49965816736221313, -0.3203885555267334, -0.22606660425662994, 0.11800708621740341, 0.29047691822052, -0.08202099055051804, -0.15030437707901, -0.9300859570503235, 0.5231494307518005, 0.15802156925201416, 0.3720875382423401, -0.11454437673091888, -0.06578440219163895, -0.702062726020813, 0.39863359928131104, -1.0234371423721313, 0.37713003158569336, 0.4166947305202484, -0.3029091954231262, -0.6119703650474548, 0.12763579189777374, -0.3745521903038025, 0.13163885474205017, -0.7602179050445557, -0.7244900465011597, -1.2636079788208008, -0.3336435854434967, 0.3029109537601471, 0.28456929326057434, -0.12034399807453156, -0.09896376729011536, 0.21038034558296204, 0.9122076630592346, 0.18739837408065796, 0.1820956915616989, -0.19073064625263214, -1.0578749179840088, 0.4262973368167877, -0.5665309429168701], [-0.27790191769599915, 0.2945745587348938, -0.3463142216205597, 0.38973990082740784, 0.325000137090683, 0.48402783274650574, 0.11522834002971649, -0.12617814540863037, 0.12343534827232361, 0.22675660252571106, 0.08531931042671204, -0.2837737798690796, 0.4735817611217499, -0.624588131904602, 0.5959100723266602, 0.17412513494491577, 0.10889206826686859, -0.4789635241031647, -0.024585958570241928, -0.707760214805603, 0.46479007601737976, 0.5049231648445129, 0.3784519135951996, -0.09997915476560593, -0.7934413552284241, -0.06164829060435295, 0.17879271507263184, -0.6117080450057983, 0.41772547364234924, -0.3344665765762329, -1.1438194513320923, 0.31607258319854736, 0.05403481796383858, 0.041824016720056534, 0.24499627947807312, 0.2727590799331665, -0.3202895522117615, 0.07203127443790436, 0.7710995078086853, -0.21572045981884003, -0.17498274147510529, -0.16587403416633606, -0.5880756378173828, -0.3905215561389923, 0.9601742029190063, 0.18151581287384033, 0.037740372121334076, -1.2747281789779663, -0.25915035605430603, -1.1743850708007812, 0.29991501569747925, -0.4698813557624817, 0.6911455392837524, -0.3575957715511322, 0.14697059988975525, 0.30779632925987244, -0.6730052828788757, 0.004792974796146154, -0.47671201825141907, 0.029425879940390587, -0.3719567656517029, 0.0004647563910111785, 0.08404462784528732, -0.6124140620231628, -0.46169739961624146, -0.003267223946750164, -0.40554603934288025, 0.5810907483100891, 0.31642860174179077, -0.08440836519002914, -0.2527291774749756, -0.6074382662773132, 0.16041694581508636, -0.026962649077177048, 0.4497045874595642, 0.3236387372016907, 0.013693434186279774, -0.4522553086280823, 0.5216625332832336, -0.002834785496816039, -0.35095253586769104, 0.5122429728507996, -0.7379129528999329, -1.3898272514343262, 0.16822946071624756, -0.16955305635929108, -1.2425687313079834, 0.6171987056732178, -0.10298166424036026, 0.0010550451697781682, 0.3199860155582428, 0.2104795277118683, -0.6336684226989746, -0.3055347204208374, -0.07292941212654114, -0.14005567133426666, 0.23592671751976013, -0.06610159575939178, -0.5955334305763245, 0.6479917764663696, -0.37794262170791626, -0.1775972843170166, 0.2919086813926697, 0.030393442139029503, -0.2845005989074707, -0.1514197736978531, -0.2322613149881363, 0.01375970896333456, 0.20311634242534637, -0.6418329477310181, -0.7378770112991333, 0.10187874734401703, 0.5080164670944214, 0.0557546392083168, 0.7969327569007874, -0.42408284544944763, 0.5190579891204834, -0.3551243245601654, -0.4650142192840576, -0.39642801880836487, 0.024242274463176727, 0.12736006081104279, -0.838103711605072, 0.19443079829216003, 0.03790004923939705, -0.6053789258003235, -0.2846772074699402, -0.41418567299842834, 0.4266807436943054, 0.16411148011684418, -0.40420961380004883, 0.22674289345741272, 0.4265679717063904, 0.09479882568120956, 0.3881610631942749, 0.32556766271591187, -0.2382928431034088, 0.48206254839897156, 0.2593865394592285, 0.2787562310695648, -0.19834038615226746, -0.5931347608566284, 0.6036803126335144, 0.4083307087421417, 0.28799116611480713, -0.47809454798698425, -1.014946699142456, 0.46485182642936707, 0.2598515450954437, 0.22822484374046326, -0.9611822366714478, 0.20850403606891632, -0.20391535758972168, -0.2358231395483017, 0.2257915437221527, 0.22150030732154846, 0.1940043568611145, -0.3147953748703003, 0.2978260815143585, -0.09856916218996048, -0.5947355031967163, 0.41417279839515686, 0.2446884661912918, 0.23089367151260376, 0.3555675745010376, 0.2036675661802292, 0.38798898458480835, -0.3154575228691101, -0.0851595550775528, 0.0746721476316452, 0.33015164732933044, -0.49254167079925537, 0.026350634172558784, 0.49836641550064087, 0.7969306707382202, 0.2131728082895279, -0.2688848674297333, 0.43695518374443054, 0.0804596096277237, -0.18967799842357635, -0.183893084526062, 0.19504670798778534, -0.30207201838493347, -0.7735204100608826, 0.05142582207918167, -0.003941460512578487, -0.38894549012184143, -1.1092519760131836, -1.0080246925354004, 0.14630278944969177, 0.11301692575216293, -0.5161774754524231, -0.24642618000507355, -0.2800776958465576, 0.3734109401702881, 0.15338152647018433, -0.7978171110153198, -0.05022676661610603], [0.37956297397613525, -0.23362049460411072, -0.06078852713108063, -0.5395237803459167, 0.40970274806022644, 0.270605206489563, 0.020433839410543442, 0.32734209299087524, -0.2361195683479309, -0.6010753512382507, -0.1589987576007843, -0.35435017943382263, -0.4271658658981323, 0.2799935042858124, 0.20108680427074432, -0.32649174332618713, -0.39776062965393066, -0.22388258576393127, 0.20044146478176117, -0.883767306804657, 0.0021085061598569155, -0.16300460696220398, 0.10731343179941177, -0.1929078996181488, -0.3406548500061035, 0.26252853870391846, -0.32068073749542236, 0.22155049443244934, 0.8254923820495605, -0.6478613018989563, -0.08119824528694153, 0.14727839827537537, 0.43001481890678406, -0.044977039098739624, 0.50776606798172, -0.4170995056629181, -0.4808368682861328, 0.2336486428976059, -0.021404625847935677, -0.84273362159729, 0.4793962836265564, -0.15943196415901184, -0.5519317984580994, -0.31006884574890137, -0.5691959857940674, 0.30676162242889404, -0.1086009293794632, -0.15458659827709198, -1.1565650701522827, -0.3973540961742401, -0.2858161926269531, 0.07411941140890121, 0.20643313229084015, -0.21554502844810486, -0.07677409052848816, -0.5093039870262146, -0.1812548190355301, 0.09410666674375534, -0.32501575350761414, -0.45580413937568665, 0.1940847784280777, 0.5439491271972656, 0.016842572018504143, 0.0943341925740242, -0.12208542227745056, -0.8405663967132568, 0.28721076250076294, -0.05237109959125519, -0.29606980085372925, 0.2214909791946411, -0.48615866899490356, -0.14818446338176727, -0.4637443721294403, 0.028074562549591064, 0.6029825210571289, 0.16971316933631897, -0.3553968369960785, -0.5473251342773438, 0.7099063396453857, -0.6036605834960938, -0.06473998725414276, 0.8770608901977539, 0.7058255076408386, 0.31007301807403564, 0.6915841102600098, -0.3223898708820343, -0.06716044992208481, -0.5118143558502197, 0.46780967712402344, 0.4209861159324646, 0.6166613101959229, 0.39890220761299133, 0.18776938319206238, -0.48724594712257385, -0.028488559648394585, -0.5987834334373474, 0.07594546675682068, -0.4054798483848572, 0.22763609886169434, -0.029552150517702103, -0.390346884727478, -0.5876819491386414, -0.5260515809059143, 0.09810298681259155, 0.2630898952484131, 0.12631508708000183, -0.16458718478679657, 0.5276488661766052, -0.7096058130264282, 0.080046147108078, -0.11039410531520844, 0.17339541018009186, -0.3029922544956207, -0.2305731624364853, 0.4303995966911316, 0.5701072216033936, 0.25066691637039185, -0.3998236656188965, -0.6501360535621643, 0.014479276724159718, -1.1149039268493652, 0.021204926073551178, 0.4186652600765228, 0.3828331232070923, -0.20444628596305847, -0.6381280422210693, 0.055895525962114334, -1.1110154390335083, 0.22117552161216736, 0.21834369003772736, -1.087548017501831, -0.37504974007606506, -0.24142952263355255, 0.4686141908168793, -0.18186494708061218, 0.5320051908493042, -0.08974882960319519, -0.7386089563369751, -0.22961053252220154, -0.5247450470924377, -0.2029963582754135, 0.816116213798523, -0.20766109228134155, 0.2926764488220215, 0.039788004010915756, -0.22788047790527344, -0.2348121851682663, 0.530652642250061, -0.09592684358358383, -1.0497194528579712, -0.5607290863990784, -0.31857776641845703, -0.2893941104412079, 0.10987652838230133, 0.45824959874153137, 0.2486334890127182, -0.6353936195373535, -0.5625372529029846, 0.20403073728084564, 0.20958666503429413, -0.5984605550765991, -0.6378185749053955, 0.34350067377090454, -0.5810478329658508, 0.28626346588134766, -0.23302076756954193, -0.736642599105835, 0.3116486072540283, -0.7154006958007812, -0.7157548069953918, 0.1271873414516449, 0.709645688533783, -0.014433148317039013, 0.6296064853668213, -0.05009889602661133, -0.1759193390607834, -0.2567696273326874, -1.278141736984253, 0.43678000569343567, 0.17537452280521393, -0.812325656414032, 0.3858626186847687, -0.6374770402908325, 0.10077247023582458, 0.08648930490016937, -0.15666422247886658, -0.36576932668685913, 0.9962196350097656, 0.331190824508667, -0.3493146300315857, 0.24187257885932922, -0.2940264344215393, 0.06075749173760414, -0.05296573415398598, -0.04837935417890549, -0.1699235439300537, -0.38248467445373535, -0.8310184478759766], [-0.2504156827926636, -0.2812674045562744, -0.023980585858225822, -0.6362512707710266, -0.4130193889141083, 0.37960878014564514, 0.12798959016799927, 0.41127458214759827, -0.3002926707267761, 0.34401026368141174, -0.4667425751686096, -1.099914789199829, -0.23232702910900116, 0.2071855068206787, -0.3818117678165436, -0.2988879084587097, 0.3638283908367157, 0.30182260274887085, 0.11983002722263336, -0.7554538249969482, 0.3381178081035614, -0.011237295344471931, -0.5647967457771301, -1.011932134628296, -0.38247135281562805, 0.11470329761505127, 0.31687653064727783, 0.504565417766571, -0.18217751383781433, -0.09262901544570923, -0.8267835974693298, -0.369762122631073, 0.6386879086494446, -0.013523389585316181, 0.6225234270095825, -0.9911162853240967, 0.09753907471895218, -0.8061468601226807, 0.7530388236045837, -0.24706335365772247, -0.49466750025749207, 0.22841259837150574, -0.6082759499549866, -0.710796594619751, -0.009353509172797203, -0.5312981605529785, -0.17851875722408295, -0.2881816625595093, 0.5257471799850464, 0.4714590609073639, 0.07641146332025528, 0.17287899553775787, 0.43938446044921875, 0.1994546353816986, -0.14806751906871796, 0.49486836791038513, -0.707237958908081, -0.40234729647636414, 0.0166031401604414, -0.4076526165008545, 0.20489631593227386, -0.5239430069923401, -0.44585201144218445, 0.4193340837955475, -0.14453941583633423, 0.34094661474227905, -0.7368814945220947, -0.11233924329280853, -0.4892011880874634, 0.00724066374823451, 0.23924359679222107, 0.3020184636116028, -0.48442694544792175, -0.5155604481697083, 0.044121723622083664, 0.09098965674638748, 0.40486180782318115, -0.10968996584415436, 0.329862117767334, -0.23230485618114471, -0.20408309996128082, -0.49964362382888794, 0.16593734920024872, -0.22925232350826263, 0.09021779894828796, 0.1302262544631958, 0.5634111166000366, -0.08049043267965317, 0.4736097455024719, -0.6719798445701599, 0.004106191918253899, -0.35432127118110657, -0.5961766839027405, -1.1245414018630981, -0.03354935348033905, -0.8554477691650391, 0.12910401821136475, -0.485628604888916, -0.06457886099815369, -0.09844475984573364, 0.509613037109375, -0.20803025364875793, 0.4852581322193146, -0.5344184637069702, 0.007596113253384829, -0.4078702926635742, -0.174148291349411, 0.41670578718185425, -0.4751529097557068, 0.4939025640487671, 0.029487643390893936, -0.8421310186386108, 0.34238407015800476, -0.8229084014892578, -0.10980747640132904, 0.5217108130455017, 0.2908003330230713, -0.47332963347435, -0.07954303175210953, -0.31169310212135315, 0.3484288156032562, 0.06978081911802292, 0.4308019280433655, 0.021401671692728996, -0.9580297470092773, 0.39164915680885315, 0.15029938519001007, -0.056913264095783234, -0.014359976164996624, 0.36827656626701355, 0.28872624039649963, 0.5956711769104004, -0.11675205081701279, -0.472050279378891, -0.3909425139427185, 0.2892279624938965, 0.5045493245124817, 0.7291796803474426, -0.20906348526477814, 0.08030164986848831, 0.4392419755458832, 0.22656448185443878, -0.3026708662509918, -0.18035829067230225, -0.08038675040006638, 0.11987431347370148, -0.08483193814754486, 0.4030676484107971, -0.16523537039756775, 0.1833914965391159, -0.02447529137134552, 0.21295984089374542, -0.5137796998023987, 0.14497648179531097, 0.10226674377918243, -0.025075167417526245, -0.6510596871376038, 0.02439393661916256, -0.24819085001945496, -0.7807826399803162, -0.05696698650717735, 0.20746122300624847, -0.18657374382019043, 0.198965385556221, 0.22959624230861664, 0.18711622059345245, 0.3172767162322998, -0.12244011461734772, -0.05533473566174507, 0.5150381922721863, 0.24337901175022125, -0.3165324032306671, 0.8115123510360718, 0.0015148534439504147, -0.16391396522521973, -0.8229024410247803, -0.3465116620063782, -0.37195059657096863, 0.2576172351837158, -0.17612360417842865, 0.2578442692756653, -1.1146234273910522, 0.15485583245754242, 0.3511825501918793, 0.003945770673453808, -0.09928146004676819, 0.004997060634195805, 0.21490320563316345, -0.2792973220348358, -0.2330930233001709, -0.3288695216178894, -0.09786618500947952, -0.05017680674791336, -1.082092046737671, -0.18818853795528412, -0.0785384252667427, 0.19498391449451447, 0.07488550990819931], [-0.35593467950820923, 0.05918053537607193, -0.5969555377960205, 0.37747806310653687, -0.3844810128211975, 0.6514472961425781, -0.41605663299560547, 0.6731963753700256, -0.47340264916419983, -0.4487186074256897, -0.17726776003837585, 0.18323642015457153, 0.612598180770874, 0.6710190773010254, -0.18095281720161438, -0.18082958459854126, -0.1399601399898529, 0.32634058594703674, 0.4600076377391815, 0.021909652277827263, -0.06273248046636581, 0.14111743867397308, -0.06474907696247101, -0.008809268474578857, 0.46832507848739624, -0.32203733921051025, -0.44812554121017456, 0.30919909477233887, -0.3458799719810486, -0.21486826241016388, 0.41323575377464294, -0.040756408125162125, 0.5357597470283508, -1.0716311931610107, -0.04663563892245293, 0.2827182412147522, -0.697050154209137, -0.40882307291030884, -0.10935767740011215, -0.09213512390851974, -0.1294931322336197, 0.20671898126602173, -0.37277257442474365, -0.2324206531047821, 0.4860083758831024, -0.8050311207771301, -0.6900121569633484, 0.19024686515331268, -0.2947622239589691, 0.03434763476252556, 0.6148681044578552, 0.06310481578111649, 0.1844615340232849, -0.03578759357333183, 0.7927872538566589, 0.4075064957141876, -0.10025878250598907, 0.6105450391769409, -0.24971425533294678, -0.3340558409690857, -0.6371943950653076, -0.41872233152389526, 0.06946694105863571, 0.7421876788139343, -0.7317837476730347, -0.14934445917606354, 0.0765204131603241, -1.041104793548584, 0.370537668466568, -0.04320197552442551, 0.7808483242988586, -0.5630891919136047, -0.4105909764766693, -0.3998557925224304, 0.19977284967899323, 0.4009617567062378, -0.22870738804340363, -0.14953254163265228, -0.4897637367248535, -0.25538361072540283, 0.16181033849716187, -0.504162073135376, -0.5180791020393372, -0.59249347448349, 0.09296554327011108, 0.42505937814712524, -0.9297494292259216, -0.1855495274066925, 0.13071323931217194, -0.6924992203712463, 0.8295394778251648, 0.25412359833717346, -0.0006492389366030693, 0.03652526065707207, 0.1257849633693695, 0.02080080658197403, 0.08771751821041107, -0.3490249514579773, -0.23210251331329346, 0.2543467879295349, -1.4008876085281372, 0.2049013078212738, -0.24475817382335663, 0.0663568526506424, 0.4625557065010071, 0.6426017880439758, -0.011129049584269524, -0.007776088081300259, -0.3466860055923462, -0.7972428202629089, 0.42862340807914734, -0.2816368043422699, -0.26551881432533264, 0.221879780292511, 0.21495327353477478, 0.094633087515831, 0.1577330380678177, 0.5690506100654602, -0.6407659649848938, 0.34511423110961914, 0.2616201937198639, -0.8564049005508423, -0.21170289814472198, -0.8669789433479309, 0.6089370846748352, 0.037660036236047745, 0.18833178281784058, 0.08633775264024734, 0.32159164547920227, -0.8327422738075256, -0.025462934747338295, -0.015022636391222477, 0.21443603932857513, -0.4287789463996887, -0.6984540820121765, -0.4934858977794647, 0.18193218111991882, 0.6361523866653442, 0.410540372133255, -0.8954454064369202, 0.3904721736907959, -0.243219792842865, 0.3465653955936432, -0.5704066753387451, 0.08537119626998901, 0.4969896376132965, 0.7896930575370789, 0.4927757680416107, 0.3263520896434784, 0.34129011631011963, 0.05548571050167084, -0.8327094316482544, 0.5033730864524841, -0.15550607442855835, 0.06819546967744827, 0.5302215218544006, -0.3615111708641052, 0.18739552795886993, 0.050917498767375946, -1.4757674932479858, -0.9524564743041992, -0.015107891522347927, -0.43602433800697327, -0.04038367420434952, -0.35335925221443176, -0.927162766456604, 0.2452624887228012, 0.1617991179227829, 0.17452049255371094, 0.026360269635915756, -0.10529843717813492, -0.33349505066871643, 0.07202095538377762, -0.7520162463188171, -0.026634763926267624, -1.2317378520965576, 0.46389511227607727, -0.38269737362861633, -0.40560227632522583, 0.12959183752536774, 0.5882354378700256, 0.426867812871933, -0.052335452288389206, -0.19675426185131073, 0.5631465315818787, -0.31569287180900574, 0.15663911402225494, -0.6757460832595825, -0.30349215865135193, -1.568916916847229, -0.08962802588939667, -0.48840829730033875, -0.02350923977792263, -0.0015444434247910976, 0.4528920650482178, -0.4155513048171997, -0.01551555935293436, 0.9541388750076294], [0.6264520883560181, 0.34869909286499023, 0.16506817936897278, 0.006780038122087717, 0.33933112025260925, -0.30988970398902893, -0.7844417095184326, 0.5454856753349304, -0.5965021252632141, -0.2954119145870209, -0.33481210470199585, 0.032514866441488266, 0.5917946696281433, 0.3393891751766205, 0.19420944154262543, -0.03968208655714989, 0.9156916737556458, -0.21220658719539642, -1.3938488960266113, -0.6231920719146729, -0.8810398578643799, 0.08089980483055115, -0.2711296081542969, 0.5859397053718567, 0.010231091640889645, 0.1540723294019699, 0.11466392874717712, -0.06056800112128258, 0.5823097825050354, -0.9444184899330139, -0.2829560339450836, -0.6192314028739929, 0.5290156006813049, -0.08207613974809647, -0.8665682077407837, 0.28662002086639404, -0.3323274254798889, 0.0584351122379303, -0.5235556960105896, -0.5670723915100098, 0.6716552972793579, 0.414928674697876, -0.8262588977813721, 0.6404758095741272, -0.0382029265165329, 0.4128623604774475, -0.7801874876022339, 0.8930855989456177, -0.449653685092926, -0.1986253559589386, -0.2927030622959137, -0.2969658076763153, 0.7909805774688721, -0.7054020166397095, 0.3142106533050537, 0.4747888445854187, 0.7267009615898132, -0.3938220739364624, -0.5749669075012207, -0.15627583861351013, -0.14064309000968933, -0.31091395020484924, 0.11884704977273941, 0.07837500423192978, 0.21015062928199768, -0.07140745222568512, -0.5042091608047485, -0.377770334482193, -0.2721937298774719, -0.04650401324033737, 0.3094055950641632, 0.6553204655647278, -0.17611859738826752, -0.44422242045402527, 0.27521073818206787, 0.0976685956120491, 0.9834925532341003, -0.5412973761558533, 0.12404435127973557, 0.8764646053314209, 0.40117305517196655, -0.31697994470596313, 0.46456754207611084, 0.37962865829467773, -0.38575077056884766, -0.39592230319976807, -1.4160696268081665, -0.06596021354198456, 0.4844702184200287, -0.15239645540714264, -0.2834528386592865, 0.7237026691436768, -0.9273301362991333, -0.5182356834411621, -0.003482840023934841, -0.5706210136413574, 0.030008135363459587, -0.6903599500656128, -0.7260668277740479, -0.05363559350371361, -0.37530362606048584, 0.022445589303970337, 0.5213342308998108, 0.5094640254974365, -0.07122182101011276, 0.6280996799468994, -0.4031710624694824, -0.14499807357788086, -0.3579219579696655, 0.05944307893514633, 0.5618939399719238, 0.752440333366394, -0.2891138195991516, -0.17749285697937012, 0.06179620325565338, -0.848778486251831, 0.009301026351749897, 0.022449590265750885, -0.24306921660900116, -0.4276932179927826, -0.8148755431175232, -0.8400722742080688, -0.40309521555900574, 0.5640278458595276, -0.44140639901161194, -0.04701115936040878, -0.6732394695281982, -1.5205219984054565, -0.1989792138338089, 0.013267950154840946, -0.40169936418533325, -0.1861998289823532, -0.36195069551467896, -0.6767224669456482, -0.23688311874866486, -0.14395149052143097, 0.009861079044640064, -0.1391848623752594, 0.08416329324245453, 0.1553863286972046, 0.6854541301727295, 0.6828796863555908, 0.029363851994276047, -0.2783556878566742, -0.01815166510641575, 0.46435317397117615, 0.5459858179092407, -1.129006028175354, -0.612473726272583, 0.19098053872585297, -0.4201143980026245, -0.10573559999465942, 0.31894591450691223, 0.01097318809479475, 0.4613368809223175, -0.4472786784172058, 0.8747681379318237, -0.5074316263198853, 0.20691952109336853, -0.3797001540660858, -0.14882376790046692, -1.560211420059204, 0.6419815421104431, -0.12301546335220337, 0.029527343809604645, 0.7620647549629211, 0.045839037746191025, 0.16351769864559174, -0.13198423385620117, -0.3259007930755615, -0.10583775490522385, -0.4516848921775818, 0.37176311016082764, -0.19857963919639587, -0.3341616094112396, 0.29658421874046326, 0.4210333526134491, -0.1061759740114212, -0.24416963756084442, 0.1538381427526474, 0.05076625943183899, 0.03375660628080368, -0.24739490449428558, 0.10795717686414719, 0.03672851249575615, -0.6796191930770874, -0.08035340905189514, 0.3531070649623871, -0.26295551657676697, 0.08694200962781906, 0.185930997133255, -1.2781091928482056, 0.21926069259643555, -0.6536837816238403, -1.0066343545913696, 0.5180110335350037, 0.6557632088661194, 0.015286466106772423], [-0.5181670188903809, -0.8523026704788208, -0.23041988909244537, 0.26873865723609924, -0.19202381372451782, -0.02535535953938961, -0.919649064540863, -0.023395651951432228, -0.11332051455974579, -0.17778415977954865, 0.44455549120903015, 0.16569066047668457, -0.11690164357423782, 0.5370667576789856, -0.1212380975484848, -0.6171054840087891, 0.6122825145721436, -0.2844095230102539, -0.30480167269706726, -0.3244944214820862, -0.6228999495506287, -0.5423673987388611, 0.16272734105587006, 0.17600984871387482, -0.7062338590621948, -0.10586610436439514, -0.1178927794098854, -0.09356608986854553, -0.4861089587211609, -0.6240633726119995, -0.33433541655540466, 0.4564327895641327, 0.002206159755587578, -0.47716808319091797, 0.2872840166091919, -0.23422834277153015, -1.0809032917022705, -0.165840744972229, 0.44777190685272217, 0.13386006653308868, 0.40717652440071106, 0.2330416887998581, -1.0380915403366089, -0.30380284786224365, -0.1475948542356491, -1.5851678848266602, -1.0854181051254272, -0.09497325122356415, 0.3746638298034668, 0.031779173761606216, 0.07385790348052979, -1.4462077617645264, 0.1684035360813141, 0.39150270819664, 0.053436994552612305, -0.21406807005405426, 0.07707302272319794, -0.08134026825428009, 0.2065466195344925, -0.16435298323631287, 0.26675453782081604, 0.138604998588562, -0.5344228148460388, 0.8789861798286438, -0.27118730545043945, -0.4471805989742279, -0.5086724162101746, -0.24654780328273773, -0.05407381430268288, -0.06735721230506897, -0.5593554973602295, -0.676386833190918, 0.047194547951221466, -0.15784353017807007, 0.055038001388311386, 0.4571170508861542, 0.3528788089752197, 0.07578598707914352, -0.2652248442173004, -0.3107947111129761, -0.03703618049621582, 0.017235537990927696, -0.7473098039627075, -0.25264501571655273, 0.13768701255321503, 0.4958535134792328, -1.2495743036270142, -0.40438318252563477, -0.5401535034179688, -0.5281044244766235, 0.12426604330539703, -0.5221633911132812, -0.3615208864212036, -0.07792980968952179, -0.10911373049020767, -0.4138185679912567, -0.001570077263750136, -0.3507148027420044, 0.3111133575439453, -0.04340939223766327, 0.6514685153961182, -0.13518047332763672, 0.15679597854614258, -0.9804736971855164, 0.012170315720140934, -0.2020304948091507, 0.4688902795314789, 0.1666259616613388, 0.3220306932926178, 0.15747404098510742, -0.10335050523281097, 0.40891391038894653, -0.02626407891511917, -0.3285050690174103, 0.32268333435058594, 0.16938066482543945, -0.8207958936691284, 0.3229513168334961, -0.11582063883543015, -0.9355852007865906, -0.21342505514621735, 0.0666375383734703, -0.692945659160614, 0.042374081909656525, -0.2923645079135895, 0.3739704489707947, 0.6518489122390747, -0.49702101945877075, 0.5039767026901245, -0.6287298202514648, -0.3833916485309601, -0.1886436641216278, 0.08330729603767395, 0.07695885002613068, -0.553850531578064, 0.3754737079143524, -0.12111743539571762, 0.14322519302368164, 0.3916386067867279, -0.16706056892871857, 0.2919294536113739, 0.3505706787109375, 0.4310632050037384, -1.0520020723342896, 0.15100960433483124, -0.30568134784698486, -0.42024263739585876, -0.8414058685302734, 0.36052462458610535, 0.15510644018650055, 0.4063114523887634, -0.26169365644454956, 0.13971233367919922, 0.2672803997993469, -1.0235044956207275, -0.4275822043418884, 0.18670859932899475, 0.5499690175056458, 0.53412926197052, 0.08574462682008743, -0.47928234934806824, 0.26286011934280396, -0.28829559683799744, -0.5548661947250366, 0.34661972522735596, 0.2001662701368332, -0.07558582723140717, 0.2545238137245178, -0.6599687337875366, 0.13553467392921448, -0.5471107363700867, 0.8635628819465637, -0.35737740993499756, -0.07896345108747482, 0.1179458349943161, 0.18941710889339447, -0.6454214453697205, 0.045906055718660355, 0.30761387944221497, -0.09552840143442154, -0.0972006767988205, -0.6145254969596863, 0.10551046580076218, 0.39713481068611145, -0.11048008501529694, 0.7899904251098633, 0.35927698016166687, 0.2297562211751938, -1.2933262586593628, 0.2120465487241745, 0.220559224486351, -0.2728710174560547, 0.08267984539270401, 0.01754407212138176, 0.09726152569055557, -0.5027536153793335, -0.72823566198349, 0.4829022288322449], [-0.10523726046085358, 0.3447032570838928, -0.45891013741493225, 0.552777111530304, -0.0759778544306755, 0.09714500606060028, -0.40488821268081665, 0.1742173135280609, -0.14300331473350525, -0.14022515714168549, -0.21477973461151123, -0.4656014144420624, -0.11264961212873459, -0.5284356474876404, 0.12877757847309113, -0.8090553879737854, 0.11828628927469254, -0.18517792224884033, 0.09233561903238297, -0.7979294657707214, -0.1928139179944992, -0.3983144164085388, 0.4242364466190338, 0.2807990610599518, -0.2906336486339569, 0.6508218050003052, -0.05681879445910454, -0.14144176244735718, -0.4491489827632904, -1.2210248708724976, 0.6730499863624573, 0.4007633626461029, -0.7385144233703613, -0.2994273900985718, -0.18067950010299683, 0.2989017069339752, 0.10279464721679688, -0.7361318469047546, 0.13583315908908844, 0.10079288482666016, 0.019931163638830185, 0.41392046213150024, -0.9761899709701538, 0.09189245849847794, 0.40478143095970154, 0.19663769006729126, 0.4392339289188385, 0.869218111038208, 0.07080608606338501, -0.3632708489894867, -0.22001725435256958, -0.8822492957115173, 0.45576104521751404, 0.23906883597373962, -0.17605943977832794, -0.4801584482192993, -0.8262875080108643, -0.05158165097236633, -0.2532469630241394, -0.11470703780651093, -0.5354828238487244, -0.29280251264572144, -0.9162126183509827, -0.5119390487670898, -0.29552486538887024, -0.07736362516880035, 0.1112053170800209, -0.7149004936218262, -0.22574633359909058, -0.5669557452201843, -0.008843648247420788, -0.5178013443946838, -0.6695346236228943, -0.15972889959812164, 0.4120839834213257, 0.5855944156646729, 0.10456298291683197, -0.1700366586446762, 0.26586657762527466, -0.38372576236724854, -0.911996066570282, 0.05774233117699623, -0.5898151397705078, -0.6710209846496582, -0.1628854125738144, 0.4698394238948822, -0.6285988092422485, -0.7910630702972412, 0.0783180370926857, 0.1715567708015442, 0.7169023156166077, -0.64366215467453, 0.042154788970947266, -0.20278240740299225, 0.14512239396572113, -0.42236509919166565, 0.3729349374771118, 0.21227595210075378, 0.3501911759376526, 0.22368089854717255, 0.16649828851222992, -0.5339059829711914, 0.29182520508766174, 0.592901885509491, 0.5761539936065674, -0.06604062765836716, 0.14562638103961945, -0.056910086423158646, -0.47295162081718445, 0.0153913339599967, 0.18164554238319397, -0.23664475977420807, -0.1430283784866333, -0.25208356976509094, -0.26209989190101624, -0.6263940930366516, -0.5695160627365112, -0.31717002391815186, -0.6734868288040161, -0.31131523847579956, 0.2455381453037262, -0.15528999269008636, 0.2606126070022583, -0.07583000510931015, -0.19463416934013367, -1.2428783178329468, -0.019063685089349747, -0.8019566535949707, -0.6223428249359131, 0.34461572766304016, 0.41054877638816833, -0.9679945111274719, -0.7073183655738831, -0.5788116455078125, -0.11247122287750244, -0.9410436153411865, -0.058122966438531876, 0.218250572681427, 0.3779516816139221, -1.6227688789367676, -0.5835141539573669, -0.05303329601883888, 0.0846533477306366, -0.2017066478729248, 0.09509406238794327, 0.23663701117038727, -0.2531602084636688, -0.41604673862457275, -0.6650946736335754, 0.21463148295879364, -0.26027175784111023, -0.7611920833587646, -0.8413087129592896, -0.3213295638561249, 0.02319144830107689, -0.38731446862220764, -0.988895833492279, 0.0942891538143158, 0.3481310307979584, -0.39229732751846313, -0.11062348634004593, -0.479072242975235, -0.8328888416290283, 0.014103696681559086, -0.1880079209804535, 0.03571868687868118, -0.5894342660903931, 0.003685567993670702, -0.11533880233764648, -0.07558741420507431, -0.6279163956642151, -0.3914262056350708, 0.5150721073150635, -0.1948925256729126, -0.6522773504257202, -0.3069000840187073, 0.04163093864917755, -0.5439766049385071, 0.6865688562393188, -0.7027677893638611, 0.2395285964012146, -0.8869973421096802, -1.0744824409484863, -0.29597440361976624, 0.13786906003952026, 0.6719246506690979, 0.4790542721748352, 0.6784626245498657, -0.6399028897285461, -0.33997857570648193, -0.02233073115348816, 0.2786821722984314, 0.3720538318157196, -0.3174658417701721, -0.2986125648021698, -0.3118467926979065, -0.6594358086585999, 0.03080570697784424], [1.1492632627487183, 0.05646643415093422, -0.17117083072662354, 0.4851147532463074, 0.6320062279701233, 0.8884978294372559, 0.17991310358047485, -0.6673448085784912, -0.956061601638794, 0.5658252835273743, 0.0923910140991211, -0.11891297996044159, -0.1369093656539917, 0.05753188580274582, 0.5175980925559998, -0.446100652217865, -0.23584677278995514, -0.9465523362159729, 0.13658057153224945, -1.7143123149871826, -0.1718694567680359, 0.22800981998443604, -0.1761241853237152, -0.9484869837760925, -0.735573947429657, 0.5646751523017883, 0.30821800231933594, 0.42412424087524414, -0.17167553305625916, 0.07841817289590836, -0.34162989258766174, -0.9512536525726318, -0.4377900958061218, 0.6831450462341309, 0.33647429943084717, 0.49416834115982056, -0.3298804759979248, -0.7484096884727478, 0.1687563806772232, -1.776921272277832, 0.2828298807144165, 0.4274391233921051, -0.3148432970046997, 0.35272255539894104, 0.1371464878320694, -0.3899095952510834, 0.5316680669784546, -0.18501920998096466, -0.43092072010040283, 0.4866984486579895, 0.160230815410614, -0.5750107765197754, 0.20218713581562042, 1.454080581665039, -0.03567038103938103, -0.9043158292770386, 0.6586393713951111, 0.07848135381937027, -1.2762686014175415, 0.30494746565818787, -0.6033954620361328, 0.12299707531929016, 0.08726442605257034, -0.02551824040710926, -0.28000563383102417, 0.50422602891922, 0.4661542773246765, 0.12958228588104248, -0.47821223735809326, -0.4077081084251404, 0.27101263403892517, 0.4914642870426178, -0.6712594628334045, -0.1345221996307373, -0.8352526426315308, -0.3786536157131195, 0.5652139782905579, -0.3646525740623474, -0.6109210252761841, -0.044163987040519714, -0.07649041712284088, -0.028636688366532326, -0.3861939311027527, -0.5507269501686096, 0.025603994727134705, -0.4274343252182007, -0.2654401361942291, 0.3481874167919159, -1.0631258487701416, 0.2583885192871094, -0.5366290211677551, -0.30339038372039795, 0.5106525421142578, -0.8529298901557922, -1.7629133462905884, -0.22355999052524567, 0.05116751417517662, -0.26986801624298096, -0.04795632138848305, 0.1402803510427475, -0.03927703946828842, 0.3402222692966461, -0.14949972927570343, 0.195490300655365, 0.16479599475860596, 0.20950934290885925, -0.017203314229846, -0.5945930480957031, -0.6935383677482605, 0.2317066192626953, -0.6427212357521057, 0.12463193386793137, 0.38678500056266785, -0.1682087630033493, -0.7858486175537109, -0.19152672588825226, -0.3194665312767029, 0.35378968715667725, 0.2215859740972519, -0.35364654660224915, 0.6159403324127197, 0.5345964431762695, -1.0303115844726562, 0.39521127939224243, -0.12666697800159454, -0.14603674411773682, -0.030842700973153114, -0.02792125940322876, 0.2959956228733063, -0.20205701887607574, 0.3086041212081909, 0.3069148361682892, 0.7214592099189758, -0.29925286769866943, -0.3061463534832001, 0.5655158758163452, -0.4341440200805664, 0.3320508599281311, -0.7846858501434326, -0.08553333580493927, 0.313332200050354, -0.48894429206848145, 0.135105699300766, 0.20110076665878296, -0.14444862306118011, -0.5977650284767151, -0.5687435269355774, -0.7998654246330261, 0.45406675338745117, -0.4184795022010803, -0.16804154217243195, -0.7609091401100159, -0.007839077152311802, 0.2672306001186371, 0.029775576665997505, -0.3516902029514313, 0.3035377860069275, -0.14905667304992676, -0.21113310754299164, -0.42317596077919006, 0.75140780210495, -0.015909895300865173, -0.1722394824028015, 0.5534823536872864, -0.5678727626800537, 0.2315516620874405, -1.5676109790802002, 0.2458660751581192, 0.319933146238327, -0.5732982754707336, -0.8261703252792358, -0.35667866468429565, 0.2549745738506317, -1.3677165508270264, -0.5816181898117065, -0.15788450837135315, -0.25957876443862915, 0.07066469639539719, -0.5061625838279724, 0.23389658331871033, 0.7001866102218628, 0.1671551913022995, -0.152951180934906, -0.05419221147894859, 0.012599409557878971, 0.011904727667570114, 0.10942855477333069, 0.032905228435993195, 0.03819028660655022, -1.312475323677063, 0.5164260864257812, -0.31215816736221313, -0.31969842314720154, 0.167547345161438, 0.1623288244009018, 0.4446445107460022, 0.4113803207874298, 0.03595414385199547], [-0.2832052409648895, 0.1730736345052719, -0.28249767422676086, -0.41671180725097656, 0.1163439229130745, 0.31649917364120483, 0.5908907055854797, 0.46379223465919495, -0.4066024124622345, 0.5668431520462036, 0.04047149047255516, -0.4645584225654602, -1.1246322393417358, -0.1361512541770935, -0.6479513645172119, -0.18316493928432465, -0.5580788850784302, 0.15277697145938873, 0.3279217481613159, -0.20621520280838013, -0.3587498366832733, 0.44777634739875793, -0.4301883280277252, -0.3846442401409149, -0.28439393639564514, -0.09853009879589081, 0.48780497908592224, -0.1248709037899971, 0.3792973458766937, -0.06681876629590988, -0.4896828532218933, -0.3245345950126648, -0.5748482346534729, -0.6747021675109863, 0.07027794420719147, 0.237416073679924, -0.2270970344543457, 0.8178860545158386, 0.8291059732437134, -0.7097856998443604, -0.7799767255783081, -0.479766309261322, -0.7706449627876282, 0.3308067321777344, -0.41740351915359497, 0.5473971962928772, -0.27161097526550293, 0.2862459421157837, -0.3982107639312744, -0.6888360977172852, -1.3054057359695435, 0.124201200902462, -0.035435181111097336, -0.12106435000896454, 0.21644142270088196, -0.4759630858898163, 0.05330321565270424, 0.09918852150440216, -0.4589485824108124, -1.0669662952423096, 0.15094754099845886, 0.6929831504821777, -0.6003140807151794, -0.2373642772436142, -0.803945004940033, -0.17185772955417633, -0.027337318286299706, -0.09703329205513, -0.198542058467865, 0.14228543639183044, -0.13549606502056122, -1.5193085670471191, 0.21304918825626373, 0.2636930048465729, -0.33681461215019226, 0.41316482424736023, 0.4646640419960022, -0.43794623017311096, -0.32453393936157227, -1.0449202060699463, 0.5291541814804077, 0.19307422637939453, -0.7952723503112793, 0.8244026303291321, 0.8822528719902039, -0.10523900389671326, -0.2951231598854065, 0.1658649891614914, -0.7729215025901794, -0.38708266615867615, -0.3994492292404175, 0.38495251536369324, 0.8957565426826477, -0.6069475412368774, 0.2609824538230896, -1.2687749862670898, 0.3262062072753906, -0.31381955742836, 0.131291002035141, 0.5973680019378662, 1.0943645238876343, 0.29742759466171265, 0.4516519606113434, 0.6471544504165649, 0.8966119885444641, -1.018794298171997, 0.4518701136112213, 0.09848549216985703, -0.33427610993385315, 0.021642841398715973, 0.339363694190979, 0.430520236492157, -0.30550041794776917, -0.9433485269546509, 1.0476176738739014, 0.26077964901924133, 0.564801812171936, 0.029267361387610435, -0.41385766863822937, 0.1326621025800705, 0.16025395691394806, -0.12411145865917206, 0.14118215441703796, -0.511246919631958, -0.8939881324768066, -0.8206567764282227, -0.03771534189581871, 0.5253558158874512, -0.3684331774711609, -1.0251597166061401, 0.3491884171962738, -0.3564935624599457, 0.2357967048883438, -0.26412472128868103, -1.0196346044540405, -0.5549631714820862, -0.12404070794582367, -0.1958240121603012, -0.3656146824359894, 1.1873294115066528, -0.5154736638069153, 0.4020508825778961, -0.059602417051792145, -0.22493524849414825, 0.06365425139665604, -0.25217196345329285, 0.4352610409259796, 0.6004368662834167, 0.5317153334617615, 0.007566660642623901, -0.8337551951408386, -0.3906278610229492, -0.04776427894830704, 0.16690978407859802, -0.7124002575874329, -0.7721036076545715, 0.20782391726970673, 0.472838431596756, -0.29395791888237, -0.7287144064903259, 0.3291395604610443, 0.1371338814496994, -0.8149777054786682, -0.3447069823741913, 0.36204662919044495, -0.02127954736351967, -1.3246243000030518, -0.5134039521217346, -0.380447119474411, -0.6639880537986755, 0.6280145049095154, -0.7425593137741089, -0.33174917101860046, -0.048977237194776535, -0.7309953570365906, -0.010669548995792866, 0.296191543340683, 0.6213347315788269, 0.136367529630661, 0.8271365761756897, -0.33000096678733826, -0.2699187099933624, -0.8944646120071411, 0.5469292402267456, -0.23469211161136627, 0.1953178346157074, -0.115137979388237, -0.8429920077323914, 0.5267192721366882, 0.4460138976573944, -0.2193838208913803, 0.30483749508857727, -0.18702270090579987, -0.6522078514099121, 0.35279393196105957, 0.9037822484970093, -0.03190649300813675, 0.5296322107315063], [0.1779714971780777, 0.26329755783081055, -0.008428744040429592, -0.07973939180374146, 0.07614511251449585, -0.011065171100199223, -0.6282848715782166, 0.6885644793510437, 0.8816072344779968, -0.03715996444225311, 0.30629560351371765, -0.1910441815853119, -0.057735852897167206, -0.4981238842010498, 0.13738539814949036, 0.03997262567281723, -1.1175031661987305, -0.4582408368587494, -0.04732769355177879, 0.11315583437681198, -0.28759992122650146, -0.1841067522764206, -0.1058855801820755, -0.12083517760038376, -0.6907141804695129, 0.7587414979934692, 0.10385486483573914, 0.5267846584320068, 0.06823058426380157, -0.6405977606773376, -0.20250390470027924, 0.603533148765564, -0.22006431221961975, -0.1593472808599472, 0.1836395412683487, -0.5970272421836853, 0.8470409512519836, 0.6015691161155701, -0.11619029939174652, 0.23330627381801605, 0.19554157555103302, -0.3770802915096283, 0.06831936538219452, 0.08983360975980759, 0.2671588659286499, -0.5312196612358093, 0.3462396562099457, 0.3929609954357147, 0.39285674691200256, -0.23512355983257294, 0.6385287046432495, -0.32094869017601013, -0.10030863434076309, 0.188522607088089, 0.07274352014064789, 0.13626667857170105, 0.04996805638074875, -0.7411584854125977, -0.0686071589589119, -0.521474301815033, -0.42030268907546997, -0.6464160084724426, 0.06469408422708511, 0.1349961906671524, 0.22345185279846191, 0.2732877731323242, 0.09297642856836319, 0.3065676689147949, 0.25147244334220886, -0.06734484434127808, -0.4063838720321655, -0.41250795125961304, 0.4299391806125641, 0.24152658879756927, -0.4675103425979614, 0.49759915471076965, 0.38162761926651, 0.05288569629192352, -0.042481303215026855, -0.13715311884880066, 0.043148674070835114, 0.014195016585290432, -0.13108086585998535, -0.6679760813713074, 0.23151971399784088, -0.7947437167167664, -0.35361212491989136, -0.5355722308158875, -0.4689972698688507, 0.19236735999584198, 0.6626980304718018, 0.3727740943431854, 0.21466296911239624, -0.6303026676177979, -0.6692809462547302, -0.2270917296409607, -0.40539535880088806, 0.09292557835578918, 0.4100399315357208, 0.571099042892456, 0.07925419509410858, 0.039970513433218, -0.16919590532779694, 0.2948763072490692, 0.33271706104278564, -0.18635506927967072, -0.8092301487922668, -0.1803920865058899, 0.4109686613082886, -1.0662360191345215, 0.18700934946537018, 0.5157453417778015, -0.11539362370967865, 0.3374224603176117, 0.06385301798582077, -0.5936200022697449, -0.16910643875598907, 0.09033603966236115, -0.31856316328048706, 0.1479984074831009, 0.42693570256233215, 0.06162351742386818, -0.353493869304657, 0.3823539912700653, 0.5168209075927734, 0.47290706634521484, 0.16995665431022644, 0.16395367681980133, 0.5431163907051086, 0.256215900182724, -0.20823897421360016, -0.9306559562683105, -0.23302406072616577, -0.04171158745884895, 0.38256675004959106, 0.3163340091705322, -0.12215247750282288, 0.1425894945859909, 0.17663104832172394, 0.23396776616573334, -0.04461761191487312, -0.5024259686470032, -0.43463134765625, -0.30097654461860657, 0.38259199261665344, -0.06703779101371765, 0.3014053404331207, -0.895537793636322, -0.4827287495136261, -0.017726868391036987, -0.1960616558790207, -0.170098215341568, -0.5890659093856812, 0.0015167748788371682, -0.22256140410900116, 0.33826521039009094, -0.0421663299202919, 0.2588290870189667, -0.29317519068717957, -0.11631035804748535, 0.19533786177635193, 0.3439564108848572, -0.5930666923522949, 0.21559052169322968, -0.12186102569103241, 0.2806222140789032, 0.05934952571988106, 0.2632705569267273, 0.34551793336868286, 0.3851913809776306, -0.6916255950927734, -0.1436779797077179, 0.990464448928833, -0.001695198006927967, -0.5060860514640808, 0.36337384581565857, 0.5779368281364441, -0.6806607842445374, -0.17645668983459473, 0.5515193939208984, -0.4607377052307129, -0.3308175206184387, -0.9596540927886963, -0.3274405896663666, -0.40983426570892334, -0.07805617153644562, -0.2605845630168915, -0.32642605900764465, -1.1858659982681274, -0.30872344970703125, 0.7662652730941772, 0.1466490626335144, 0.09622952342033386, 0.18359529972076416, 0.2573498487472534, 0.6703550219535828, -0.17745579779148102, -0.11795613914728165], [-0.9096888303756714, -0.38514596223831177, 0.37260934710502625, 0.21814605593681335, -0.9298746585845947, 0.42563214898109436, 0.091188445687294, -0.7148754596710205, -0.10719075053930283, -0.024098316207528114, 0.19464293122291565, -0.053235433995723724, 1.038266897201538, 0.1964631825685501, -0.1802985966205597, 0.7998109459877014, 0.37598663568496704, -0.5701419711112976, -0.1792071908712387, -0.9682012796401978, 0.11177840083837509, -0.07953453063964844, 0.9496556520462036, 0.695919394493103, -0.24294251203536987, -0.9672579765319824, -0.5708256363868713, 0.08064856380224228, 0.31846362352371216, -0.0597074069082737, 0.4839092493057251, 0.24761666357517242, -0.010468807071447372, 0.30502304434776306, -0.8867563009262085, -0.2870326638221741, 0.4574183523654938, -0.7129359245300293, 0.5704008936882019, -0.16945424675941467, -0.4038744568824768, 0.05479031056165695, 0.3302551805973053, -0.42921876907348633, -0.21451465785503387, -0.49960488080978394, -0.530012845993042, -0.20064976811408997, 0.32880330085754395, 0.7390670776367188, 0.32616451382637024, -0.3255904018878937, 0.6093429327011108, 0.7144795656204224, -0.43330270051956177, 0.03579195588827133, -0.12539024651050568, -0.8279944062232971, -0.6046838164329529, 0.011326279491186142, 0.08704020082950592, -0.2625752091407776, -0.3598654568195343, -0.5596364140510559, 0.7123168110847473, -0.2782302796840668, -0.891024112701416, 0.613357663154602, 0.5995245575904846, -0.9500619769096375, -0.8728585839271545, -0.7067757844924927, -0.1427912712097168, -0.7839806079864502, 0.17098461091518402, 0.14992348849773407, 0.5015386343002319, 0.39947509765625, -0.8762961030006409, 0.22928254306316376, 0.7624137997627258, -0.31032082438468933, -0.5225195288658142, 0.6247153282165527, 0.5398381948471069, 0.6620772480964661, 0.0712437704205513, 0.07219956070184708, -0.20717857778072357, -0.2654556334018707, 0.34586647152900696, 0.13741172850131989, -0.44895806908607483, 0.08968222141265869, -0.06972698867321014, -0.03632812201976776, 0.9509624242782593, -0.8779025077819824, 0.1320093870162964, -0.8643538951873779, -0.201205775141716, 0.6265943050384521, 0.8456330299377441, -0.9932166934013367, 0.45263612270355225, 0.16311752796173096, 0.6010303497314453, 0.6930125951766968, 0.07408500462770462, 0.08463701605796814, 0.13477030396461487, -0.19030264019966125, -0.3492700159549713, 0.34262755513191223, 0.08541808277368546, -0.12129286676645279, 0.10756897181272507, -1.7076302766799927, 0.2240462601184845, -0.6351572275161743, -0.3646387457847595, -0.0795421302318573, -0.8725271224975586, 0.36487865447998047, -0.49817055463790894, 0.15179568529129028, 0.06336196511983871, 0.07098390907049179, -0.1904066652059555, -0.6951253414154053, 0.12767763435840607, 0.8570197820663452, -0.16233399510383606, -0.4423009753227234, -0.4825366735458374, -0.10306475311517715, 0.663664698600769, -0.09687898308038712, 0.021115105599164963, -0.03897041827440262, 1.02064049243927, -0.6350772380828857, -0.4295266270637512, -0.3836110234260559, -1.4546046257019043, 0.5331971049308777, -0.42874518036842346, 0.6910108923912048, 0.18985570967197418, 0.22437584400177002, -0.41629937291145325, -0.021629206836223602, -0.07357282936573029, 0.0421462282538414, 0.1554744839668274, -0.5889244675636292, -0.4081401526927948, -0.1583012044429779, -0.4375954270362854, -0.7079769968986511, -0.11377783864736557, 0.4448044002056122, -0.4784954786300659, -0.06266827881336212, 0.8742096424102783, -0.23688490688800812, 0.4714325964450836, -0.03828558325767517, 0.29599717259407043, -0.3487408757209778, -0.2845452129840851, 0.20537297427654266, -0.09899785369634628, -0.10935041308403015, 0.07130593061447144, -0.7899640202522278, 0.5319733619689941, -0.029747076332569122, -0.1732642948627472, 0.06453297287225723, -0.6554706692695618, -0.34057843685150146, -0.4625827372074127, 0.13680975139141083, 0.17218561470508575, -1.3283096551895142, 0.425184428691864, 0.8492911458015442, -0.9168164134025574, 0.06540936976671219, 0.6367223858833313, -0.47350287437438965, -0.1747942715883255, -0.27031537890434265, 0.2594623863697052, -0.08302466571331024, 0.6326687335968018, -0.39133888483047485], [-0.04874603822827339, -1.1098241806030273, 0.3910254240036011, 0.19220644235610962, 0.56025630235672, 0.15241475403308868, -1.1139764785766602, 0.171626016497612, -0.9978602528572083, 0.041712284088134766, -0.07767031341791153, -0.06302227079868317, 0.14163616299629211, -0.25462085008621216, 0.20075497031211853, -0.2996601462364197, -1.020073652267456, -0.22168371081352234, 0.02120322547852993, 0.42553508281707764, 0.5579389929771423, 0.16021442413330078, -0.5217428803443909, 0.11578436940908432, 0.07345825433731079, -0.10094644129276276, 0.719662070274353, 0.04552328214049339, -0.6887272000312805, -0.09784999489784241, 0.24636895954608917, 0.34288591146469116, 0.35949453711509705, 0.26977264881134033, 0.35713937878608704, -0.6383426785469055, -1.4638937711715698, 0.407220721244812, 0.28363147377967834, 0.3235565721988678, 0.8398280143737793, -0.6983940005302429, -0.33660954236984253, 0.058861833065748215, 0.5760907530784607, 0.16874490678310394, -0.9818456768989563, 0.45618736743927, -0.32539230585098267, 0.2007865309715271, 0.025100188329815865, -0.34505778551101685, -0.36836937069892883, 0.6513617038726807, -0.1953120231628418, -0.5825928449630737, -0.03877095505595207, 0.6094508767127991, -0.03409300744533539, -0.04330682381987572, 6.472937093349174e-05, 0.05332830920815468, -0.07660720497369766, -0.9502267837524414, -0.052347760647535324, 0.5566850900650024, 0.14516763389110565, 0.9450473189353943, -0.31069961190223694, -0.27247297763824463, 0.49881625175476074, 0.16040021181106567, 0.16772031784057617, -0.09914059937000275, -0.02865440957248211, -0.14375431835651398, 0.3474441170692444, 0.06648029386997223, 0.12511487305164337, -0.6908476948738098, 0.4596189558506012, -0.050154343247413635, -1.585530400276184, -0.8964977860450745, 0.279007226228714, -0.09202610701322556, 0.050858285278081894, 0.10815828293561935, 0.11757566034793854, 0.225917249917984, -0.5623354315757751, 0.3944145739078522, 0.3215930163860321, 0.1766308695077896, 0.5967305302619934, -0.30583712458610535, -0.035206206142902374, -0.27278953790664673, -0.4396727383136749, -1.1257017850875854, -0.14641405642032623, 0.15596327185630798, -0.2293054461479187, 0.3434297740459442, 0.6340339183807373, 0.18279364705085754, -0.8817211985588074, 0.3392535448074341, -0.6654743552207947, 0.2287144958972931, -0.4315803647041321, -0.3076585531234741, 0.4697405993938446, -0.6837871670722961, 0.09320522099733353, 0.27671730518341064, 0.3136838972568512, -0.012745896354317665, 0.9979661703109741, 0.10824762284755707, -0.24538812041282654, 0.14132970571517944, 0.7412477135658264, -0.22081983089447021, -0.5303375720977783, -0.4337206184864044, -0.7674757242202759, 0.07385873049497604, -0.27178096771240234, 0.4154706299304962, -0.03838003799319267, 0.4407072365283966, 0.9702835083007812, 0.31469738483428955, -0.29956886172294617, 0.39713504910469055, 0.6257175803184509, -0.5856172442436218, 0.025770703330636024, 0.600701093673706, -0.07967895269393921, 0.5295823216438293, -0.5302240252494812, -0.13136662542819977, 0.0054251463152468204, 0.04452718049287796, -0.2559005618095398, -0.7557606101036072, 0.37058496475219727, 0.2535374164581299, 0.533544659614563, 0.10007638484239578, 0.17148494720458984, -0.010478608310222626, -0.8401846885681152, -0.11192524433135986, 0.6403388977050781, 0.02262106165289879, -1.5289666652679443, -0.37327200174331665, -0.2672156095504761, 0.8124882578849792, -0.18047277629375458, -0.2856028974056244, 0.10723389685153961, 0.28136348724365234, -0.36829668283462524, -1.054834008216858, -0.239568293094635, 0.2168736457824707, 0.23891042172908783, -0.3979172110557556, -0.44746077060699463, -0.9497799873352051, -0.7767131328582764, -0.05890659615397453, 0.2753763496875763, -0.5438960790634155, -0.12177698314189911, -0.2826269865036011, -0.3138480484485626, -0.6095606684684753, 0.011005416512489319, -0.3314466178417206, 0.1504284143447876, 0.7169304490089417, 0.23513638973236084, -0.2662709355354309, -0.4799026846885681, -0.45328372716903687, -0.4146026372909546, -0.6154985427856445, -0.8562164902687073, 0.03244364261627197, 0.2563900053501129, -0.8255597949028015, -0.18456482887268066, -0.28359127044677734], [0.4788745045661926, 0.5176700353622437, -0.5591722726821899, -0.5228975415229797, 0.05103958398103714, 0.12499305605888367, 0.24185021221637726, -0.3529050052165985, 0.11735142022371292, -0.2180299013853073, -0.17628300189971924, 0.2963399589061737, -0.012761424295604229, -0.31527721881866455, -0.26293304562568665, 0.13747334480285645, -0.42004668712615967, -0.6219974756240845, -0.3631918728351593, 0.3266528248786926, -0.009520125575363636, -0.7123379707336426, 0.38955754041671753, 0.0030560370068997145, -0.004244353622198105, -0.31476736068725586, 0.24098049104213715, -0.06976877897977829, 0.6081719398498535, -0.12729144096374512, -0.46370798349380493, -0.11930066347122192, -0.3446018695831299, 0.038838356733322144, 0.20717884600162506, -0.06436286866664886, 0.46328726410865784, -0.7338090538978577, 0.0949518010020256, 0.05190729722380638, -0.41964879631996155, -0.04122317209839821, -0.5376778244972229, -0.18719550967216492, -1.2223392724990845, 0.3014620840549469, 0.36146658658981323, 0.25899359583854675, 0.3164874017238617, -0.2632012665271759, 0.37025532126426697, 0.6957098841667175, 0.33029866218566895, 0.35670027136802673, -0.2404414862394333, 0.3523930013179779, -0.46394720673561096, -0.7435148358345032, 0.42509737610816956, 0.7637436985969543, 0.3345516324043274, 0.32310381531715393, -0.6061016917228699, -0.22982071340084076, -0.6737397313117981, 0.26437273621559143, 0.5129058361053467, 0.4895983934402466, 0.3823816180229187, -0.31804683804512024, 0.21201089024543762, 0.08814270049333572, 0.7497967481613159, 0.20475980639457703, 0.5448363423347473, 0.18806037306785583, 0.46040186285972595, -0.5751493573188782, -0.4414408206939697, 0.42344051599502563, 0.43614137172698975, -0.2618345022201538, 0.2687807083129883, -0.5433313846588135, 0.35235795378685, 0.08037412911653519, -0.30901846289634705, -0.12426633387804031, 0.35555192828178406, 0.7947810888290405, 0.048310570418834686, 0.20559465885162354, 0.42139214277267456, 0.002609354443848133, -0.3259524703025818, -1.0779638290405273, 0.26418283581733704, -1.7716951370239258, -0.20698736608028412, -0.7413488030433655, 0.09946742653846741, 0.41069501638412476, -0.34791329503059387, -0.1508013904094696, -0.26014822721481323, 0.2990432381629944, 0.055594440549612045, 0.09584922343492508, -0.3840426802635193, 0.324366956949234, -0.09501050412654877, -1.0774164199829102, 0.2554962635040283, -0.17678093910217285, -0.3401954770088196, 0.10904203355312347, 0.29560360312461853, -0.6489699482917786, 0.3118877410888672, -0.43238261342048645, -0.0004953463794663548, 0.08921762555837631, 0.07089877128601074, -0.008538151159882545, -0.19719484448432922, -0.6888028979301453, -0.4643707275390625, 0.014839564450085163, 0.015209371224045753, -0.3702911138534546, 0.08300647884607315, 0.0820981040596962, -0.7909064292907715, -0.6600565314292908, 0.44208434224128723, 0.22959083318710327, 0.017902299761772156, 0.42426034808158875, -0.47711673378944397, 0.32672420144081116, 0.479744017124176, 0.7379874587059021, 0.3891547918319702, 0.3167831003665924, 0.6499744653701782, 0.13715890049934387, -0.4048760235309601, 0.14960813522338867, -0.27619999647140503, -0.2492382824420929, -0.39417076110839844, 0.179631769657135, -0.3021133244037628, 0.07663118094205856, 0.10355371981859207, -0.04469618946313858, 0.5413597822189331, -0.057671889662742615, 0.1302672177553177, -0.01932959072291851, -0.0647270530462265, -0.5833789706230164, -0.6013051867485046, 0.14167040586471558, 0.22068916261196136, 0.9073295593261719, -0.08857577294111252, -0.781002938747406, 0.2341860830783844, 0.09429734945297241, 0.3299526274204254, 0.1371779441833496, 0.0245157852768898, 0.48155462741851807, -0.06698060035705566, -0.0071225897409021854, 0.014360097236931324, 0.039401836693286896, -0.15282993018627167, -0.3993217945098877, -0.9400272369384766, 0.46314701437950134, 0.6443219184875488, -0.7434752583503723, 0.40682440996170044, -0.21262194216251373, -0.15837901830673218, -0.2060750275850296, 0.12907202541828156, -0.7409422397613525, 0.37220555543899536, -0.485541969537735, -1.0287156105041504, -0.4309280812740326, 0.4185602068901062, -0.6087127327919006, 0.08431190997362137, -0.14574070274829865], [-0.5390031933784485, -0.4270077049732208, 0.6310020685195923, 0.017418095842003822, -0.7433760762214661, 0.0066404808312654495, -0.23684698343276978, 0.3182138204574585, -0.3698071539402008, 0.2990371882915497, -1.4353537559509277, 0.09063592553138733, -0.42058277130126953, 0.07976566255092621, -0.8551400303840637, -0.46862003207206726, -0.21088992059230804, -0.31052812933921814, 0.50697922706604, -0.009363696910440922, -0.35648638010025024, -0.5149920582771301, -0.6031463742256165, -0.799945592880249, -0.22616969048976898, 0.10543553531169891, 0.09869136661291122, 0.025865454226732254, -0.18228743970394135, 0.49044039845466614, 0.3836840093135834, 0.4748009443283081, -0.3784865438938141, -0.2188885360956192, 0.3150140345096588, -1.1631113290786743, -1.1689165830612183, 0.011618244461715221, 0.1110413447022438, -0.1737455129623413, 0.26369932293891907, -0.1991269290447235, 0.256415992975235, 0.07327798008918762, -0.1013922169804573, 0.2777624726295471, 0.41033974289894104, -0.10137702524662018, 0.35067471861839294, 0.3327663242816925, -0.3653470277786255, 0.23980499804019928, 0.6236070394515991, 0.6192017793655396, 0.4245982766151428, -0.5355612635612488, -0.17761027812957764, -0.20235848426818848, -0.20963720977306366, -0.5118614435195923, -0.7415923476219177, 0.15239734947681427, -0.528495728969574, 0.3329150676727295, -1.2919576168060303, -0.4557575285434723, -0.5356197357177734, 0.1961321085691452, -0.096188984811306, -0.15882058441638947, -1.4469776153564453, 0.17478249967098236, 0.29982611536979675, -0.10760266333818436, -0.06666131317615509, -0.25340405106544495, -0.2799941301345825, -0.006223407573997974, 0.006410649046301842, -0.9822179079055786, -1.0047777891159058, 0.6326701045036316, 0.0791693702340126, 0.16807131469249725, 0.734116792678833, -0.21803441643714905, -0.5449067950248718, 0.026733694598078728, 0.21258319914340973, -0.334977924823761, 0.13386014103889465, -0.14778663218021393, 0.054333802312612534, 0.547580361366272, 0.08964574337005615, -0.3042313754558563, 0.21543942391872406, 0.22495944797992706, 0.43615618348121643, 0.2055056244134903, -0.3429540991783142, -0.25122201442718506, 0.8040356636047363, 0.41153502464294434, -0.06647686660289764, -0.43583908677101135, -0.5683788657188416, -0.7663413882255554, -1.2103605270385742, -0.3365149199962616, -0.6327953934669495, -0.3143294155597687, 0.4365013539791107, -0.3440610468387604, -0.42359858751296997, -0.377972275018692, 0.268953412771225, 0.6418711543083191, -0.28001636266708374, -0.3991759419441223, 0.112230584025383, 0.19146402180194855, -0.051936183124780655, 0.5179244875907898, -0.012512167915701866, -0.5009889006614685, -0.15713393688201904, 0.009510855190455914, 0.4166620969772339, -0.05866677686572075, 0.07736457139253616, 0.002847642870619893, 0.5630528330802917, -0.1087404116988182, -0.07565300911664963, -0.4399106204509735, 0.2967135012149811, -0.21995823085308075, -1.1315287351608276, -0.053647857159376144, -0.415538489818573, 0.005727865733206272, 0.5923012495040894, -0.2702837884426117, -0.01984257809817791, 0.20188234746456146, -0.48247113823890686, 0.09677959978580475, -0.20031319558620453, -0.3071436583995819, -0.7748503088951111, -0.25592532753944397, 0.02524515986442566, -0.14931537210941315, 0.47627100348472595, -0.45671403408050537, -0.9583554863929749, 0.13019602000713348, -0.20517678558826447, 0.18736805021762848, -0.6264860033988953, 0.3101266920566559, 0.33393487334251404, 0.40642765164375305, 0.4393129050731659, 0.0639241635799408, 0.42701879143714905, -0.40830305218696594, -0.2401447296142578, 0.35118481516838074, -0.24750299751758575, -0.39209142327308655, -0.07922301441431046, -0.24397601187229156, -0.23212045431137085, -0.3007679879665375, -0.3848286271095276, -0.5928648710250854, 0.26451045274734497, -0.24343368411064148, 0.4544062316417694, 0.16517017781734467, -0.19650426506996155, -0.0876779779791832, 0.287601113319397, 0.07390110194683075, -0.4338148832321167, 0.9134857058525085, -0.1914682686328888, -0.4118015468120575, 0.052496761083602905, 0.37949520349502563, -0.14470098912715912, -0.31042274832725525, -0.355199933052063, 0.012939432635903358, -0.16927102208137512, -0.3582889139652252], [0.5128679275512695, -0.3241116404533386, 0.9457521438598633, 0.15233279764652252, 0.3331303894519806, 0.3729373812675476, -0.5123239159584045, 0.3976847231388092, -0.12643736600875854, -0.6453494429588318, 0.2493593841791153, -0.7814027070999146, 0.022335907444357872, 0.4907892048358917, 0.12463124841451645, 0.25731971859931946, -0.44506528973579407, -0.6299284100532532, 0.2148652821779251, -0.4576188325881958, -1.075326919555664, 0.33965548872947693, -0.06597860157489777, -0.06369878351688385, 0.04508405923843384, 0.013086153194308281, 0.6157827377319336, -0.4207319915294647, 0.2179621309041977, 0.6301512122154236, 0.023585570976138115, -0.33253464102745056, -0.06731623411178589, 0.3483639657497406, -0.2587895691394806, 0.7015274167060852, 0.2943805754184723, 0.4085061252117157, -0.2899179458618164, 0.01538355927914381, 0.24548862874507904, 0.6171662211418152, -0.7556477189064026, -0.21004050970077515, -0.945779025554657, -0.6911434531211853, -0.10909050703048706, -0.033392537385225296, 0.24190151691436768, 0.1588122695684433, -0.29178082942962646, -0.271549791097641, -0.41595956683158875, -0.0987568274140358, -0.26904600858688354, -0.10035944730043411, -0.5602936148643494, -0.18688665330410004, -0.3775743842124939, -0.11266784369945526, -0.019645879045128822, -0.03983262553811073, -0.49988508224487305, -0.016026485711336136, -0.2781321406364441, -0.15262854099273682, 0.14078563451766968, 0.5766629576683044, -0.04699145630002022, -0.07595743983983994, -0.3719617426395416, 0.32742372155189514, -0.3352634012699127, 0.06277406960725784, 0.3020269274711609, 0.14806011319160461, -0.6790413856506348, 0.04179302603006363, -1.2490079402923584, -0.050439681857824326, -0.015705624595284462, 0.07657328248023987, -0.2273021638393402, -0.5819278359413147, 0.6454905271530151, -0.23456892371177673, -0.6068736910820007, -0.06512200832366943, -0.09177862107753754, 0.19416502118110657, -0.6455393433570862, -0.09960625320672989, -0.3275509476661682, -0.7314814925193787, -0.03541296720504761, 0.2727798521518707, -0.0704677551984787, -0.5954427719116211, 0.21471869945526123, -1.1073057651519775, -0.07153723388910294, 0.23497402667999268, -0.26780080795288086, -0.305826336145401, -0.2692488729953766, -0.4525161683559418, 0.17332124710083008, -0.1650625765323639, -0.06270410120487213, -0.7047025561332703, -0.8416116237640381, 0.2444433718919754, 0.16270440816879272, -0.35473424196243286, 0.2720066010951996, 0.23248453438282013, 0.15612003207206726, 0.04086151719093323, 0.5349775552749634, 0.1339590847492218, -0.07722323387861252, -0.43700867891311646, 0.05400305241346359, -0.46939632296562195, -0.204712375998497, -0.0988074243068695, -0.23708321154117584, 0.2169964462518692, 0.11699308454990387, 0.16768096387386322, 0.07162883877754211, -0.4205738604068756, -0.09635771065950394, 0.1485428512096405, -0.028376290574669838, -0.28389689326286316, -0.07648374140262604, 0.3643561601638794, 0.006394105963408947, 0.051569461822509766, -0.566994309425354, -0.7408705949783325, -0.7634008526802063, 0.05224861577153206, 0.08307243883609772, -0.24080535769462585, 0.06742618978023529, 0.46099793910980225, -0.43842148780822754, 0.24163007736206055, -0.19566789269447327, 0.24001306295394897, 0.3894767463207245, -0.42035210132598877, 0.2478771060705185, 0.37203797698020935, -1.220139741897583, -1.1256407499313354, 0.17330725491046906, -0.26081138849258423, -0.9309757947921753, -0.646135151386261, -0.006706353276968002, -0.7589860558509827, -0.292446106672287, -0.32780951261520386, 0.09171837568283081, 0.32234475016593933, 0.1693522334098816, 0.22487694025039673, 0.2700600028038025, -0.0243279580026865, -0.7979347705841064, -0.3503663241863251, -0.2627476453781128, 0.4964403212070465, -0.4051238000392914, -0.8928619623184204, -0.24555568397045135, -0.7192047238349915, 0.7174030542373657, -0.8051463961601257, 1.0517655611038208, -0.1659066379070282, 0.0931239202618599, -0.3035242259502411, -0.5415948033332825, -0.2773655354976654, -0.3840818405151367, -0.07856147736310959, 0.35397520661354065, 0.21370403468608856, 0.312841534614563, -0.6329103708267212, 0.8958029747009277, -0.3918943405151367, -0.27368688583374023, 0.011023631319403648], [-0.04327851161360741, 0.5310699939727783, 0.24406953155994415, 0.037131380289793015, 0.13234834372997284, -0.8540825843811035, 0.7145034670829773, -0.4407937526702881, -0.27709949016571045, 0.1080978587269783, 0.04827779904007912, 0.004409089684486389, -0.017508139833807945, -0.5264400839805603, -0.005753775592893362, 0.9555723667144775, 0.11154673248529434, -0.43907225131988525, 0.2905476689338684, -0.41968128085136414, 0.34571075439453125, -0.3040686547756195, 0.45070141553878784, 0.8261085152626038, -0.1604902297258377, -0.32874324917793274, 1.0111082792282104, 0.5578362941741943, 0.051474880427122116, -0.42957794666290283, -0.7284671664237976, -0.39685025811195374, -0.01275987084954977, 0.20571717619895935, 0.08269288390874863, 0.10826265066862106, 0.22030390799045563, -0.39705270528793335, 0.26245543360710144, 0.7809976935386658, 0.40228182077407837, -0.11900831013917923, 0.5404269099235535, 0.37171632051467896, -0.449881911277771, 0.28516119718551636, 0.12345186620950699, -0.14706797897815704, -1.2583359479904175, 0.21093490719795227, 0.19864508509635925, -0.9011862874031067, -1.035836935043335, -0.1984131783246994, -0.5400472283363342, 0.22222062945365906, -0.07299213856458664, 0.1553543210029602, 0.6484334468841553, -0.5823186635971069, 0.6374310255050659, -0.1332482099533081, -0.08691827952861786, -0.3951824903488159, -0.630459725856781, -0.559568464756012, 0.5914814472198486, -0.6965048909187317, -0.1250046044588089, -0.04997451975941658, 0.19022516906261444, 0.39595791697502136, 0.8219408392906189, 0.40246260166168213, 0.49775201082229614, -0.06643015891313553, 0.08693987876176834, -0.24269799888134003, -1.1964751482009888, -0.36447808146476746, -0.026039153337478638, 0.13232098519802094, -0.21541965007781982, 0.414446622133255, -0.21288469433784485, 0.3998295068740845, 0.3115924298763275, 0.06887932866811752, -1.112394094467163, 0.569510281085968, -0.00029634375823661685, -0.9111524820327759, -0.2028191238641739, 0.08938859403133392, 0.3163803219795227, 0.6266121864318848, 0.1410517543554306, -0.1928708702325821, -0.2493896335363388, 0.0025601207744330168, -1.6203091144561768, 0.5589991807937622, -0.4176672399044037, 0.6157553791999817, -1.006394624710083, 0.007409924641251564, -0.553390622138977, -0.3420143127441406, -0.5965472459793091, 1.0259367227554321, 0.04757443442940712, -0.016059041023254395, 0.005489378701895475, 0.12767063081264496, -0.5120353102684021, -0.3090616464614868, 0.6185335516929626, -0.061923205852508545, -0.4394369125366211, 0.026036571711301804, -0.09034872055053711, 0.03967466950416565, 0.4561195969581604, 0.36239200830459595, -0.1721981316804886, 0.37621578574180603, 0.6202468276023865, -0.3004283607006073, 0.006608898751437664, -0.021568045020103455, 0.335021048784256, -0.8372814655303955, -0.5783111453056335, 0.4615073502063751, 0.49141114950180054, -0.3917378783226013, 0.09128350764513016, -0.2896043360233307, 0.10506998002529144, -0.4131198227405548, 0.5223352909088135, 0.4166716933250427, -0.10322612524032593, -0.271703839302063, 0.924713134765625, 0.5232935547828674, 0.1916486769914627, -0.3306415379047394, 0.031174782663583755, -0.17190799117088318, 0.7584843635559082, -0.44029149413108826, 0.11393589526414871, 0.39391303062438965, -0.28191548585891724, -0.9227028489112854, -0.806100070476532, -0.8377756476402283, 0.43120360374450684, 0.22553887963294983, -0.08408313989639282, -1.0443178415298462, 0.27924591302871704, -0.08167590945959091, 0.8414041996002197, 0.34187379479408264, -1.0397924184799194, -0.31851574778556824, 0.11791115254163742, 0.5314205288887024, 0.11317896097898483, -0.02316378615796566, -0.12007571756839752, 0.5691087245941162, -0.7474757432937622, -0.11848817020654678, -0.40019282698631287, -0.11729513853788376, -0.25739654898643494, -0.14341682195663452, -0.8023455142974854, 0.2067917287349701, 0.05344992130994797, -0.7121268510818481, 0.3634641468524933, -0.02104470692574978, -0.5099115371704102, 0.09375720471143723, 0.19505248963832855, -0.6949213743209839, 0.11906803399324417, -0.06483563035726547, -0.47794485092163086, 0.20608603954315186, -0.8021336197853088, -0.8428812026977539, -0.19222719967365265, 0.5577309727668762], 